/*
 * This file is auto-generated by gen-weights.py
 */

#pragma once

#include "definitions.h"
#include "conv_weights.h"


// Conv1 layer weights.
float conv1_weights [KRN_ROWS][KRN_COLS][CHANNELS1][FILTERS1]
	= {
			{
				
{ 				{ -0.4351281523704529, -0.19270367920398712, -0.131045863032341, -0.33597519993782043, 0.07749985158443451, -0.013616526499390602, -0.2739729881286621, 0.14183402061462402, -0.10869542509317398, 0.4081907868385315, -0.05134764313697815, 0.2171982377767563, 0.02543902024626732, -0.4618336260318756, 0.15966017544269562, -0.06325288116931915, -0.4304217994213104, -0.032844044268131256, -0.47703275084495544, -0.08654505014419556 }
			},
				
{ 				{ 0.16077278554439545, 0.612123429775238, -0.49172738194465637, 0.30582278966903687, 0.0552687905728817, 0.35094913840293884, 0.18955358862876892, 0.13453741371631622, 0.12523451447486877, -0.09522435814142227, -0.01181936077773571, -0.06440143287181854, 0.054678626358509064, 0.377224326133728, -0.24648417532444, -0.18390023708343506, -0.3282441198825836, 0.6020100712776184, 0.14863963425159454, 0.060186754912137985 }
			},
				
{ 				{ -0.07823829352855682, 0.27768000960350037, 0.38592544198036194, -0.016841590404510498, -0.354095995426178, -0.2010030597448349, 0.27459609508514404, 0.1599515974521637, 0.653263509273529, 0.47613105177879333, -0.2535046339035034, 0.22208011150360107, 0.2771953046321869, 0.05476200580596924, -0.5281206965446472, -0.012487182393670082, -0.5323598384857178, 0.11066613346338272, 0.07705925405025482, 0.2820811867713928 }
			},
				
{ 				{ 0.3671015799045563, -0.3986302614212036, 0.24655362963676453, -0.2077072113752365, -0.6678938865661621, -0.5982760787010193, 0.10462524741888046, -0.021017469465732574, 0.168783038854599, 0.2976545989513397, 0.09829205274581909, -0.13751335442066193, -0.22358982264995575, 0.08148954063653946, 0.1460215002298355, 0.22335603833198547, -0.1382625699043274, 0.5150037407875061, -0.5499417185783386, -0.09777999669313431 }
			},
				
{ 				{ 0.06044915318489075, -0.34119418263435364, 0.15879905223846436, -0.1956646889448166, -0.34941256046295166, -0.7444424629211426, 0.3652727007865906, -0.17165040969848633, 0.2766037583351135, -0.4920845627784729, -0.062115948647260666, 0.08993972092866898, -0.20570749044418335, 0.2705948054790497, -0.35085779428482056, -0.2912482023239136, -0.22305089235305786, 0.12170795351266861, 0.21197599172592163, 0.15724100172519684 }
			}
	},			{
				
{ 				{ -0.1882968246936798, 0.10554498434066772, 0.3213106095790863, 0.038873497396707535, 0.08086822181940079, 0.4168781340122223, -0.5212112069129944, 0.18151263892650604, -0.592174232006073, -0.09643645584583282, 0.5020514726638794, -0.289104163646698, -0.30122557282447815, 0.4084886908531189, -0.12356189638376236, 0.26712414622306824, -0.5173888206481934, -0.465991735458374, 0.14181137084960938, -0.1877611130475998 }
			},
				
{ 				{ -0.18127432465553284, 0.2209029346704483, 0.05797135829925537, 0.5082417726516724, 0.5795614719390869, 0.1565626710653305, -0.14015980064868927, 0.38539478182792664, -0.24644090235233307, -0.2810963988304138, 0.3652757406234741, -0.1962171494960785, 0.12154964357614517, 0.20150646567344666, -0.40781059861183167, -0.1760263293981552, -0.4845394194126129, -0.3031843602657318, 0.38406652212142944, -0.09527058154344559 }
			},
				
{ 				{ 0.030114302411675453, -0.4137488007545471, 0.28035059571266174, -0.5311319231987, 0.38914936780929565, -0.5149534344673157, 0.24574120342731476, 0.013494961895048618, 0.2251494824886322, -0.5553697943687439, 0.24765579402446747, -0.4862786829471588, 0.5569540858268738, 0.4708409011363983, -0.3366020917892456, -0.41407832503318787, -0.1546960026025772, -0.46784645318984985, 0.017284926027059555, 0.17502135038375854 }
			},
				
{ 				{ -0.018419260159134865, -0.5645607113838196, 0.4773193895816803, -0.45843029022216797, -0.0066674393601715565, 0.12143795192241669, 0.08733294159173965, 0.14206869900226593, -0.15504604578018188, -0.4545964300632477, -0.4119562804698944, -0.2525884211063385, -0.3092830777168274, 0.4387054443359375, 0.37308910489082336, 0.0996924340724945, -0.15124692022800446, -0.5980640649795532, -0.1883104294538498, 0.2510875165462494 }
			},
				
{ 				{ 0.42309504747390747, 0.3226202130317688, 0.37971460819244385, -0.2984531819820404, -0.6045961380004883, -0.5246118903160095, -0.21410760283470154, -0.36732444167137146, 0.37317535281181335, -0.21147316694259644, 0.24350899457931519, -0.6828468441963196, -0.6378318071365356, 0.23467303812503815, -0.5345321297645569, 0.3258536458015442, -0.5995696187019348, -0.7339969277381897, 0.4739871621131897, -0.2961774468421936 }
			}
	},			{
				
{ 				{ 0.16101935505867004, 0.32762035727500916, -0.4801267385482788, 0.24515673518180847, -0.04867016151547432, 0.4765559136867523, 0.5375632643699646, 0.043484196066856384, -0.5627701282501221, -0.2833600342273712, -0.449858695268631, 0.22191289067268372, -0.5356345772743225, 0.0060101645067334175, 0.4721096158027649, -0.4593450427055359, 0.23902061581611633, -0.17367242276668549, 0.11709677428007126, 0.4507799744606018 }
			},
				
{ 				{ -0.1175551563501358, -0.017361151054501534, -0.6105602979660034, 0.27793747186660767, -0.23889611661434174, -0.31371861696243286, -0.22192487120628357, 0.4427156448364258, -0.3818731904029846, -0.3887794315814972, -0.17466354370117188, -0.03073214925825596, 0.3191758990287781, -0.2698104977607727, -0.2165624350309372, -0.36660853028297424, 0.07237882912158966, -0.08198821544647217, 0.311694473028183, 0.2903204560279846 }
			},
				
{ 				{ -0.33710524439811707, -0.3635430634021759, -0.49880027770996094, -0.10419835895299911, 0.5701490044593811, 0.19375981390476227, 0.49356943368911743, -0.17957337200641632, -0.30551570653915405, 0.41936349868774414, -0.028991801664233208, 0.5238912105560303, 0.18552625179290771, -0.4979071021080017, 0.3195195198059082, 0.2964453101158142, -0.3383755385875702, -0.5092102289199829, 0.3467767536640167, 0.2599671483039856 }
			},
				
{ 				{ -0.03353840857744217, -0.1332521140575409, -0.5158135294914246, -0.38414663076400757, 0.33820828795433044, 0.16372060775756836, 0.5179231762886047, 0.29267019033432007, 0.31533557176589966, 0.32538101077079773, -0.34637168049812317, 0.32967329025268555, 0.3996433913707733, -0.11029849201440811, -0.4294690489768982, 0.15427444875240326, -0.6681815385818481, -0.6084167957305908, -0.4228656589984894, 0.28197166323661804 }
			},
				
{ 				{ 0.4565933644771576, -0.10410383343696594, -0.11092245578765869, 0.2098567634820938, 0.39260193705558777, -0.5206165909767151, 0.14752666652202606, -0.672124445438385, 0.38591256737709045, 0.6002373099327087, 0.3806052505970001, -0.12246295064687729, -0.6842097043991089, 0.17680013179779053, 0.24219131469726562, -0.05471624806523323, -0.33039039373397827, 0.1864035278558731, 0.061570778489112854, -0.0899227187037468 }
			}
	},			{
				
{ 				{ -0.6840092539787292, -0.32057079672813416, 0.2251555472612381, 0.3236611485481262, -0.6948216557502747, 0.12897905707359314, 0.5223923325538635, 0.22741733491420746, 0.21745625138282776, -0.3721490204334259, 0.2840195894241333, 0.33189553022384644, -0.2560613751411438, -0.5798577666282654, 0.4321143627166748, 0.07512233406305313, -0.41367775201797485, -0.033302437514066696, 0.22457823157310486, -0.24349680542945862 }
			},
				
{ 				{ -0.6079234480857849, -0.5396344065666199, 0.2685311436653137, 0.17090821266174316, 0.2769412696361542, -0.467282772064209, -0.39753457903862, -0.006059984210878611, -0.6277205348014832, 0.4171140491962433, 0.07523826509714127, 0.2839479446411133, -0.028530767187476158, 0.30407777428627014, -0.1088162213563919, -0.5144553184509277, -0.2071293443441391, 0.3595387041568756, 0.28692108392715454, 0.23542369902133942 }
			},
				
{ 				{ 0.4754178822040558, -0.3865376114845276, -0.5736151337623596, -0.439278244972229, -0.10703275352716446, -0.2219311147928238, -0.29915866255760193, 0.19030331075191498, -0.1635008454322815, -0.2779501974582672, -0.27925050258636475, 0.05190277099609375, 0.3258364498615265, -0.4092564880847931, -0.5414099097251892, -0.2391655445098877, -0.053421925753355026, -0.2975105345249176, 0.2651294469833374, -0.3764500617980957 }
			},
				
{ 				{ -0.08832984417676926, 0.0561538003385067, -0.5897647738456726, 0.44147127866744995, 0.27248743176460266, 0.11709148436784744, -0.3372349143028259, -0.16838152706623077, -0.19847077131271362, 0.4806442856788635, 0.45296958088874817, 0.15947885811328888, 0.3118368089199066, -0.03682347387075424, 0.27166298031806946, 0.24679557979106903, 0.5617324113845825, 0.40369489789009094, 0.34665679931640625, 0.19704405963420868 }
			},
				
{ 				{ 0.05942216143012047, -0.23336568474769592, 0.09701899439096451, 0.3022071421146393, -0.2957475781440735, -0.0718543753027916, -0.5270317196846008, -0.6598160862922668, 0.5021770000457764, -0.13512064516544342, -0.08258756995201111, -0.09340014308691025, -0.06356604397296906, -0.252052366733551, 0.34548643231391907, 0.4498217701911926, 0.23799064755439758, -0.11123845726251602, -0.08577488362789154, 0.37002333998680115 }
			}
	},			{
				
{ 				{ 0.06845510751008987, -0.08893881738185883, 0.40325653553009033, 0.4835928976535797, 0.07470785826444626, -0.797196090221405, -0.34033796191215515, -0.4339596629142761, 0.1849193423986435, 0.5325043797492981, -0.6158360838890076, -0.5611310005187988, -0.1660573035478592, -0.2571592330932617, 0.4398021996021271, -0.4152485132217407, 0.30071139335632324, 0.35731518268585205, -0.19899527728557587, -0.20173379778862 }
			},
				
{ 				{ 0.3225642144680023, 0.4004404842853546, 0.35701531171798706, 0.19619935750961304, -0.44105836749076843, -0.1904188096523285, 0.22795914113521576, 0.40104028582572937, -0.3420695662498474, 0.03580836206674576, 0.20854656398296356, -0.06044495478272438, -0.0068626622669398785, 0.0743107944726944, 0.1255170702934265, 0.20160341262817383, -0.35145896673202515, 0.001459013670682907, -0.061693448573350906, -0.45553848147392273 }
			},
				
{ 				{ 0.44759026169776917, 0.17839084565639496, -0.024959148839116096, -0.43622511625289917, 0.13065873086452484, -0.2989880442619324, -0.28559359908103943, 0.17452509701251984, -0.49131470918655396, -0.20644935965538025, -0.07167276740074158, -0.22925496101379395, -0.009156053885817528, 0.0905468761920929, -0.20271486043930054, -0.41755542159080505, 0.3458913564682007, 0.540693998336792, -0.46343475580215454, -0.00678281718865037 }
			},
				
{ 				{ -0.3012712597846985, 0.4523890018463135, -0.0984949842095375, -0.124910868704319, 0.07306884974241257, 0.27856457233428955, -0.6336030960083008, -0.060011595487594604, -0.9239411354064941, -0.36806830763816833, 0.42328646779060364, 0.21272024512290955, 0.09062869101762772, -0.4166138172149658, 0.24342560768127441, 0.35968637466430664, 0.16233013570308685, 0.4135192632675171, -0.4315840005874634, -0.19242198765277863 }
			},
				
{ 				{ 0.19864991307258606, 0.23555436730384827, -0.0033710224088281393, -0.28491681814193726, 0.067015640437603, 0.5366361737251282, -0.5727649331092834, -0.5109480023384094, -0.39756545424461365, -0.22564086318016052, -0.49466440081596375, 0.3420667350292206, 0.09226827323436737, -0.21207195520401, 0.24586810171604156, 0.42229464650154114, 0.7181124687194824, 0.30850204825401306, 0.16194677352905273, 0.2599376142024994 }
			}
	}};

// Conv1 layer biases.
float conv1_biases [FILTERS1] = { -0.27270203828811646, -0.04124663025140762, -0.09578565508127213, -0.11687179654836655, -0.11936013400554657, -0.02645736187696457, -0.0034852433018386364, -0.07247065752744675, 0.0682353600859642, -0.05535456910729408, -0.17827695608139038, -0.12865754961967468, -0.05702318623661995, -0.09796158969402313, -0.13640958070755005, -0.1258350908756256, 0.13498131930828094, -0.01861129142343998, -0.17832301557064056, -0.33502286672592163 };
// Conv2 layer weights.
float conv2_weights [KRN_ROWS][KRN_COLS][CHANNELS2][FILTERS2]
	= {
			{
				
{ 				{ -0.12117670476436615, -0.035117920488119125, -0.1451684981584549, -0.07934974879026413, 0.006127169355750084, -0.012022638693451881, -0.10633052885532379, 0.1275010108947754, -0.15262413024902344, -0.031913820654153824, 0.05915607139468193, -0.024862948805093765, -0.011884713545441628, -0.1263323426246643, -0.08207342773675919, -0.08202605694532394, 0.16622193157672882, -0.10661139339208603, 0.03929144889116287, -0.06844564527273178, -0.047624945640563965, 0.005579703953117132, -0.006489746738225222, -0.027365537360310555, -0.05031305551528931, 0.08705224841833115, -0.0369148887693882, 0.20690086483955383, 0.059342559427022934, -0.11078041791915894, 0.10320064425468445, 0.1242363229393959, -0.015537635423243046, 0.1533554643392563, -0.15294772386550903, 0.05641147866845131, 0.04753153398633003, -0.09308912605047226, 0.008952949196100235, -0.05544134974479675, -0.01956566981971264, 0.16174712777137756, -0.1450025588274002, 0.020588375627994537, -0.03602933883666992, 0.14532887935638428, -0.08829689025878906, -0.08015718311071396, 0.05739973485469818, 0.10584140568971634 },
				{ -0.26914921402931213, -0.0353442020714283, 0.09937753528356552, 0.09549852460622787, -0.0809931829571724, 0.17579354345798492, -0.10070329159498215, 0.28705042600631714, -0.12917473912239075, 0.023352622985839844, -0.060410965234041214, 0.06567355245351791, -0.08959844708442688, -0.10990127176046371, 0.06341579556465149, 0.12863627076148987, -0.005623119417577982, -0.144929900765419, 0.12092092633247375, -0.0070403446443378925, -0.04464774951338768, -0.12216406315565109, -0.011647338047623634, -0.2464907020330429, -0.046214595437049866, 0.10306477546691895, 0.29035961627960205, 0.00705352146178484, 0.03470056876540184, -0.18303941190242767, 0.2173871546983719, 0.06331684440374374, -0.07539236545562744, 0.05598234385251999, 0.0031150528229773045, 0.01130293495953083, 0.013454491272568703, -0.05276808515191078, -0.026745399460196495, 0.04452918842434883, -0.017847837880253792, -0.019535895437002182, 0.017115669324994087, 0.13349564373493195, -0.17940150201320648, 0.043705523014068604, 0.08153542876243591, 0.10893861949443817, 0.04443696141242981, 0.08945294469594955 },
				{ 0.05028371512889862, 0.055551718920469284, -0.05631987005472183, -0.1727195680141449, -0.11594638228416443, 0.041720516979694366, -0.02247503772377968, -0.2161768525838852, -0.07941914349794388, 0.10651124268770218, 0.12208890169858932, -0.07758047431707382, -0.04929661005735397, -0.03128906711935997, 0.04819116368889809, -0.005953638348728418, 0.04792153462767601, -0.004059052560478449, -0.07404640316963196, -0.20650537312030792, -0.1069100871682167, -0.3138215243816376, -0.05413132533431053, -0.032677967101335526, -0.04091350734233856, 0.09419000893831253, 0.162416473031044, -0.07592901587486267, 0.037986695766448975, -0.14222291111946106, -0.0007684796000830829, 0.06030900776386261, 0.127149298787117, -0.11614277213811874, -0.04457638040184975, 0.18916669487953186, 0.10005920380353928, -0.12976589798927307, 0.07323122024536133, -0.10151280462741852, -0.0026943369302898645, -0.07481467723846436, 0.16379761695861816, 0.14694015681743622, 0.019206393510103226, -0.10169669985771179, -0.13341185450553894, 0.10925716906785965, 0.045365575700998306, 0.09801141172647476 },
				{ -0.02514006569981575, -0.01538145262748003, 0.17456704378128052, 0.11513099819421768, -0.08358489722013474, 0.06363051384687424, -0.036050617694854736, -0.1405859887599945, -0.12215553224086761, 0.11673782020807266, -0.02608712762594223, 0.06639543920755386, 0.039341945201158524, -0.027627918869256973, -0.021805625408887863, 0.0034834472462534904, 0.08740681409835815, -0.07345166802406311, 0.007337438873946667, 0.17803655564785004, 0.03452084958553314, -0.11749619245529175, -0.02273203805088997, -0.014650590717792511, -0.22540362179279327, -0.19706565141677856, -0.2794763743877411, -0.06621956080198288, 0.030555138364434242, -0.008409135974943638, 0.11783972382545471, -0.24557697772979736, 0.022012069821357727, 0.05565689504146576, -0.0011595927644520998, 0.09622631222009659, 0.1588941067457199, 0.11344418674707413, -0.0488891676068306, 0.03469790890812874, 0.00459496583789587, -0.049513354897499084, 0.02978280745446682, 0.1367163509130478, -0.15963083505630493, -0.05904778093099594, -0.10794882476329803, 0.0016907374374568462, -0.05210236832499504, 0.05079721286892891 },
				{ 0.30210816860198975, -0.1095515638589859, 0.20102445781230927, 0.056320950388908386, 0.030359232798218727, -0.13550519943237305, -0.04923717677593231, 0.14910225570201874, 0.14906643331050873, 0.11645667254924774, -0.23276181519031525, -0.021675441414117813, -0.17411433160305023, 0.0027171175461262465, -0.1576160341501236, -0.1863727867603302, -0.016614537686109543, -0.16462235152721405, -0.20061495900154114, 0.145687535405159, -0.032954297959804535, -0.08214957267045975, -0.05848308652639389, 0.09748523682355881, -0.20850200951099396, -0.09461791813373566, 0.04038245230913162, -0.09599108248949051, -0.01790541782975197, 0.08741693943738937, 0.26230624318122864, -0.14286136627197266, -0.10132888704538345, -0.04706157371401787, -0.06696011126041412, -0.04672710970044136, 0.01593973860144615, -0.26243284344673157, 0.030685391277074814, 0.12705735862255096, -0.15320131182670593, -0.25466740131378174, -0.18276099860668182, -0.15882912278175354, -0.06241384521126747, 0.1298055797815323, 0.0025162063539028168, 0.284601092338562, -0.12824250757694244, -0.11172842979431152 },
				{ -0.05932100489735603, 0.07131849229335785, 0.08202217519283295, 0.08411265164613724, -0.1393180787563324, 0.12984560430049896, -0.10778404027223587, 0.05660465732216835, -0.19128412008285522, 0.07827452570199966, -0.28176450729370117, -0.2149381935596466, -0.1149555891752243, 0.08762596547603607, 0.1514873057603836, -0.08822958171367645, 0.030442582443356514, -0.20446665585041046, 0.21428155899047852, -0.0867290273308754, -0.02319820411503315, 0.042322203516960144, -0.17699673771858215, -0.054437313228845596, -0.04573774337768555, -0.1319902539253235, 0.06881239265203476, -0.1506519317626953, 0.05741981044411659, -0.11579395830631256, 0.09394677728414536, -0.07492873817682266, -0.0985184982419014, 0.1419597715139389, 0.049502935260534286, -0.1925526261329651, 0.08098766952753067, 0.09121784567832947, -0.09832129627466202, -0.12432793527841568, -0.0948130264878273, -0.09517540037631989, -0.09463249146938324, 0.09581507742404938, 0.05576122924685478, -0.1494075357913971, 0.06561363488435745, 0.0026208176277577877, 0.04924073815345764, 0.05300218611955643 },
				{ -0.1164044439792633, -0.09019282460212708, 0.053376052528619766, 0.010148720815777779, -0.24088802933692932, -0.057030800729990005, 0.11889439821243286, -0.09647762030363083, 0.21689248085021973, -0.015152107924222946, 0.2057417780160904, -0.08069875091314316, -0.1731797605752945, -0.06299206614494324, 0.04802463948726654, 0.07015262544155121, -0.1680857092142105, 0.0822555273771286, 0.15698401629924774, 0.03988533467054367, -0.19844670593738556, -0.11265671253204346, -0.05987417697906494, 0.012529462575912476, 0.08582910895347595, 0.032529719173908234, -0.029322894290089607, 0.09242026507854462, -0.17777438461780548, 0.019548816606402397, 0.0021730493754148483, 0.009893538430333138, 0.007837560027837753, 0.012869181111454964, 0.07095298171043396, 0.08709262311458588, 0.09524571895599365, -0.04751463979482651, -0.15151581168174744, -0.0802454799413681, -0.04992317780852318, -0.05966087803244591, 0.12281707674264908, 0.11602071672677994, 0.1579698920249939, -0.126241996884346, -0.1117401197552681, -0.06241748109459877, 0.033549971878528595, 0.07600662112236023 },
				{ -0.00110308185685426, -0.23837390542030334, 0.020617153495550156, -0.07596411556005478, -0.06685484945774078, 0.06026254594326019, 0.10831046104431152, -0.06840695440769196, -0.017658956348896027, -0.015547866933047771, -0.02229151502251625, -0.0760735273361206, 0.0007238604594022036, 0.032458823174238205, 0.0312713123857975, -0.07734833657741547, 0.0012856636894866824, 0.15550900995731354, -0.12413976341485977, 0.006487699691206217, -0.06383220851421356, -0.16193586587905884, -0.05010995268821716, -0.11535948514938354, 0.01388717070221901, -0.015125593170523643, -0.17308485507965088, -0.008955748751759529, -0.01853855513036251, 0.07912401109933853, -0.05848640203475952, -0.07278084009885788, -0.012675054371356964, 0.13817304372787476, 0.10921496897935867, 0.272842675447464, 0.04172153398394585, 0.033518534153699875, -0.10911370813846588, -0.027559693902730942, 0.19366097450256348, -0.00836108811199665, -0.07621361315250397, 0.03751135244965553, 0.05553614720702171, -0.13127394020557404, 0.011717724613845348, 0.07299748808145523, 0.02322584018111229, -0.004207830876111984 },
				{ 0.04765288904309273, 0.07245508581399918, 0.05613836273550987, -0.21262162923812866, -0.1352774053812027, -5.548269837163389e-05, 0.046180982142686844, -0.13956311345100403, 0.06707533448934555, 0.06489445269107819, -0.3034026622772217, -0.09057340025901794, -0.13844406604766846, -0.01552620343863964, -0.10019738972187042, 0.01958695612847805, -0.1420539766550064, -0.003273546230047941, -0.1524023711681366, -0.10035604983568192, -0.1599922776222229, -0.055988434702157974, 0.05473518371582031, 0.13151559233665466, 0.21424172818660736, 0.04742266237735748, 0.08909370005130768, -0.1671750694513321, 0.05968004837632179, 0.12418697774410248, 0.07552493363618851, -0.11572665721178055, -0.18120624125003815, -0.34464719891548157, -0.2155691683292389, 0.13484406471252441, 0.17635251581668854, -0.09263098984956741, 0.1375707983970642, -0.006385457701981068, -0.1532207727432251, -0.20035789906978607, -0.11052902042865753, -0.07639358192682266, 0.2705111503601074, 0.06769771128892899, 0.015566094778478146, -0.051014386117458344, 0.19512821733951569, -0.0277826227247715 },
				{ 0.24320685863494873, -0.10718552023172379, 0.0762883871793747, 0.00875661987811327, -0.1813483089208603, 0.06016646698117256, 0.04315531253814697, -0.04650512710213661, 0.14888650178909302, 0.052117783576250076, 0.0025038488674908876, -0.2586474120616913, 0.04416067525744438, 0.14553208649158478, -0.07140304893255234, 0.1614004373550415, -0.038171906024217606, 0.07963623106479645, 0.13276390731334686, 0.0915621891617775, 0.14331500232219696, -0.03720768541097641, -0.11336231231689453, 0.12058577686548233, 0.058538444340229034, 0.00949748232960701, 0.10553485155105591, -0.1906680166721344, 0.1302608847618103, -0.08997490257024765, 0.17085914313793182, 0.0069242739118635654, 0.1542903184890747, 0.15590505301952362, -0.097322016954422, -0.021097145974636078, 0.16230954229831696, -0.3897252082824707, -0.07357976585626602, -0.010891259647905827, -0.07107027620077133, -0.10589461773633957, 0.09640703350305557, -0.0321560837328434, 0.09706919640302658, -0.08568395674228668, 0.17931386828422546, 0.09325877577066422, 0.03621210157871246, 0.07588478922843933 },
				{ -0.034933194518089294, 0.06310304254293442, 0.18492481112480164, -0.03490922227501869, -0.020848991349339485, 0.020020900294184685, -0.03147788718342781, 0.13825233280658722, -0.0041752466931939125, 0.03256284072995186, -0.2694595456123352, -0.11786307394504547, -0.1256004273891449, -0.05454990640282631, 0.017936429008841515, -0.13412831723690033, 0.036627624183893204, 0.07898570597171783, -0.10067307204008102, -0.03648607060313225, 0.10662928968667984, -0.12980236113071442, -0.05438511073589325, -0.07427454739809036, 0.03478396311402321, 0.14906050264835358, 0.12167874723672867, 0.06660418957471848, -0.22430571913719177, 0.07823246717453003, 0.1522187888622284, -0.08436945080757141, 0.0494702011346817, 0.1731179803609848, -0.2639058232307434, 0.06655602902173996, -0.016687793657183647, -0.10001632571220398, -0.14214758574962616, -0.029675286263227463, -0.08979672193527222, 0.0484829843044281, -0.08520850539207458, -0.036058712750673294, 0.20015835762023926, 0.07072830945253372, -0.12183481454849243, 0.01917935721576214, 0.04627223685383797, -0.06397425383329391 },
				{ 0.30986976623535156, -0.040695831179618835, 0.2632438838481903, 0.2079596072435379, 0.12912994623184204, -0.1306505799293518, -0.18375948071479797, -0.043827809393405914, 0.07587797939777374, 0.004464801866561174, -0.2249617576599121, -0.20752465724945068, -0.061850402504205704, 0.05346754565834999, -0.09543675184249878, -0.04374287277460098, -0.20514100790023804, -0.1413223296403885, -0.12323781847953796, 0.15323081612586975, -0.09002076089382172, 0.03456062078475952, -0.11165834963321686, 0.18698719143867493, -0.20732466876506805, -0.07363858073949814, 0.013981083407998085, -0.23842188715934753, -0.02507077157497406, -0.07405288517475128, 0.08528527617454529, 0.0359654538333416, -0.004847364500164986, 0.055650271475315094, -0.08086388558149338, -0.15164855122566223, 0.15044602751731873, 0.017144931480288506, 0.08496183156967163, -0.20714180171489716, -0.016173170879483223, -0.08072447031736374, -0.04068514704704285, 0.09942151606082916, -0.06616094708442688, 0.008751058019697666, -0.04416493698954582, 0.023556403815746307, -0.047269321978092194, 0.05236094444990158 },
				{ 0.24904261529445648, -0.03940994292497635, -0.012791496701538563, 0.03863907232880592, -0.15870021283626556, -0.07150323688983917, 0.1101507619023323, -0.049488477408885956, 0.0010997419012710452, 0.1278548240661621, 0.03854798153042793, -0.011148667894303799, -0.20605722069740295, 0.13761214911937714, -0.1335427165031433, -0.11251566559076309, -0.06039473041892052, 0.08333054184913635, -0.1709223836660385, 0.04234727844595909, 0.03622712939977646, 0.02985193207859993, -0.04022128880023956, 0.14133663475513458, -0.04293685778975487, -0.05470831319689751, -0.2651187777519226, -0.0584166944026947, 0.05631835758686066, 0.13394299149513245, 0.16413579881191254, -0.13025446236133575, 0.02702515199780464, -0.13004204630851746, -0.026325158774852753, -0.21651475131511688, 0.13153362274169922, 0.024468056857585907, 0.10584364086389542, -0.056614816188812256, -0.020694637671113014, -0.08181367069482803, -0.06335775554180145, -0.004719796124845743, -0.06305423378944397, -0.13596133887767792, -0.006827340926975012, 0.2165714055299759, -0.09807778149843216, -0.10106223076581955 },
				{ 0.07832063734531403, -0.17267024517059326, -0.04216665029525757, -0.05945604667067528, -0.026360368356108665, -0.02463332749903202, 0.17268572747707367, 0.037182241678237915, 0.09671182185411453, 0.08239392936229706, -0.06644608080387115, -0.2179691642522812, -0.17820627987384796, -0.08829794824123383, -0.09499561786651611, -0.09802468866109848, -0.09322966635227203, 0.06818421930074692, 0.010794470086693764, -0.09785578399896622, -0.002996325260028243, -0.18611253798007965, -0.010067207738757133, -0.03796352446079254, -0.08051539212465286, 0.10245679318904877, 0.11628703027963638, -0.07540235668420792, -0.18966004252433777, 0.01619872637093067, -0.17558075487613678, -0.03000972792506218, -0.1037851944565773, 0.06870350241661072, -0.03032664582133293, 0.22904396057128906, -0.09731432795524597, -0.2454633265733719, -0.06297128647565842, -0.21069352328777313, 0.09258053451776505, 0.06195392459630966, 0.03659216687083244, 0.07192107290029526, 0.06889152526855469, 0.10993165522813797, 0.0890750139951706, -0.14406009018421173, -0.06139426678419113, -0.01823674514889717 },
				{ -0.03797870874404907, 0.01506744883954525, 0.051519714295864105, 0.06561965495347977, 0.07300784438848495, 0.011333266273140907, -0.10010134428739548, 0.047902047634124756, -0.1247323751449585, -0.13895832002162933, -0.23457980155944824, 0.03735918551683426, 0.01885342411696911, 0.006530990824103355, 0.06701438874006271, -0.0632818266749382, 0.11219017952680588, -0.19342932105064392, -0.15229080617427826, 0.08909150213003159, -0.18234439194202423, 0.011463817209005356, 0.06651122123003006, 0.06572350859642029, -0.2860044538974762, 0.058402929455041885, -0.024808751419186592, 0.12608382105827332, -0.02261502481997013, -0.16326835751533508, 0.27758026123046875, 0.06182665377855301, -0.01846827194094658, -0.0665820986032486, -0.06403068453073502, -0.08355487138032913, 0.2569716274738312, 0.13979586958885193, 0.13587109744548798, 0.05371107533574104, -0.0032371715642511845, 0.13732865452766418, -0.07658325135707855, -0.23169465363025665, -0.08216804265975952, -0.04452115297317505, -0.1170484721660614, 0.08526508510112762, -0.1426762193441391, -0.14500665664672852 },
				{ -0.1216946467757225, 0.08645717799663544, -0.11706583946943283, 0.023400722071528435, -0.09781019389629364, -0.049221862107515335, -0.1357041299343109, 0.17755961418151855, -0.2038107067346573, -0.01759166643023491, -0.056177496910095215, 0.10294641554355621, -0.0210172850638628, -0.0461074635386467, -0.10785526782274246, 0.026657994836568832, 0.014995204284787178, -0.030061684548854828, -0.07039304077625275, -0.19329777359962463, -0.03790340572595596, 0.037212856113910675, -0.023173412308096886, -0.07878841459751129, 0.09093359857797623, 0.0399877093732357, 0.09200751781463623, 0.04902235418558121, -0.013377159833908081, -0.05927484855055809, 0.03378038853406906, 0.08112725615501404, -0.08851470798254013, 0.004488724749535322, -0.18129485845565796, -0.1368681937456131, 0.04495382308959961, -0.005307532846927643, -0.020566580817103386, 0.06868886947631836, -0.09910587966442108, -0.06363166123628616, -0.18733860552310944, -0.18347667157649994, -0.054698340594768524, 0.13625408709049225, -0.07395864278078079, -0.06738151609897614, -0.10155543684959412, 0.01606329157948494 },
				{ -0.12280221283435822, 0.13603976368904114, 0.010101066902279854, -0.13432958722114563, -0.030109761282801628, 0.1619669795036316, -0.08761199563741684, 0.10456379503011703, -0.14739757776260376, 0.05494256690144539, -0.08786454051733017, -0.07573482394218445, -0.09163553267717361, -0.10688742995262146, 0.06066456064581871, -0.01814556121826172, -0.07314997166395187, -0.2825366258621216, 0.1287142038345337, 0.1208314597606659, -0.19505396485328674, 0.0803992822766304, 0.06664799153804779, -0.0833199992775917, -0.0949769988656044, 0.00934854056686163, 0.21261414885520935, -0.09581208229064941, 0.02148708701133728, -0.15407012403011322, 0.11648277193307877, 0.27799302339553833, -0.09152966737747192, 0.08445847034454346, -0.23974865674972534, -0.031605686992406845, 0.29164430499076843, 0.09029467403888702, 0.02761620096862316, 0.17280213534832, 0.011268082074820995, -0.04220637306571007, -0.06740270555019379, -0.07584451138973236, -0.2627219259738922, 0.30599308013916016, -0.07945098727941513, -0.0953037291765213, -0.058846425265073776, -0.20600555837154388 },
				{ -0.047041136771440506, 0.008340565487742424, 0.1383100301027298, 0.04448474198579788, 0.07862889021635056, -0.03565865755081177, -0.15348409116268158, 0.11577325314283371, -0.09096958488225937, -0.019740844145417213, -0.054742392152547836, -0.1042446568608284, -0.02027728594839573, 0.011868519708514214, 0.00012573153071571141, 0.029087550938129425, 0.006745568010956049, -0.07443660497665405, -0.022316157817840576, 0.16424447298049927, 0.045378249138593674, -0.026335205882787704, -0.014416825957596302, 0.052017536014318466, -0.2277507781982422, 0.09126551449298859, 0.14914503693580627, -0.08240493386983871, 0.18144166469573975, -0.10138346254825592, 0.16015087068080902, 0.32677626609802246, -0.07376255840063095, 0.02575136348605156, -0.2783496379852295, -0.08880089968442917, 0.028770998120307922, -0.00668438570573926, -0.04371780902147293, 0.07698407024145126, -0.053585197776556015, -0.060825299471616745, 0.020538048818707466, -0.1234879195690155, -0.27954182028770447, 0.04151146858930588, 0.024823714047670364, 0.004304844886064529, -0.20125572383403778, 0.05936341732740402 },
				{ 0.11736141890287399, -0.1459985077381134, 0.06672841310501099, 0.09028555452823639, -0.023239988833665848, -0.09442027658224106, 0.1437245011329651, -0.041817497462034225, -0.12303546071052551, 0.04282825067639351, 0.1158798336982727, -0.041096385568380356, -0.11259409785270691, -0.11631252616643906, -0.031838320195674896, -0.008705257438123226, -0.03993282467126846, -0.026838622987270355, -0.07549898326396942, 0.01947636716067791, -0.010557945817708969, -0.06320299953222275, 0.00021011274657212198, 0.004480573348701, 0.09628094732761383, -0.13963183760643005, -0.19162414968013763, 0.057279981672763824, -0.17611001431941986, 0.0935061126947403, -0.007874291390180588, -0.19538749754428864, 0.005396528635174036, -0.1829451620578766, -0.007402472198009491, 0.13036863505840302, 0.045774638652801514, -0.11708290129899979, 0.034645453095436096, -0.20422068238258362, 0.034039206802845, 0.11850546300411224, 0.010083310306072235, -0.010192782618105412, -0.061018429696559906, 0.014680941589176655, 0.023680614307522774, -0.08075606822967529, -0.04425801709294319, 0.03219489008188248 },
				{ 0.11931299418210983, -0.006329420022666454, 0.08378966152667999, 0.054474957287311554, 0.027331609278917313, -0.16935795545578003, 0.03138178959488869, -0.005940776783972979, -0.09654630720615387, 0.06284157186746597, -0.08395786583423615, 0.06165069341659546, -0.13732212781906128, -0.021192068234086037, -0.025138773024082184, -0.029787512496113777, -0.15099532902240753, -0.027138764038681984, -0.027025051414966583, -0.014519254676997662, 0.04776836186647415, 0.052721057087183, -0.08630570024251938, 0.15347544848918915, 0.022836575284600258, -0.1576894372701645, -0.05345981940627098, -0.03920292481780052, -0.09920693188905716, 0.12500523030757904, 0.06548083573579788, -0.2266271859407425, -0.024007469415664673, 0.04537225887179375, -0.0833100900053978, 0.18368937075138092, -0.010707560926675797, 0.015658056363463402, -0.04472389817237854, -0.16319303214550018, -0.08901577442884445, -0.05300078168511391, -0.12304535508155823, 0.07921221852302551, -0.0018685274990275502, -0.06623488664627075, 0.043597184121608734, -0.23736414313316345, -0.04097653180360794, 0.02155262976884842 }
			},
				
{ 				{ -0.2162753939628601, 0.07207929342985153, -0.049239903688430786, 0.07940659672021866, -0.049905210733413696, 0.012718007899820805, -0.11908917129039764, 0.06611968576908112, 0.006470382679253817, -0.026214811950922012, -0.042012374848127365, -0.04732612892985344, 0.09846025705337524, -0.09177962690591812, -0.06223040074110031, -0.21078583598136902, 0.2615619897842407, -0.04779244586825371, 0.02288919873535633, 0.06960313022136688, 0.03137272596359253, -0.07234536111354828, -0.06265532970428467, -0.027338175103068352, 0.18762820959091187, 0.03283616900444031, 0.059766095131635666, 0.16990090906620026, -0.09872446954250336, -0.11584589630365372, 0.17407670617103577, -0.03564998507499695, 0.0018194887088611722, 0.1389116644859314, -0.07118775695562363, 0.057587817311286926, 0.01309483777731657, 0.04216337203979492, -0.07990213483572006, 0.07445243746042252, -0.14167189598083496, 0.007991557009518147, -0.05967385694384575, -0.21468695998191833, -0.01930326782166958, -0.0304665956646204, -0.021213188767433167, -0.04731711745262146, 0.08596208691596985, -0.12557339668273926 },
				{ -0.22221942245960236, 0.05136065557599068, 0.0027331593446433544, 0.18701308965682983, 0.007197021972388029, 0.01912269927561283, 0.15615344047546387, -0.10873426496982574, 0.05090091750025749, 0.1725846529006958, 0.19452130794525146, -0.0029831069987267256, 0.08353488147258759, -0.018174143508076668, 0.05127275735139847, -0.022636404260993004, 0.1318535953760147, -0.1277710199356079, 0.15110525488853455, 0.06003013253211975, 0.06428132951259613, 0.08557017892599106, 0.02971295267343521, -0.1561354100704193, -0.20733892917633057, 0.08632068336009979, 0.08339390158653259, 0.07763974368572235, 0.043945036828517914, -0.10405061393976212, -0.07503736019134521, 0.11362171918153763, 0.027455730363726616, 0.26115691661834717, 0.11355725675821304, -0.12878085672855377, -0.021574806421995163, 0.10777214169502258, 0.17605803906917572, -0.17571252584457397, -0.03938344866037369, -0.0775856226682663, 0.001509101944975555, 0.02299114316701889, -0.14592860639095306, -0.19309228658676147, -0.17536276578903198, -0.021783022210001945, 0.018578998744487762, 0.25308167934417725 },
				{ 0.12706969678401947, -0.04490821063518524, -0.08853398263454437, -0.060907673090696335, 0.10649210214614868, -0.13939572870731354, -0.044086992740631104, -0.02015560120344162, 0.0162567850202322, 0.03961958363652229, 0.025925954803824425, -0.03338838368654251, -0.17238104343414307, -0.09552616626024246, -0.05947249382734299, 0.009979662485420704, -0.04745727404952049, -0.06963988393545151, -0.17077518999576569, -0.04661700129508972, -0.08288393914699554, 0.024110328406095505, -0.20619696378707886, 0.06234922260046005, 0.055822018533945084, 0.04947301000356674, 0.10163719952106476, -0.185341477394104, 0.004827919881790876, -0.08318183571100235, 0.02582329884171486, -0.021736538037657738, -0.08937019109725952, -0.043136607855558395, -0.13419367372989655, 0.10868175327777863, 0.15065337717533112, -0.3016139566898346, 0.04927258566021919, 0.03997257724404335, 0.14359140396118164, -0.019609833136200905, 0.023102059960365295, -0.003465373534709215, 0.07177760452032089, -0.10898303985595703, -0.03979267179965973, 0.12598930299282074, 0.10109534859657288, 0.04046902433037758 },
				{ -0.06511233747005463, -0.022675780579447746, -0.030528951436281204, 0.1373894065618515, 0.00781969353556633, -0.07725884020328522, -0.024669691920280457, 0.04210526868700981, -0.05978335812687874, 0.06379436701536179, 0.02553396113216877, 0.048031698912382126, -0.03498158976435661, -0.06767889112234116, -0.13197320699691772, 0.0029755928553640842, 0.03999469801783562, 0.022457776591181755, -0.05488257482647896, 0.17536486685276031, 0.1403512805700302, -0.0017575524980202317, -0.06425654143095016, 0.2094922810792923, -0.20185363292694092, 0.013084214180707932, -0.33302709460258484, -0.12265259772539139, -0.0949469581246376, -0.09457854181528091, 0.049847520887851715, -0.12188748270273209, 0.07242805510759354, 0.1666492372751236, -0.10403241217136383, 0.029128238558769226, 0.06710152328014374, -0.11089683324098587, 0.011312595568597317, -0.09663821756839752, -0.05704069137573242, -0.04211689159274101, 0.12332090735435486, -0.08914127200841904, -0.030925339087843895, 0.07838910073041916, -0.017305565997958183, 0.17015430331230164, -0.10100949555635452, -0.10696180164813995 },
				{ 0.20861250162124634, -0.12556518614292145, -0.01976335421204567, 0.1269632875919342, -0.1531277745962143, -0.046159472316503525, -0.08810386061668396, -0.01347249187529087, -0.26579535007476807, -0.0235510915517807, -0.20251940190792084, -0.19223113358020782, -0.17648592591285706, 0.02258511446416378, -0.027682313695549965, 0.0442282110452652, -0.0669923797249794, -0.04669566452503204, -0.13479368388652802, -0.015143533237278461, -0.01977337710559368, -0.0901464894413948, 0.05326859652996063, 0.2726438641548157, -0.0787806510925293, -0.13813231885433197, -0.22110702097415924, 0.05720400810241699, -0.1875939667224884, 0.04099322110414505, -0.06833964586257935, -0.08308138698339462, 0.05811060592532158, -0.028662195429205894, -0.19683316349983215, -0.06827215850353241, 0.09840389341115952, -0.17814789712429047, -0.00985800288617611, 0.005218970589339733, -0.13788554072380066, 0.04021086543798447, -0.21065214276313782, 0.06541021913290024, 0.2618809640407562, -0.19123822450637817, 0.006471244618296623, 0.08527771383523941, 0.027805550023913383, -0.037276845425367355 },
				{ -0.08508870750665665, 0.0250549279153347, -0.12360050529241562, 0.05003829300403595, -0.1526987999677658, 0.13882949948310852, 0.14983834326267242, -0.04175076633691788, -0.13460738956928253, 0.1210147887468338, 0.017186995595693588, 0.021846989169716835, 0.12971502542495728, -0.16226667165756226, 0.07073438167572021, -0.18157261610031128, 0.019117824733257294, 0.013849519193172455, 0.16782383620738983, 0.020332543179392815, 0.009610695764422417, -0.12142602354288101, -0.0008632778190076351, 0.0458860918879509, -0.23023368418216705, -0.04279682785272598, 0.09454149007797241, -0.03675976023077965, -0.12402511388063431, 0.054313935339450836, 0.07975976169109344, -0.027644552290439606, -0.050654057413339615, -0.11570601165294647, 0.06626025587320328, -0.22058114409446716, -0.21312315762043, -0.03557524085044861, -0.013885919004678726, -0.06651575863361359, -0.2284708023071289, -0.14572946727275848, -0.12033618241548538, 0.13349875807762146, 0.0677470713853836, -0.20756401121616364, -0.04142840951681137, -0.13033424317836761, -0.09776224941015244, 0.13290341198444366 },
				{ 0.025179550051689148, -0.03488204628229141, -0.01921115629374981, -0.10099507123231888, -0.13213695585727692, -0.1189378947019577, 0.0029555861838161945, -0.08983798325061798, 0.03852277994155884, -0.130057230591774, 0.05143311992287636, -0.08121751248836517, 0.00590383168309927, -0.09409570693969727, -0.01538011897355318, -0.1161903515458107, -0.04850625991821289, 0.07571152597665787, 0.132757768034935, -0.11831741034984589, 0.02456192672252655, -0.2471715360879898, -0.013131413608789444, -0.0658886507153511, -0.11774557828903198, 0.05675116181373596, 0.2058037966489792, -0.018488338217139244, -0.0304509736597538, -0.21738356351852417, 0.17571881413459778, 0.06160777807235718, 0.026318710297346115, -0.019384462386369705, -0.1260484755039215, 0.20706862211227417, 0.21640390157699585, -0.030539901927113533, -0.06894464045763016, -0.11368080228567123, 0.1592685580253601, 0.036484017968177795, 0.07506375014781952, -0.10496023297309875, 0.09565474838018417, 0.12640808522701263, 0.06109313666820526, 0.03725811094045639, -0.0646137073636055, 0.038399118930101395 },
				{ 0.1444718986749649, 0.03343553841114044, 0.01617461070418358, -0.06778338551521301, -0.006944949738681316, -0.09532495588064194, 0.03407025709748268, -0.004230668768286705, -0.13372541964054108, -0.03871934488415718, 0.08166372030973434, 0.07696211338043213, 0.017613209784030914, 0.03581519052386284, -0.1595785915851593, 0.0662260428071022, -0.052788957953453064, -0.0021531968377530575, -0.053423527628183365, -0.04054709151387215, 0.18530799448490143, 0.07867235690355301, 0.05205307900905609, -0.0026759044267237186, -0.09596193581819534, -0.013180139474570751, -0.021391231566667557, 0.0442630834877491, -0.0185393039137125, -0.0021005356684327126, -0.15213192999362946, -0.16388922929763794, -0.00773412361741066, -0.08320406824350357, -0.009097528643906116, 0.18998853862285614, 0.01225339900702238, 0.03800205886363983, -0.045885514467954636, -0.04451040178537369, -0.033529382199048996, -0.17208470404148102, -0.09578944742679596, 0.1390306055545807, 0.12324240803718567, 0.12575142085552216, -0.06731584668159485, -0.11965309083461761, -0.02622516080737114, 0.08908823877573013 },
				{ 0.009431076236069202, -0.01540341880172491, -0.16236960887908936, -0.28753387928009033, -0.12361956387758255, 0.09311704337596893, 0.05790857970714569, -0.20564429461956024, -0.03660818934440613, 0.15445375442504883, -0.27458080649375916, -0.04422349855303764, -0.23713144659996033, -0.16518966853618622, -0.11115039885044098, 0.13397353887557983, -0.0313996858894825, -0.10234014689922333, -0.4148080348968506, 0.15541833639144897, -0.07326214760541916, -0.02547307312488556, -0.0982743576169014, 0.07510378956794739, 0.17435933649539948, -0.020699387416243553, -0.030552547425031662, -0.15517467260360718, -0.15418314933776855, -0.02496342360973358, 0.14169643819332123, -0.15240108966827393, -0.13476189970970154, -0.4260735809803009, -0.10890686511993408, 0.05460444465279579, -0.03918270021677017, -0.07783181965351105, 0.038542069494724274, 0.03784259408712387, 0.14547739923000336, -0.0937914177775383, -0.08965549618005753, -0.1525561660528183, 0.18576984107494354, 0.15637122094631195, 0.06332871317863464, 0.10594625025987625, -0.020855730399489403, 0.0644194483757019 },
				{ -0.2789088189601898, 0.056394919753074646, 0.1565830409526825, -0.09732474386692047, -0.07766550034284592, 0.01838529109954834, -0.10323189944028854, 0.08409670740365982, -0.07953934371471405, -0.033032745122909546, -0.1104852557182312, -0.09040132164955139, -0.1588052362203598, 0.05295434221625328, -0.12032703310251236, 0.03802037611603737, -0.15092051029205322, 0.0836738646030426, -0.05319846048951149, 0.1637289673089981, 0.14408308267593384, -0.015612039715051651, -0.07326709479093552, 0.10596823692321777, -0.10319152474403381, -0.14300864934921265, -0.03089573234319687, -0.1559276133775711, -0.060365185141563416, -0.01153276301920414, 0.23575459420681, 0.05587285757064819, 0.08214998990297318, 0.1866864562034607, -0.017225705087184906, -0.1744724065065384, -0.03277292847633362, -0.25443434715270996, -0.04571263864636421, 0.10122030228376389, -0.1499788910150528, 0.04352395609021187, 0.05484394356608391, -0.12169560045003891, -0.11286147683858871, -0.008815662004053593, 0.13967515528202057, 0.04205790162086487, 0.10670838505029678, -0.15025754272937775 },
				{ 0.054176729172468185, -0.09678452461957932, 0.2289295345544815, 0.17409878969192505, -0.14977334439754486, 0.016639571636915207, -0.06008412316441536, 0.03340662643313408, 0.00035745895002037287, 0.0900692343711853, -0.01772381365299225, -0.21299070119857788, 0.10733480751514435, 0.0049707829020917416, -0.09526172280311584, -0.02310386300086975, -0.12855380773544312, -0.13104091584682465, 0.07686223834753036, -0.023243693634867668, 0.05858179181814194, -0.014081008732318878, -0.06765192747116089, -0.05051616206765175, -0.027721503749489784, -0.058320168405771255, -0.17474591732025146, -0.0940803587436676, -0.2954849302768707, 0.0035735946148633957, 0.06956134736537933, -0.261281818151474, -0.02038186602294445, 0.13886240124702454, -0.073463574051857, 0.07343301922082901, 0.058097679167985916, 0.1305767297744751, -0.03464459627866745, 0.15598556399345398, -0.0763474851846695, -0.14440220594406128, 0.0487428680062294, -0.13595548272132874, 0.17535053193569183, 0.044018350541591644, 0.034356892108917236, -0.08887385576963425, -0.02307809516787529, -0.1647772192955017 },
				{ 0.20829585194587708, -0.0257712472230196, 0.00015891966177150607, 0.006575295235961676, 0.08844342827796936, -0.04502005875110626, -0.17550890147686005, -0.03051626868546009, -0.1998385339975357, 0.015053804032504559, -0.11918596178293228, -0.23830583691596985, -0.1121051236987114, 0.02416236139833927, -0.0010646439623087645, -0.026729123666882515, -0.18010027706623077, -0.014228244312107563, -0.24870920181274414, 0.16351468861103058, -0.08739309757947922, 0.15300041437149048, -0.14176100492477417, 0.05121157690882683, -0.17206387221813202, 0.08793456852436066, -0.038703110069036484, -0.20312292873859406, -0.13124795258045197, -0.038385193794965744, 0.027814770117402077, 0.017110152170062065, 0.15713730454444885, -0.09045780450105667, -0.10220690071582794, -0.07791320979595184, -0.19455251097679138, -0.028356503695249557, 0.03580173850059509, -0.1425503045320511, -0.407602459192276, 0.0010555380722507834, -0.09851569682359695, 0.1681847870349884, -0.024465860798954964, -0.02908170595765114, -0.010597379878163338, 0.03273429721593857, 0.020151665434241295, -0.007803478743880987 },
				{ -0.06508741527795792, 0.044742029160261154, -0.14224869012832642, 0.07290110737085342, -0.1307150274515152, 0.12187506258487701, 0.059207405894994736, 0.08971948176622391, -0.43784672021865845, 0.12213364243507385, -0.05976789817214012, -0.07364295423030853, -0.13740140199661255, 0.07664625346660614, -0.005359211470931768, 0.10351896286010742, 0.19744619727134705, -0.007728706579655409, -0.10737182945013046, -0.20208536088466644, 0.0508137121796608, 0.1664794236421585, 0.010026619769632816, 0.06771239638328552, 0.1395968645811081, -0.08288168907165527, -0.241754412651062, 0.03132498636841774, 0.050845928490161896, 0.012902901507914066, 0.07928641885519028, 0.05449008569121361, 0.02937357872724533, 0.04454680532217026, 0.011168225668370724, -0.0607646182179451, -0.09987425804138184, -0.16082432866096497, 0.12198304384946823, -0.03772328421473503, -0.25651970505714417, 0.03108043223619461, -0.2914721965789795, 0.10368635505437851, 0.05172925069928169, 0.025776458904147148, 0.011801368556916714, -0.02007487043738365, -0.017395390197634697, -0.037537094205617905 },
				{ 0.1255209892988205, -0.04070373252034187, -0.013484548777341843, -0.020767206326127052, -0.050727080553770065, -0.13571061193943024, -0.08848246932029724, -0.06510009616613388, -0.03535905107855797, -0.034980658441782, -0.071900874376297, 0.01719367504119873, -0.16673676669597626, -0.18298713862895966, -0.023079166188836098, 0.051298756152391434, -0.09036729484796524, 0.004717871081084013, -0.12801699340343475, -0.040314607322216034, 0.08894621580839157, -0.14937914907932281, -0.18889226019382477, -0.02172451838850975, 0.14182204008102417, 0.0902889221906662, 0.014104491099715233, 0.14176709949970245, -0.11554989963769913, 0.038454510271549225, -0.12205827981233597, 0.061172086745500565, -0.01985182799398899, 0.11430872976779938, -0.15319907665252686, 0.2886824905872345, 0.011165248230099678, -0.16808931529521942, 0.0552310086786747, 0.07716861367225647, 0.11686063557863235, 0.04403550922870636, 0.010363524779677391, 0.0030001397244632244, 0.11476549506187439, 0.12694527208805084, -0.07726974785327911, -0.09465843439102173, 0.05014672502875328, 0.04091278836131096 },
				{ -0.018249288201332092, -0.0422726571559906, 0.1656150221824646, 0.1201605275273323, -0.0736183375120163, 0.013916333205997944, -0.12969908118247986, -0.007409424986690283, -0.07242559641599655, 0.047746945172548294, -0.10818801075220108, -0.053417712450027466, -0.11421657353639603, -0.1021411120891571, 0.03288046270608902, -0.07177981734275818, -0.06987375766038895, -0.0731104239821434, -0.29780176281929016, 0.21249373257160187, -0.032927025109529495, -0.05640019103884697, -0.11472119390964508, 0.17438437044620514, -0.034274667501449585, -0.17060057818889618, -0.07822480797767639, 0.027512051165103912, -0.06758823990821838, -0.08882679790258408, 0.03375642001628876, -0.13390876352787018, 0.012159171514213085, 0.028498990461230278, -0.011246691457927227, -0.3161896765232086, 0.017139295116066933, 0.04181940108537674, -0.07696397602558136, -0.10182999819517136, 0.10413527488708496, -0.14443136751651764, 0.08759859949350357, -0.11759284883737564, -0.06941696256399155, 0.07119918614625931, -0.034868478775024414, 0.14461567997932434, 0.006188168190419674, -0.05203818529844284 },
				{ -0.24151411652565002, 0.0739712119102478, -0.023855172097682953, -0.12325238436460495, -0.10723299533128738, 0.045716896653175354, -0.2102990597486496, -0.14349879324436188, -0.10655981302261353, 0.00880851224064827, -0.08515485376119614, 0.009759343229234219, 0.049823228269815445, 0.09493152052164078, 0.03990607708692551, -0.05927988514304161, 0.0024523939937353134, 0.06672687083482742, -0.13535986840724945, 0.11661660671234131, -0.08024552464485168, 0.05371059104800224, -0.09957516938447952, -0.09734724462032318, 0.12256180495023727, -0.044370099902153015, -0.026990193873643875, 0.05515839159488678, -0.19091875851154327, -0.07178689539432526, -0.04479974880814552, -0.10127773880958557, -0.10881219804286957, -0.005849804729223251, -0.035660840570926666, -0.08919718116521835, -0.17014579474925995, 0.222473606467247, 0.02974569797515869, -0.04188305884599686, -0.20191770792007446, -0.12549783289432526, -0.1289985328912735, -0.13030849397182465, 0.00921838078647852, 0.07648167759180069, 0.05905852094292641, -0.04057972878217697, -0.05051225796341896, 0.0155270891264081 },
				{ -0.11845668405294418, 0.006975035648792982, 0.033723510801792145, -0.05215679854154587, -0.16979604959487915, 0.08914942294359207, -0.13856765627861023, 0.024852093309164047, 0.002793661318719387, 0.05113924294710159, -0.17695865035057068, -0.008825808763504028, 0.022063734009861946, -0.028529250994324684, -0.07133463770151138, 0.07215812057256699, -0.11202190816402435, -0.09838300198316574, -0.03644416108727455, 0.06229831650853157, 0.07936351001262665, 0.13835035264492035, -0.08735327422618866, 0.017802391201257706, -0.39601290225982666, -0.05421904847025871, -0.06069304049015045, -0.21070969104766846, -0.13143646717071533, -0.0646214634180069, -0.05005860701203346, 0.0768628790974617, -0.04186944290995598, -0.009916668757796288, -0.06706772744655609, -0.23364250361919403, 0.019999997690320015, 0.11938197165727615, 0.06275035440921783, -0.09232720732688904, -0.20355400443077087, -0.13529303669929504, 0.03220456838607788, -0.022866906598210335, -0.050966426730155945, 0.21893151104450226, -0.07701907306909561, 0.08010336756706238, -0.10244137048721313, -0.18194742500782013 },
				{ -0.08477345108985901, -0.048697568476200104, 0.1668795496225357, 0.09090488404035568, -0.031105894595384598, -0.024914342910051346, -0.1869233101606369, -0.1031111553311348, 0.008422911167144775, 0.059887077659368515, 0.05051540210843086, 0.012626768089830875, -0.13648420572280884, -0.19950713217258453, -0.09385883063077927, -0.09949275851249695, -0.08006582409143448, -0.12472203373908997, -0.09761731326580048, 0.09177689254283905, 0.016744205728173256, 0.04684501886367798, -0.014375859871506691, 0.03174832835793495, -0.3771108090877533, -0.09111880511045456, -0.025002917274832726, -0.07875172048807144, -0.057612404227256775, -0.13615818321704865, 0.19147831201553345, 0.08610640466213226, 0.04653598368167877, 0.12073235958814621, -0.0956687182188034, -0.2016960233449936, 0.166713684797287, 0.013254609890282154, 0.09720855206251144, -0.0665883794426918, -0.1071716919541359, -0.06684686243534088, 0.013321438804268837, -0.22442223131656647, -0.07908307015895844, 0.02987731620669365, 0.0782877504825592, 0.15315622091293335, -0.05854164808988571, -0.1572803258895874 },
				{ -0.11501821875572205, 0.029855482280254364, 0.10268721729516983, -0.014456444419920444, 0.041122179478406906, -0.02941029891371727, 0.14658784866333008, 0.0816676989197731, 0.02658066526055336, -0.027787968516349792, 0.1056896299123764, 0.0710672065615654, 0.03311198949813843, -0.04623335599899292, -0.12624962627887726, -0.03309798240661621, 0.10629557818174362, 0.024092165753245354, 0.00833822600543499, 0.11484940350055695, 0.12340360879898071, 0.03697093948721886, 0.0016925128875300288, 0.008320819586515427, 0.014332208782434464, -0.021027524024248123, -0.20274050533771515, -0.002502131974324584, -0.05534737557172775, 0.01017166581004858, 0.06348945945501328, -0.10696891695261002, 0.05784587189555168, -0.044160231947898865, 0.069106325507164, 0.042679302394390106, -0.02412542700767517, -0.1710413247346878, -0.0894504114985466, -0.08922473341226578, -0.009160790592432022, -0.005318020936101675, -0.14619754254817963, -0.18289121985435486, 0.08557432889938354, -0.0475928969681263, -0.009101973846554756, -0.17040932178497314, -0.11366409063339233, -0.033481087535619736 },
				{ 0.05527108535170555, 0.03204576298594475, -0.08263780176639557, -0.03393490985035896, 0.0815778374671936, -0.05297352001070976, -0.06704699248075485, -0.15389437973499298, -0.09876023977994919, -0.11729729920625687, -0.0073855300433933735, 0.03711090609431267, 0.0637999176979065, -0.1130552887916565, -0.1507546603679657, 0.11113245785236359, -0.07225201278924942, -0.04888540506362915, 0.09365839511156082, -0.17724303901195526, -0.02106916345655918, 0.06678084284067154, -0.14748308062553406, -0.05356903001666069, 0.15841493010520935, -0.06814964860677719, -0.15523169934749603, -0.005801633466035128, -0.07175714522600174, -0.02192612551152706, -0.10088232904672623, -0.20338411629199982, 0.03022424317896366, -0.10968372970819473, 0.1062365397810936, 0.09074065089225769, -0.021929705515503883, -0.0034835352562367916, 0.06803649663925171, -0.0804629921913147, -0.020757384598255157, 0.04145760089159012, -0.06981878727674484, -0.06995081901550293, 0.14222972095012665, 0.0608208142220974, -0.08676429837942123, -0.17829670011997223, 0.005956788547337055, 0.040066272020339966 }
			},
				
{ 				{ -0.20046326518058777, 0.03659699112176895, -0.07027340680360794, 0.11261952668428421, 0.0580638088285923, 0.06970234215259552, 0.057754047214984894, -0.04408989101648331, 0.10306593030691147, 0.0426722913980484, 0.06332078576087952, -0.026032932102680206, 0.11535198986530304, -0.08525346219539642, -0.01234530471265316, 0.05935480073094368, -0.09803809970617294, -0.1381484866142273, -0.16017547249794006, 0.09614620357751846, -0.07612404227256775, 0.017846914008259773, -0.11617772281169891, -0.03301642835140228, 0.06246084347367287, -0.07386955618858337, 0.06816288828849792, -0.13819529116153717, -0.1108364462852478, -0.0028404456097632647, -0.03903055563569069, -0.25828254222869873, 0.0451752170920372, -0.05185382813215256, 0.10796033591032028, -0.05169442296028137, -0.007999254390597343, 0.09007308632135391, 0.004006907343864441, -0.053757570683956146, -0.12568682432174683, -0.004676645155996084, -0.04621146246790886, 0.07841310650110245, -0.0005087238387204707, 0.25578048825263977, -0.07305657863616943, 0.06497175991535187, -0.07229491323232651, 0.02771965228021145 },
				{ -0.1270926296710968, 0.1284686028957367, 0.07718324661254883, 0.1715688556432724, -0.0127891656011343, 0.08036615699529648, 0.08174310624599457, 0.06493151932954788, 0.05153316631913185, 0.1778196543455124, 0.08723145723342896, -0.0377088226377964, -0.029231324791908264, -0.08527667075395584, -0.12531688809394836, 0.0007926648831926286, 0.07516194134950638, -0.07141523063182831, 0.20199716091156006, -0.07904249429702759, 0.009935728274285793, 0.10365021228790283, -0.12981444597244263, 0.016611389815807343, -0.21562212705612183, 0.11802589148283005, -0.06779998540878296, 0.01806943491101265, 0.045244764536619186, -0.046907950192689896, -0.20430666208267212, 0.10105960816144943, -0.03725926950573921, 0.1264062523841858, -0.033179063349962234, -0.11537406593561172, 0.04918360710144043, 0.07231029123067856, 0.18134650588035583, -0.05959692597389221, -0.03397268056869507, 0.01991380751132965, 0.02692233957350254, 0.0223381407558918, -0.25529998540878296, -0.004176364745944738, -0.06416245549917221, -0.027548542246222496, 0.014225812628865242, 0.04565032199025154 },
				{ 0.14689378440380096, 0.06449994444847107, 0.03203998878598213, 0.022910071536898613, 0.012990742921829224, -0.03204846754670143, -0.0657435953617096, 0.04983625188469887, -0.13771063089370728, -0.004985333885997534, -0.09562930464744568, -0.1433834582567215, -0.22075162827968597, -0.03937899321317673, -0.06100936979055405, -0.01010834239423275, 0.09334571659564972, -0.06769547611474991, -0.1655958592891693, -0.06523746997117996, 0.05716034397482872, 0.04067074507474899, -0.0015227078692987561, -0.2392270565032959, -0.08089172840118408, -0.0030039416160434484, 0.01154102012515068, -0.13658756017684937, -0.08246546238660812, -0.0982629582285881, 0.11720077693462372, 0.0018171895062550902, 0.04897046089172363, 0.0058140866458415985, 0.06027258560061455, 0.25048598647117615, 0.04264960438013077, -0.11589165031909943, -0.05405830591917038, 0.10737477242946625, -0.051489342004060745, -0.23399581015110016, -0.04804081469774246, -0.002696267794817686, 0.16144876182079315, -0.051683563739061356, -0.025008507072925568, -0.16454672813415527, -0.054645389318466187, -0.021912459284067154 },
				{ 0.06854631006717682, -0.12194693088531494, 0.15601079165935516, 0.08496490865945816, -0.04396584630012512, -0.11956484615802765, -0.005276598501950502, 0.025576556101441383, -0.457064688205719, -0.062013156712055206, 0.027282238006591797, 0.1260622888803482, -0.024652976542711258, -0.12603271007537842, -0.18472032248973846, -0.015479504130780697, 0.16655611991882324, -0.05262339860200882, -0.061399850994348526, 0.17720045149326324, -0.09704183787107468, -0.02542702853679657, 0.16827084124088287, 0.11586474627256393, -0.0834210142493248, -0.037663232535123825, -0.07214127480983734, 0.189352884888649, 0.05714097246527672, 0.050627224147319794, 0.07862198352813721, 0.08651062101125717, 0.02603156678378582, -0.07937077432870865, -0.10593266040086746, -0.06342989206314087, -0.16316896677017212, -0.0014156958786770701, -0.1503336876630783, -0.14688695967197418, -0.002513526240363717, -0.10688100010156631, -0.18296608328819275, -0.009739390574395657, -0.06038934364914894, 0.11316578090190887, -0.010296926833689213, -0.265584796667099, 0.07193515449762344, -0.15458159148693085 },
				{ -0.015713132917881012, 0.11879852414131165, -0.06494852900505066, -0.14704102277755737, -0.1520700305700302, -0.08112652599811554, 0.02757132425904274, -0.23007118701934814, -0.10738229751586914, -0.05918873846530914, -0.00036820542300119996, 0.13843552768230438, -0.11291090399026871, 0.12221016734838486, 0.11302771419286728, -0.04095299541950226, -0.11869325488805771, -0.020235266536474228, -0.13575680553913116, 0.03740214556455612, -0.06022065877914429, -0.128377303481102, 0.05119704455137253, 0.01715046353638172, 0.09693919122219086, 0.0430961549282074, -0.2815113365650177, 0.025311751291155815, -0.04543856903910637, 0.14214664697647095, 0.011949501000344753, -0.03242272138595581, -0.2251330316066742, 0.06698188930749893, 0.0507793165743351, 0.11449181288480759, -0.0836184024810791, -0.09741739183664322, -0.10792267322540283, 0.05605369806289673, -0.2155981957912445, 0.1321059912443161, 0.01222265511751175, 0.0925113633275032, 0.18446408212184906, -0.23370176553726196, 0.07750853151082993, -0.04131007567048073, 0.07781081646680832, -0.19601289927959442 },
				{ -0.20577217638492584, 0.050421033054590225, 0.035734955221414566, 0.0017384669044986367, -0.05805559828877449, 0.2597976326942444, 0.399771511554718, -0.09171634167432785, 0.028061440214514732, 0.16887031495571136, -0.04283669963479042, 0.151428684592247, 0.21478374302387238, 0.09950696676969528, 0.0069066984578967094, -0.134227454662323, 0.08799967914819717, 0.021802542731165886, 0.14715701341629028, -0.08271142095327377, -0.10509320348501205, -0.08834575116634369, 0.046811576932668686, -0.10054419934749603, -0.032181303948163986, 0.212052121758461, -0.23462875187397003, -0.017636703327298164, -0.03865179792046547, -0.07605236768722534, -0.023408643901348114, -0.14638452231884003, -0.041587214916944504, 0.19117550551891327, -0.07378990203142166, 0.0484384223818779, -0.1220739334821701, 0.1441812366247177, -0.08535924553871155, -0.058193981647491455, -0.08315112441778183, -0.1048012301325798, -0.07023240625858307, -0.1174178197979927, 0.028770819306373596, 0.2489062249660492, 0.050321873277425766, -0.07833123207092285, -0.1061621904373169, 0.10862141102552414 },
				{ 0.08811448514461517, -0.013348174281418324, -0.13263297080993652, -0.14259621500968933, -0.0012210177956148982, -0.0527149997651577, 0.04733224958181381, 0.05541635677218437, -0.030652960762381554, -0.14519058167934418, -0.17027008533477783, -0.16073527932167053, 0.13282719254493713, 0.008888556621968746, 0.06561384350061417, -0.018865955993533134, 0.039597731083631516, -0.039166513830423355, -0.11722720414400101, 0.0260537751019001, 0.17267270386219025, 0.01802186854183674, -0.09435129165649414, 0.028236765414476395, -0.25599533319473267, 0.14087992906570435, 0.22539205849170685, 0.04209611192345619, -0.362893670797348, -0.050925105810165405, 0.30345645546913147, -0.21979419887065887, -0.09568799287080765, 0.014577978290617466, 0.003763929009437561, 0.08391795307397842, -0.184259831905365, 0.0732816830277443, -0.22957730293273926, -0.06442480534315109, -0.09085135906934738, -0.3307354748249054, 0.04346918687224388, -0.0010095402831211686, 0.2300896793603897, 0.0780525729060173, 0.040990687906742096, -0.19160740077495575, 0.043628547340631485, -0.00868871808052063 },
				{ -0.06839007884263992, -0.11425365507602692, -0.06687328219413757, -0.06798709183931351, -0.08184957504272461, -0.1572444885969162, -0.031828559935092926, -0.13745270669460297, -0.12773050367832184, -0.05288885161280632, -0.049580544233322144, 0.04830518364906311, 0.02022860385477543, -0.07150426506996155, -0.11802881956100464, 0.08759608119726181, -0.04782780259847641, -0.060231518000364304, 0.0360124446451664, -0.1558716893196106, -0.08619595319032669, 0.027379844337701797, -0.012941221706569195, -0.032986290752887726, -0.007457080762833357, -0.0985465869307518, 0.10595766454935074, 0.1657295823097229, -0.10954880714416504, -0.04169090837240219, 0.11334460973739624, -0.09222236275672913, -0.020268671214580536, -0.08197783678770065, -0.0212582778185606, -0.024275189265608788, -0.15720079839229584, 0.04366627335548401, -0.04730091616511345, 0.09971091151237488, -0.1219143271446228, 0.027741625905036926, -0.04176180437207222, 0.16649319231510162, 0.0887613371014595, 0.24047324061393738, 0.06232799217104912, -0.20395684242248535, 0.017100008204579353, 0.007582271005958319 },
				{ 0.16754630208015442, 0.1976122111082077, -0.15334385633468628, -0.19433020055294037, -0.11063073575496674, -0.12400103360414505, -0.010019943118095398, -0.09323296695947647, -0.08574114739894867, 0.11954542249441147, -0.25170958042144775, -0.2864479124546051, -0.5119428634643555, -0.20348212122917175, -0.08640836924314499, 0.04919632524251938, -0.018219878897070885, 0.011812767945230007, -0.2586185932159424, 0.24372398853302002, -0.03814589977264404, 0.13015896081924438, -0.11388254910707474, 0.0003294492489658296, 0.17272181808948517, -0.04984254390001297, 0.051658160984516144, -0.17254655063152313, -0.03799344226717949, 0.013330849818885326, 0.021691182628273964, 0.0761060044169426, -0.10979404300451279, -0.2496340423822403, 0.07409235835075378, 0.2531031370162964, -0.002116704359650612, -0.03875505179166794, -0.018140718340873718, -0.03771255165338516, 0.07452728599309921, -0.13840839266777039, -0.16436050832271576, 0.24759259819984436, 0.03196951746940613, 0.011856325902044773, 0.1106538251042366, -0.03248899057507515, 0.044023726135492325, -0.07823782414197922 },
				{ 0.05858423560857773, 0.15937872231006622, 0.13825899362564087, 0.16526563465595245, -0.19183564186096191, 0.12603847682476044, 0.08171175420284271, -0.07373012602329254, -0.0024127447977662086, 0.012660128064453602, -0.04346346855163574, 0.14120829105377197, -0.14867053925991058, 0.07771312445402145, -0.08200671523809433, -0.15547510981559753, 0.005470012780278921, -0.2215394228696823, -0.02250686287879944, 0.22598974406719208, -0.10038291662931442, 0.05548734590411186, 0.003145588096231222, 0.06368895620107651, 0.05118730291724205, 0.027032939717173576, -0.0358743816614151, -0.16087019443511963, -0.252966046333313, 0.07540296763181686, 0.13694514334201813, 0.035499054938554764, -0.05067547410726547, 0.09253942966461182, 0.0925087034702301, 0.03045964054763317, -0.05175457522273064, -0.18091903626918793, -0.04111534729599953, -0.007489240262657404, -0.10487927496433258, -0.1563563495874405, 0.011465432122349739, -0.04228578880429268, -0.057034336030483246, -0.16389553248882294, -0.138723686337471, -0.022467641159892082, -0.04534011334180832, -0.08031490445137024 },
				{ 0.09437199681997299, -0.06959929317235947, 0.08238048106431961, 0.011171301826834679, 0.014491911977529526, -0.0479486808180809, 0.008350223302841187, -0.10861007124185562, 0.04543105512857437, -0.030145039781928062, 0.07018931955099106, 0.039065416902303696, 0.03179037943482399, -0.0640827938914299, 0.04565171152353287, -0.015221531502902508, 0.058398038148880005, -0.10345429927110672, -0.19910317659378052, -0.045593008399009705, -0.18211917579174042, 0.07898178696632385, -0.1507522463798523, -0.0463724322617054, -0.04972245544195175, 0.032791778445243835, -0.16756181418895721, -0.017877697944641113, -0.05237337946891785, 0.12069188803434372, -0.06936822831630707, -0.2513678967952728, 0.06872374564409256, 0.04788249731063843, 0.10876098275184631, 0.07812125235795975, -0.049765694886446, 0.04859907552599907, 0.14581887423992157, -0.03156811371445656, 0.13199582695960999, 0.085426464676857, -0.04259340465068817, -0.017464924603700638, 0.022795498371124268, -0.07879069447517395, -0.25891169905662537, 0.05708319693803787, 0.0758301168680191, 0.07950655370950699 },
				{ -0.1383558064699173, -0.08888242393732071, 0.04785895347595215, 0.16367411613464355, 0.08976314961910248, -0.02428743615746498, 0.048784904181957245, -0.2195478081703186, -0.17042739689350128, -0.05420161783695221, -0.05112256109714508, -0.008903262205421925, 0.03454217314720154, 0.09182015806436539, -0.08156485110521317, -0.050567712634801865, -0.11669766902923584, -0.10725410282611847, -0.05756472796201706, 0.01692998595535755, 0.02183183655142784, 0.03063315525650978, -0.06988076120615005, -0.012092666700482368, 0.20858097076416016, -0.0461343452334404, -0.04554291069507599, -0.26728880405426025, -0.1958577036857605, 0.08494564890861511, -0.0360494963824749, -0.06883510202169418, 0.013469374738633633, -0.1236259937286377, -0.04224799945950508, -0.2736462950706482, -0.05388901010155678, -0.22626148164272308, -0.12273887544870377, -0.1121022030711174, -0.12868134677410126, -0.05024142935872078, 0.022517092525959015, -0.10255413502454758, 0.017881965264678, -0.3169346749782562, 0.0589585155248642, 0.06823956221342087, 0.10201969742774963, -0.08748534321784973 },
				{ -0.07081987708806992, -0.10013963282108307, -0.16383859515190125, 0.007305723149329424, -0.0031300203409045935, -0.05450143292546272, -0.01932753250002861, -0.17823942005634308, -0.19241750240325928, -0.07533018290996552, -0.006873346399515867, -0.0021906576585024595, -0.01761682704091072, -0.10674009472131729, -0.03382701054215431, 0.030033638700842857, 0.032053250819444656, 0.07950794696807861, -0.14835569262504578, 0.00021305386326275766, -0.058365751057863235, 0.026220621541142464, 0.10638941824436188, -0.0758989080786705, 0.26436054706573486, -0.11329539120197296, -0.0363902747631073, 0.22390864789485931, -0.007708405144512653, 0.016005560755729675, 0.11744584888219833, -0.08516858518123627, -0.16756337881088257, -0.01973501592874527, 0.056709982454776764, -0.022845832630991936, -0.22260168194770813, -0.008576523512601852, 0.06687992811203003, 0.022721491754055023, -0.20330283045768738, 0.07735186070203781, 0.03405225649476051, -0.021903853863477707, 0.008471382781863213, 0.24273714423179626, 0.14178182184696198, 0.21757718920707703, 0.2149101197719574, 0.10675317049026489 },
				{ 0.17290382087230682, -0.05605477839708328, -0.15590864419937134, -0.01868368312716484, -0.02302570454776287, 0.04734426364302635, 0.042393993586301804, -0.016673458740115166, -0.06964852660894394, -0.10650040209293365, -0.0026140871923416853, -0.11241218447685242, 0.005590088199824095, -0.20133928954601288, -0.08502788841724396, -0.03751620650291443, -0.13501504063606262, -0.01697046123445034, -0.06472364068031311, 0.09821444004774094, 0.07264663279056549, 0.04985281452536583, -0.1446557641029358, 0.028640301898121834, -0.10399463027715683, 0.007291554007679224, -0.014053957536816597, -0.08440136909484863, -0.12796980142593384, 0.04767323285341263, 0.018186012282967567, -0.002546007512137294, -0.10554224252700806, -0.08101578056812286, 0.09675818681716919, 0.23067066073417664, 0.11091047525405884, -0.06344669312238693, 0.03025119937956333, 0.09576801210641861, -0.01887877844274044, -0.06912753731012344, -0.0350462943315506, -0.010642916895449162, 0.19740988314151764, 0.13961480557918549, -0.03179765120148659, -0.17069579660892487, -0.005717116873711348, -0.07453972101211548 },
				{ 0.115885891020298, -0.11644013971090317, 0.045717503875494, 0.10765473544597626, 0.062396638095378876, -0.005046195350587368, -0.13014352321624756, 0.0022855603601783514, -0.13342861831188202, -0.06349637359380722, 0.023946747183799744, 0.11064531654119492, -0.08679567277431488, -0.070865198969841, -0.041201479732990265, 0.05048122629523277, 0.08799411356449127, -0.12365154176950455, -0.09069923311471939, 0.1738843023777008, -0.02091146633028984, -0.02473507449030876, 0.008755355142056942, 0.039165198802948, -0.010297073051333427, -0.03872468322515488, -0.1804770827293396, 0.10969161242246628, 0.0061573158018291, 0.03809409961104393, 0.09076966345310211, -0.012750056572258472, -0.0028271591290831566, -0.1457243412733078, -0.0774695873260498, -0.2699933350086212, -0.061752550303936005, -0.14722725749015808, -0.07506226003170013, 0.09078347682952881, -0.2569608986377716, 0.03809419274330139, -0.0022824984043836594, -0.06391721963882446, -0.1335165798664093, -0.05388903245329857, -0.12904725968837738, 0.03679901361465454, 0.027273768559098244, -0.22703400254249573 },
				{ 0.042759235948324203, 0.030650125816464424, 0.031384509056806564, 0.005240736994892359, -0.0014184298925101757, 0.0733618214726448, -0.11118529736995697, 0.03061950020492077, -0.02661316469311714, -0.009673426859080791, -0.03916587680578232, -0.02302445098757744, 0.11795397102832794, -0.08093474805355072, 0.044454555958509445, -0.0015670910943299532, 0.11136806756258011, -0.013448779471218586, -0.08672001957893372, 0.013341270387172699, -0.21385204792022705, -0.02477935142815113, -0.06315197795629501, -0.11881351470947266, 0.1346960961818695, -0.05891963467001915, -0.022085819393396378, -0.23239389061927795, 0.02149072103202343, 0.08204792439937592, -0.2675043046474457, -0.3839350640773773, 0.10741516202688217, -0.0696476474404335, 0.00691386591643095, -0.021758727729320526, 0.089591383934021, 0.14408348500728607, 0.01380944438278675, -0.0763767883181572, -0.11806516349315643, -0.14636795222759247, 0.05365744233131409, -0.06498660147190094, -0.26778262853622437, 0.059615544974803925, -0.1470005214214325, -0.029558515176177025, 0.01826689951121807, -0.07598114013671875 },
				{ -0.12508203089237213, 0.153101846575737, 0.024879390373826027, 0.03980432450771332, 0.029200969263911247, 0.06743307411670685, -0.01910974457859993, -0.15650826692581177, 0.06260349601507187, 0.03819097578525543, 0.04601966589689255, 0.01654357835650444, 0.15000870823860168, 0.02590646967291832, 0.04273243620991707, -0.051887497305870056, -0.014584600925445557, -0.11024800688028336, 0.03468479961156845, -0.05008898302912712, -0.19386912882328033, 0.06690017133951187, -0.16394905745983124, -0.11575407534837723, -0.17505621910095215, 0.05652053654193878, 0.06762660294771194, -0.0742463767528534, -0.07955517619848251, 0.0643889382481575, -0.05166489630937576, -0.12147735059261322, -0.16178388893604279, 0.08547006547451019, -0.135372593998909, -0.35558050870895386, -0.14541493356227875, 0.15477946400642395, -0.10802584886550903, -0.18819276988506317, 0.05746152624487877, -0.09528686851263046, 0.02840803563594818, 0.011876118369400501, -0.14485464990139008, -0.1495598703622818, -0.11724696308374405, -0.17378908395767212, 0.09506336599588394, -0.08743596822023392 },
				{ 0.021331261843442917, 0.12393961101770401, 0.1349485218524933, 0.010803226381540298, 0.0005176053382456303, 0.09843488782644272, -0.01978919468820095, -0.06880689412355423, 0.09676504135131836, 0.029996342957019806, 0.053418874740600586, -0.08994902670383453, -0.036179088056087494, -0.1369224339723587, -0.07111792266368866, -0.09887565672397614, -0.01902787573635578, -0.19430336356163025, -0.09434297680854797, 0.017743252217769623, -0.1380859613418579, 0.17739377915859222, -0.13301710784435272, 0.10565517097711563, -0.06596619635820389, 0.06416791677474976, -0.0008754696464166045, -0.03934011608362198, -0.041408076882362366, 0.14023707807064056, -0.2083759307861328, 0.07568477839231491, 0.07042180746793747, -0.13251134753227234, 0.04810638353228569, -0.11730948090553284, -0.025427214801311493, 0.027719398960471153, -0.02609795704483986, -0.12666815519332886, -0.04521136358380318, -0.09454227238893509, -0.0792766585946083, -0.1149500235915184, -0.09993524849414825, -0.2304757535457611, 0.05425497889518738, -0.042950671166181564, 0.02801593206822872, -0.12073425203561783 },
				{ -0.09052003920078278, 0.024318480864167213, 0.08679817616939545, 0.06575708091259003, 0.0007209093309938908, -0.09075900912284851, -0.03156270831823349, 0.12142054736614227, -0.05712465941905975, 0.018322778865695, -0.07279489934444427, 0.09427235275506973, 0.046975865960121155, -0.037216994911432266, 0.03443697839975357, 0.00699644535779953, -0.017189644277095795, 0.028895627707242966, 0.09281113743782043, -0.090313620865345, 0.07653922587633133, -0.05852636694908142, 0.07701867073774338, 0.07329598069190979, 0.015568923205137253, 0.16032901406288147, 0.0681450217962265, 0.031979143619537354, -0.16187676787376404, 0.030034400522708893, 0.017565032467246056, -0.15260033309459686, -0.06746774911880493, -0.07408934831619263, -0.06401307135820389, 0.09685511142015457, 0.019800718873739243, -0.0006748396554030478, -0.11119624227285385, -0.0133954007178545, -0.09220718592405319, -0.010903481394052505, -0.11362030357122421, -0.011013089679181576, 0.212997704744339, 0.057657189667224884, 0.001827200292609632, -0.00772490631788969, -0.07290694117546082, 0.0585562102496624 },
				{ -0.008235872723162174, 0.017503833398222923, -0.1304706335067749, 0.11423754692077637, -0.08173729479312897, -0.05675370991230011, -0.08588316291570663, 0.04560156911611557, -0.04354628920555115, -0.0746360495686531, 0.07093100994825363, -0.02992522530257702, -0.007570220157504082, 0.05572964996099472, -0.11279180645942688, -0.09413819015026093, -0.007467466872185469, 0.05807962268590927, 0.049855850636959076, -0.024733901023864746, -0.12601099908351898, -0.007019200827926397, -0.025450771674513817, -0.045526862144470215, 0.10662966221570969, -0.024082235991954803, -0.08050841838121414, -0.12703105807304382, -0.1334955245256424, 0.04716368019580841, 0.03277621790766716, -0.11356278508901596, -0.17081204056739807, -0.01067402120679617, -0.13887561857700348, 0.1788676679134369, 0.07758976519107819, -0.045696742832660675, 0.09379969537258148, -0.09039444476366043, 0.010186534374952316, 0.1843990981578827, -0.04088049754500389, -0.20966337621212006, 0.032215915620326996, 0.10594401508569717, 0.11390333622694016, -0.14590317010879517, 0.0514865443110466, 0.11163637787103653 }
			},
				
{ 				{ -0.19091445207595825, -0.16452914476394653, 0.020330114290118217, -0.06737527996301651, 0.047834672033786774, 0.16153976321220398, -0.0666268914937973, -0.025042178109288216, 0.014785327948629856, -0.022660307586193085, 0.00016145905829034746, -0.043285567313432693, 0.0009580953046679497, -0.05653248354792595, -0.047201815992593765, 0.030838629230856895, 0.01751251332461834, -0.0008221309399232268, -0.14699798822402954, -0.061221398413181305, -0.06298835575580597, 0.09784939885139465, 0.05377775430679321, -0.044813837856054306, 0.04938877373933792, -0.16674460470676422, -0.011108910664916039, -0.27934467792510986, 0.16386772692203522, 0.1056360974907875, -0.04143654555082321, -0.09509862959384918, 0.15224601328372955, -0.06059364229440689, -0.04010193049907684, 0.03162575140595436, -0.005721138324588537, -0.09645672887563705, 0.14038071036338806, 0.06712179630994797, -0.0043666306883096695, -0.027012057602405548, -0.03150147944688797, 0.17984312772750854, -0.016496727243065834, 0.013569196686148643, -0.1940378099679947, -0.0773794949054718, -0.06859494745731354, 0.11370015889406204 },
				{ 0.09866433590650558, 0.06461524218320847, 0.1298990547657013, 0.017874348908662796, 0.1380927562713623, -0.0908886045217514, 0.05561143904924393, 0.061045847833156586, 0.025273768231272697, -0.10441242158412933, -0.04809202253818512, -0.05462534725666046, 0.06294059753417969, -0.08652301877737045, 0.05584683641791344, 0.09257777035236359, -0.011755268089473248, -0.03702308610081673, 0.13891685009002686, -0.060894157737493515, 0.07512283325195312, 0.08898884057998657, -0.26312512159347534, -0.022305751219391823, 0.030046185478568077, 0.008152425289154053, -0.017613207921385765, -0.008544852025806904, 0.06928479671478271, -0.235758438706398, 0.10740688443183899, -0.07276193797588348, -0.17176015675067902, 0.1847701072692871, -0.1364143043756485, -0.2252662181854248, -0.12084948271512985, 0.019824333488941193, 0.09162867069244385, 0.022778118029236794, 0.01911270245909691, -0.022504333406686783, -0.027210375294089317, -0.12175361067056656, -0.18884579837322235, 0.0096842460334301, 0.13050828874111176, -0.1273048222064972, -0.056805241852998734, -0.045560769736766815 },
				{ -0.13157248497009277, -0.10380114614963531, 0.07042195647954941, -0.030253909528255463, 0.1797245293855667, 0.06009671092033386, -0.01968962512910366, 0.026132753118872643, -0.1337565779685974, 0.03846103325486183, 0.14858415722846985, -0.09766694158315659, 0.010462391190230846, 0.10182754695415497, -0.07329381257295609, -0.11609137058258057, -0.039166271686553955, 0.19480091333389282, -0.029980335384607315, 0.023230332881212234, 0.13680751621723175, 0.06734628975391388, -0.08443714678287506, -0.050500910729169846, 0.16830751299858093, 0.06840427219867706, -0.12651917338371277, -0.11166205257177353, -0.2495957463979721, 0.033846255391836166, 0.054660141468048096, -0.0456395260989666, 0.09499363601207733, -0.18555867671966553, 0.07555975019931793, 0.04102132469415665, -0.27749717235565186, -0.003159942338243127, 0.02226182632148266, -0.01447196677327156, -0.1259857565164566, -0.020510626956820488, -0.11599990725517273, 0.16123424470424652, 0.25251683592796326, -0.031103339046239853, 0.11629318445920944, -0.14316245913505554, -0.02859758771955967, -0.054848406463861465 },
				{ 0.019516441971063614, -0.08332457393407822, 0.0721452459692955, 0.02916806749999523, -0.06416237354278564, 0.033241745084524155, -0.11441109329462051, -0.15584012866020203, -0.09693564474582672, -0.2236204445362091, -0.08799674361944199, 0.09637247771024704, 0.024310968816280365, -0.011721202172338963, 0.017119478434324265, -0.09227197617292404, 0.12776996195316315, 0.14290225505828857, -0.12641775608062744, -0.008755306713283062, -0.04504982382059097, 0.07367793470621109, 0.011621130630373955, -0.10977070033550262, 0.10635901242494583, -0.03563607111573219, 0.020417287945747375, 0.00030186621006578207, 0.045341745018959045, -0.00033294333843514323, 0.02082347311079502, -0.10361979156732559, 0.06727872788906097, 0.0028946776874363422, -0.024302056059241295, -0.17718848586082458, -0.17883163690567017, 0.12889419496059418, 0.04825008288025856, -0.10241983085870743, -0.11747422814369202, 0.02460724674165249, 0.0471804104745388, -0.1610337644815445, -0.0661231130361557, 0.10619794577360153, 0.01746135950088501, 0.10516194254159927, 0.03449791297316551, -0.035568028688430786 },
				{ 0.021638210862874985, -0.12545602023601532, -0.2538055181503296, -0.05822764337062836, -0.08819810301065445, 0.05379872769117355, -0.1238643229007721, -0.013681809417903423, -0.26815009117126465, 0.19676624238491058, -0.004351602867245674, 0.2517833709716797, -0.06106099113821983, 0.06432446092367172, -0.003598907496780157, -0.15940068662166595, -0.00743295019492507, -0.00578265031799674, -0.234146386384964, 0.10421645641326904, 0.10749877244234085, -0.02895677275955677, 0.11377508193254471, -0.04881398752331734, 0.20618942379951477, 0.13492746651172638, 0.010476618073880672, -0.18868641555309296, -0.0808146744966507, 0.050097983330488205, -0.13587473332881927, 0.06575696170330048, -0.2222350835800171, -0.01838035136461258, 0.06675723195075989, 0.13508430123329163, 0.015233155339956284, -0.14075559377670288, -0.1754986047744751, -0.04383918642997742, -0.07981763780117035, -0.04355849325656891, -0.11416357755661011, -0.05932442471385002, -0.03337651491165161, -0.009089314378798008, 0.13152943551540375, -0.1442541480064392, 0.04517899826169014, 0.11115121096372604 },
				{ -0.050159625709056854, -0.0612504780292511, 0.06070561707019806, 0.08000300824642181, 0.07669496536254883, -0.0059248642064630985, 0.1379140019416809, -0.21494102478027344, -0.15403838455677032, -0.14714501798152924, -0.12972435355186462, 0.049179498106241226, 0.06567095220088959, -0.13010837137699127, -0.11713461577892303, 0.06219927594065666, -0.01034701056778431, 0.008837636560201645, 0.04269770532846451, -0.05752820149064064, -0.019491909071803093, -0.001136966049671173, -0.10106875747442245, 0.08990193158388138, -0.044994182884693146, 0.10848693549633026, 0.0794428363442421, 0.3062920868396759, 0.011881295591592789, -0.3641166388988495, 0.2332964390516281, -0.297409325838089, -0.0920696035027504, 0.22877733409404755, -0.13986335694789886, -0.14836087822914124, -0.21073688566684723, -0.02482004277408123, -0.019169870764017105, 0.009133197367191315, 0.03956605866551399, -0.06636474281549454, 0.044701285660266876, -0.05613739788532257, -0.03890946879982948, 0.27176669239997864, 0.13098634779453278, -0.08432963490486145, -0.17212240397930145, 0.16281649470329285 },
				{ 0.02724355272948742, -0.13402880728244781, 0.126699760556221, -0.028821241110563278, -0.1108740046620369, 0.03812462091445923, -0.14667007327079773, -0.11109474301338196, -0.16014988720417023, -0.11711325496435165, -0.1679149568080902, -0.04012670740485191, 0.11401419341564178, 0.1452847719192505, 0.04859710484743118, -0.09971821308135986, -0.14703820645809174, 0.12262564897537231, 4.1786901419982314e-05, 0.0013314015232026577, 0.15240253508090973, -0.06979174166917801, -0.0007440209737978876, 0.17342545092105865, -0.07245706766843796, 0.047031618654727936, -0.04713644087314606, -0.1144387498497963, -0.33185920119285583, 0.2108570784330368, 0.1527150273323059, -0.2006310224533081, 0.1323872059583664, 0.09277789294719696, 0.054879188537597656, -0.0059115095064044, -0.057976894080638885, 0.25544968247413635, -0.17183519899845123, -0.01051961537450552, 0.1749856173992157, -0.11623098701238632, -0.029782205820083618, 0.2043534219264984, 0.3284599184989929, 0.03531790152192116, -0.05413912609219551, -0.13478156924247742, 0.03194764629006386, -0.22814124822616577 },
				{ 0.04056030139327049, 0.043797362595796585, -0.0980774536728859, -0.08904752135276794, -0.21019983291625977, 0.08578433096408844, 0.026610804721713066, -0.04045961797237396, -0.07559769600629807, -0.0034849748481065035, -0.08021507412195206, -0.006707845255732536, 0.018873857334256172, -0.013316875323653221, 0.009917421266436577, -0.023453177884221077, -0.08768784999847412, 0.09213786572217941, -0.04701817035675049, -0.07294362783432007, 0.011168103665113449, -0.08920757472515106, 0.018789023160934448, 0.060077451169490814, -0.0023038892541080713, -0.06309371441602707, 0.11908748745918274, -0.05421476438641548, -0.1527279168367386, 0.04607392102479935, 0.027043936774134636, -0.22536683082580566, -0.05063991993665695, 0.001528721651993692, 0.0504472516477108, 0.17054587602615356, 0.09252894669771194, 0.19928856194019318, -0.16982495784759521, 0.055329594761133194, 0.05452493578195572, 0.020847029983997345, -0.08626676350831985, 0.01877444237470627, 0.042059194296598434, 0.17440813779830933, 0.010303636081516743, 0.047405559569597244, 0.05032883957028389, -0.003974126651883125 },
				{ -0.006826622877269983, -0.009730633348226547, -0.1982000321149826, -0.10231196135282516, -0.1627778708934784, 0.13330738246440887, 0.026928888633847237, -0.15482154488563538, -0.07366644591093063, -0.2109551876783371, -0.06383294612169266, -0.17404593527317047, -0.30005037784576416, 0.14014849066734314, -0.20405186712741852, 0.14733372628688812, -0.0037788362242281437, 0.013525712303817272, 0.07847220450639725, 0.0740022137761116, 0.17117135226726532, 0.00833209604024887, -0.014684616588056087, 0.052148621529340744, 0.11622413247823715, -0.032701123505830765, 0.16485188901424408, -0.23934876918792725, 0.08178672194480896, -0.017408624291419983, 0.023909427225589752, 0.2392173409461975, -0.1949998140335083, -0.3137315511703491, 0.08807682991027832, 0.13426660001277924, -0.07166887819766998, -0.1784791350364685, -0.0976085513830185, -0.1477673351764679, 0.024028411135077477, -0.19320164620876312, -0.05889906361699104, 0.08383636921644211, 0.049494292587041855, -0.054407212883234024, 0.21876762807369232, -0.1234407052397728, 0.11932753771543503, 0.0848812386393547 },
				{ 0.04321270063519478, 0.018511205911636353, 0.1450093537569046, 0.16548357903957367, -0.043283574283123016, 0.14057306945323944, -0.11484216153621674, -0.039244648069143295, 0.15107432007789612, 0.05265280604362488, -0.08352546393871307, 0.03415392339229584, 0.07056549936532974, 0.08645470440387726, -0.10539183765649796, 0.12150675803422928, 0.017444893717765808, -0.03724345937371254, -0.017723213881254196, 0.10697620362043381, 0.11085402220487595, 0.07242298871278763, -0.14594395458698273, 0.07097649574279785, -0.06499489396810532, -0.07205908000469208, -0.09188813716173172, -0.09185871481895447, -0.18784920871257782, 0.13238830864429474, -0.22965431213378906, 0.10737895965576172, 0.00041389482794329524, 0.10703498125076294, 0.00011095093213953078, -0.04334035888314247, -0.0703476071357727, 0.0035020573996007442, 0.05646752193570137, -0.1617492288351059, -0.20697514712810516, 0.06664180010557175, 0.11749949306249619, -0.0024652176070958376, 0.10565947741270065, -0.25221142172813416, -0.12250306457281113, -0.02442106604576111, 0.031166834756731987, 0.014150979928672314 },
				{ 0.04260464012622833, -0.1490650326013565, 0.011850208044052124, -0.0369226448237896, -0.050806619226932526, 0.06111101806163788, -0.19777536392211914, 0.0008492831839248538, 0.08642678707838058, -0.037254005670547485, -0.12638358771800995, 0.0424514003098011, 0.026999322697520256, -0.06955000013113022, 0.038898348808288574, 0.009057140909135342, -0.009842140600085258, -0.08710447698831558, -0.14608581364154816, -0.10321464389562607, 0.06525971740484238, 0.10769834369421005, -0.014741368591785431, -0.16195788979530334, 0.032394006848335266, 0.1274600774049759, 0.058053623884916306, -0.16786766052246094, 0.17789560556411743, -0.039484653621912, 0.13076728582382202, -0.2829430401325226, -0.16145913302898407, -0.05285303667187691, -0.13783560693264008, 0.033985450863838196, 0.06251528114080429, 0.015817537903785706, 0.011104414239525795, 0.05809875950217247, 0.03671189770102501, 0.03468761593103409, 0.1130085289478302, -0.14901714026927948, -0.04436250030994415, -0.15297727286815643, -0.10233579576015472, 0.07277975231409073, 0.09505536407232285, -0.14643283188343048 },
				{ 0.10866104066371918, 0.07402703166007996, 0.04260390251874924, -0.04944402351975441, 0.045156266540288925, -0.008196999318897724, -0.027982963249087334, 0.02549254335463047, 0.031750764697790146, -0.016410082578659058, 0.0718231350183487, 0.13026194274425507, -0.1942281275987625, 0.19730210304260254, 0.02935889922082424, -0.010892507620155811, -0.14451813697814941, 0.06999017298221588, -0.06611545383930206, 0.02934780903160572, 0.06975076347589493, 0.015161248855292797, -0.04670624062418938, -0.017873942852020264, 0.1849210411310196, 0.11519724130630493, 0.0716966912150383, -0.1332596093416214, 0.002710167784243822, 0.03513788431882858, -0.05020773038268089, -0.08572136610746384, -0.020172132179141045, 0.07130493968725204, -0.025562353432178497, 0.06956928223371506, 0.015566805377602577, -0.13273102045059204, -0.0826306864619255, -0.11062511801719666, 0.03687385469675064, 0.11505301296710968, 0.0419483557343483, 0.001654543448239565, -0.09311962872743607, -0.2627736032009125, 0.11467697471380234, 0.024676015600562096, 0.0053749168291687965, 0.040829114615917206 },
				{ 0.1526503711938858, 0.02306295372545719, -0.18361933529376984, -0.01021329965442419, -0.27145275473594666, 0.03329329937696457, 0.04432179033756256, 0.052621904760599136, -0.1548595279455185, 0.20007091760635376, -0.12415703386068344, 0.06065436452627182, 0.02963232807815075, -0.07776372879743576, 0.005906956270337105, -0.13786163926124573, 0.04223145917057991, 0.04592888802289963, -0.23611129820346832, -0.040773771703243256, -0.15666958689689636, -0.1694466918706894, 0.06516560912132263, -0.14071910083293915, -0.11997475475072861, -0.23765213787555695, 0.11843885481357574, -0.18074661493301392, -0.12688085436820984, -0.1685192584991455, 0.11352661997079849, 0.058852504938840866, 0.1056424230337143, 0.036149702966213226, 0.038565799593925476, 0.05778426304459572, -0.09206469357013702, 0.09835252910852432, -0.15148930251598358, -0.0930236428976059, -0.20510850846767426, -0.099826879799366, -0.160374715924263, 0.18076130747795105, -0.2439398318529129, 0.2149459272623062, 0.29251936078071594, 0.14123797416687012, -0.11035563051700592, -0.010873084887862206 },
				{ -0.01121345441788435, -0.12206873297691345, -0.002644688356667757, -0.039813414216041565, 0.014173024334013462, -0.048999711871147156, -0.0733136236667633, 0.14732588827610016, 0.11665472388267517, -0.13570721447467804, -0.08876103907823563, -0.0024567816872149706, -0.03072119504213333, 0.05610571429133415, -0.06130663678050041, 0.0010056867031380534, -0.08055239170789719, -0.018195247277617455, -0.1794738620519638, -0.013733016327023506, 0.1467932015657425, 0.039684586226940155, -0.1158822551369667, 0.06057614088058472, 0.05794958025217056, 0.09410517662763596, -0.06235933676362038, -0.38928166031837463, -0.21221603453159332, 0.1124100387096405, 0.17112071812152863, -0.14870862662792206, -0.05541515350341797, -0.12124811857938766, 0.071085125207901, 0.21365517377853394, 0.09626682847738266, 0.04537602886557579, -0.00888795405626297, 0.09916877746582031, -0.09685402363538742, -0.048986632376909256, -0.03596963733434677, -0.010979793965816498, 0.22161778807640076, -0.027353977784514427, -0.15695732831954956, 0.06341622024774551, 0.008500644005835056, 0.026472995057702065 },
				{ -0.006537839770317078, 0.041888751089572906, 0.09384037554264069, 0.12174598127603531, -0.0035939896479249, 0.08305641263723373, -0.27136629819869995, -0.03656954690814018, -0.009678168222308159, -0.10301440954208374, -0.08746076375246048, 0.09606777131557465, -0.10952556133270264, -0.04384837672114372, -0.12550291419029236, 0.0032794640865176916, -0.02338937297463417, -0.006183215882629156, -0.200784370303154, -0.15125443041324615, -0.07980244606733322, 0.09518472105264664, 0.04875349998474121, -0.03982148692011833, 0.012809849344193935, -0.0031316180247813463, -0.06945043802261353, 0.12133463472127914, 0.19732323288917542, 0.0309620164334774, -0.04966093972325325, -0.05272343382239342, -0.18536078929901123, 0.10223428159952164, -0.1110217347741127, -0.24062801897525787, 0.03154641389846802, -0.0774872824549675, 0.1319296956062317, 0.09532109647989273, -0.1382533609867096, 0.038017671555280685, -0.07789446413516998, 0.038247354328632355, -0.21145762503147125, -0.14971302449703217, -0.0331324078142643, -0.011181361973285675, 0.12333574891090393, -0.14000065624713898 },
				{ -0.09484726935625076, -0.05692015588283539, 0.11888806521892548, -0.03831867501139641, 0.0685778558254242, -0.05160149559378624, -0.05996622145175934, -0.09261120110750198, -0.03010280802845955, 0.04912824183702469, 0.11844717711210251, 0.07946263253688812, -0.009567713364958763, -0.09456747770309448, -0.05119088664650917, -0.09433476626873016, -0.10709492862224579, -0.1582176685333252, 0.02199130691587925, -0.09948835521936417, -0.08356339484453201, 0.1022210642695427, 0.08791942894458771, -0.1594354212284088, -0.020345628261566162, -0.09627250581979752, 0.10241276025772095, 0.10041678696870804, 0.11961904913187027, 0.011634218506515026, -0.15073136985301971, -0.08510953933000565, 0.035559240728616714, 0.09497226774692535, 0.011961548589169979, -0.2136378437280655, 0.004854368045926094, -0.09916405379772186, 0.17310786247253418, -0.07018768787384033, -0.09489024430513382, 0.01248469203710556, 0.052159667015075684, 0.12942124903202057, -0.19281648099422455, -0.1743192821741104, -0.04160473868250847, -0.05174071714282036, 0.017860036343336105, 0.12997156381607056 },
				{ -0.15284794569015503, 0.208968847990036, 0.12425106018781662, -0.0772041454911232, 0.15350119769573212, -0.06383004039525986, -0.10885307937860489, -0.0757681280374527, -0.013774595223367214, -0.0208175927400589, 0.08081544190645218, -0.05231396481394768, -0.09363403916358948, -0.04480353370308876, -0.024602914229035378, -0.07162289321422577, 0.08490587025880814, -0.07579528540372849, 0.05799664556980133, -0.2520616054534912, -0.02766359969973564, -0.07834810018539429, -0.16480211913585663, -0.11641322076320648, -0.17113754153251648, 0.24453745782375336, -0.29034242033958435, 0.2357477992773056, -0.03679320961236954, -0.09285613894462585, -0.31616833806037903, -0.10282362252473831, -0.07901972532272339, 0.07962454855442047, -0.3069262206554413, -0.1303882896900177, 0.08733619004487991, 0.0832185372710228, 0.07750684022903442, 0.002898177597671747, 0.08206409215927124, 0.10049309581518173, -0.011821053922176361, -0.049515411257743835, -0.3863828480243683, -0.3971068859100342, -0.14225853979587555, -0.12517376244068146, -0.02546164020895958, -0.3604051172733307 },
				{ -0.06659228354692459, 0.14831854403018951, 0.12254437804222107, 0.11813214421272278, 0.12087032198905945, -0.11569473892450333, 0.03055758774280548, -0.12274038791656494, 0.09064877778291702, -0.052743420004844666, 0.04072010517120361, 0.0420224703848362, -0.059905748814344406, -0.11899305135011673, 0.037718791514635086, -0.027721377089619637, -0.06349363178014755, -0.05436045303940773, -0.14986972510814667, -0.1205996721982956, -0.03676420450210571, 0.07526950538158417, -0.05043753236532211, 0.055111031979322433, 0.009905491024255753, 0.1623976230621338, -0.09466849267482758, 0.04563542827963829, -0.1564570963382721, -0.006165721453726292, -0.16650426387786865, 0.051369018852710724, -0.14626942574977875, 0.11250889301300049, -0.1548878252506256, -0.0615607351064682, 0.0840378850698471, -0.09263963252305984, 0.12497551739215851, 0.05390770733356476, -0.02793292887508869, 0.05240609124302864, -0.013087194412946701, -0.18299780786037445, -0.13892044126987457, -0.22735324501991272, 0.019615458324551582, -0.1544174998998642, 0.0498167984187603, -0.17823198437690735 },
				{ 0.06032482534646988, 0.09810740500688553, 0.12812192738056183, 0.09413759410381317, -0.010592718608677387, -0.06396413594484329, -0.16605277359485626, -0.11145108193159103, -0.004238095600157976, -0.09649410098791122, -0.0774102434515953, -0.08575113117694855, 0.02424182929098606, -0.027310656383633614, 0.021279629319906235, -0.21016885340213776, 0.019909728318452835, -0.0869668498635292, -0.11052518337965012, 0.12669409811496735, -0.04250737652182579, -0.10482817888259888, 0.023446999490261078, 0.08696318417787552, -0.0017960655968636274, 0.08970320224761963, 0.11038706451654434, -0.15345436334609985, -0.15408813953399658, 0.1850341111421585, 0.17977772653102875, -0.3222092092037201, 0.057419028133153915, 0.13352617621421814, 0.10588403791189194, 0.06451650708913803, -0.11452138423919678, -0.0038656974211335182, 0.07715071737766266, 0.0362001471221447, -0.022383660078048706, 0.05601586773991585, -0.00126813689712435, -0.22184689342975616, 0.1572195142507553, 0.08445268124341965, -0.05463806539773941, 0.07731985300779343, 0.03218209370970726, -0.10311909019947052 },
				{ 0.05157271772623062, 0.06342890113592148, -0.05883394554257393, 0.05334144085645676, -0.014242497272789478, -0.03830086067318916, -0.08740433305501938, 0.09539837390184402, 0.15724734961986542, -0.0652717649936676, 0.005980121903121471, -0.033121608197689056, -0.08278901875019073, 0.06717687845230103, -0.0075629292987287045, -0.20136743783950806, -0.005075483117252588, 0.000325758388498798, -0.18262557685375214, 0.023245107382535934, 0.0181457307189703, 0.0019827152136713266, 0.057182494550943375, 0.13189122080802917, -0.07315409928560257, -0.04950800910592079, 0.1335960328578949, -0.10609067231416702, 0.04110348969697952, 0.03246965631842613, 0.12042531371116638, -0.18348711729049683, 0.02895982936024666, -0.09753768146038055, 0.03195692598819733, -0.007698032073676586, -0.022633379325270653, 0.09693459421396255, 0.07265586405992508, 0.01926996000111103, -0.1647082269191742, 0.00280284252949059, -0.022444287315011024, 0.05879651755094528, 0.01453483011573553, 0.051011525094509125, -0.08271702378988266, -0.04454968869686127, -0.038258232176303864, -0.04718459025025368 }
			},
				
