/*
 * This file is auto-generated by gen-weights.py
 */

#pragma once

#include "definitions.h"
#include "dense_weights.h"


// Dense layer weights.
float dense_weights[FLAT_SIZE][DENSE_SIZE]
	 = {
			{ -0.20793847739696503, -0.03583443537354469, 0.14533625543117523, 0.0709613785147667, -0.017792584374547005, 0.03829563036561012, -0.14459004998207092, -0.006825540214776993, 0.043465785682201385, -0.14919328689575195 },
			{ -0.07334649562835693, -0.17696553468704224, -0.1462961584329605, -0.13286884129047394, 0.2028680443763733, 0.10966929793357849, 0.21695619821548462, -0.08749619871377945, -0.043277088552713394, -0.24038872122764587 },
			{ -0.16028814017772675, 0.021535184234380722, -0.08846134692430496, 0.04124165698885918, -0.027569646015763283, -0.044659748673439026, -0.132036954164505, 0.09315881133079529, 0.13759037852287292, -0.024625109508633614 },
			{ -0.019625233486294746, -0.0842137336730957, 0.15344135463237762, 7.290517532965168e-05, 0.01860681362450123, -0.12980099022388458, 0.01009184680879116, 0.012503257021307945, -0.059287186712026596, -0.08310283720493317 },
			{ -0.07091684639453888, -0.07095120847225189, 0.005668983794748783, -0.04293880984187126, 0.05184045061469078, -0.09327805042266846, -0.04035879299044609, 0.11240522563457489, -0.07418955117464066, -0.033880565315485 },
			{ 0.00021173825371079147, -0.09587738662958145, 0.130650594830513, 0.03804744780063629, 0.01626754179596901, -0.00751352496445179, 0.048433203250169754, 0.06274645030498505, -0.06604031473398209, -0.05900522321462631 },
			{ -0.11658976227045059, 0.07179836183786392, -0.09595198929309845, 0.006768104154616594, 0.016438018530607224, -0.01710805483162403, -0.23787935078144073, 0.24876539409160614, -0.022297199815511703, -0.14399011433124542 },
			{ -0.26718220114707947, -0.12641222774982452, 0.11804062873125076, 0.15445004403591156, -0.02358112297952175, -0.2270795702934265, -0.19515354931354523, 0.16433513164520264, -0.09200209379196167, -0.16526491940021515 },
			{ -0.09674600511789322, -0.17329879105091095, 0.0763368234038353, -0.05510610714554787, -0.16799050569534302, -0.01387733407318592, 0.15821577608585358, -0.00870013888925314, 0.09414470940828323, 0.06949173659086227 },
			{ -0.0445733442902565, -0.06940661370754242, 0.07285120338201523, -0.033713094890117645, 0.005079085938632488, 0.03518182784318924, 0.08302084356546402, -0.06350921839475632, 0.09749279171228409, 0.12498146295547485 },
			{ -0.013804372400045395, -0.12077789008617401, -0.03591783717274666, -0.05660608410835266, 0.10306912660598755, -0.07009100168943405, 0.17737744748592377, -0.08103130757808685, -0.002397137926891446, 0.0017789953853935003 },
			{ 0.015763597562909126, 0.0059346770867705345, -0.03920593112707138, 0.05574595928192139, -0.04062933847308159, -0.1285344660282135, 0.13769134879112244, 0.043508198112249374, -0.05330817028880119, -0.0035607386380434036 },
			{ -0.024042634293437004, 0.1008671373128891, -0.17290706932544708, 0.006709416396915913, 0.028811775147914886, -0.049449820071458817, -0.07995281368494034, 0.05143590644001961, 0.013520012609660625, -0.007975715212523937 },
			{ 0.020966386422514915, -0.12080368399620056, 0.0342603363096714, 0.11161816120147705, -0.0027992110699415207, 0.02710830420255661, -0.11553947627544403, 0.020320935174822807, 0.03622912988066673, 0.046900298446416855 },
			{ -0.022272393107414246, -0.006771860644221306, -0.02687344327569008, 0.014888893812894821, -0.010150804184377193, 0.01118975505232811, -0.027157634496688843, 0.04649237170815468, 0.02092876099050045, -0.09425078332424164 },
			{ -0.15708419680595398, -0.03794216364622116, -0.019647762179374695, 0.03880612924695015, 0.032987698912620544, -0.008270442485809326, -0.26361802220344543, 0.13173729181289673, -0.00789958517998457, -0.1804189383983612 },
			{ -0.1508835256099701, -0.22528421878814697, 0.07447510957717896, 0.09367961436510086, -0.048333797603845596, -0.2378179281949997, -0.05583827197551727, 0.17214414477348328, -0.03754453733563423, -0.07675144076347351 },
			{ -0.15372826159000397, -0.004374392796307802, -0.007388424593955278, 0.16675585508346558, -0.0792449340224266, -0.013320895843207836, 0.019970104098320007, 0.06603003293275833, 0.01481796894222498, -0.07877370715141296 },
			{ 0.10846969485282898, 0.044042620807886124, -0.039422933012247086, 0.019181817770004272, -0.11412743479013443, -0.03659563511610031, -0.17741581797599792, 0.13048884272575378, -0.07731834053993225, -0.04294230416417122 },
			{ 0.003681596601381898, -0.09881491959095001, 0.02598496712744236, 0.03195228427648544, -0.15124404430389404, -0.12169508635997772, -0.11363659054040909, 0.02077566459774971, 0.12126866728067398, 0.07738786190748215 },
			{ -0.13316687941551208, -0.00609041890129447, -0.04979953542351723, -0.06583245098590851, 0.00836587231606245, -0.09714756160974503, 0.07952520251274109, -0.0057225958444178104, -0.074742890894413, -0.08303669840097427 },
			{ -0.03783365711569786, -0.047640323638916016, -0.013638338074088097, -0.09544156491756439, 0.037395332008600235, -0.09212738275527954, 0.11603058129549026, -0.03745868802070618, 0.017984777688980103, -0.08852546662092209 },
			{ 0.03089909628033638, -0.07297375798225403, 0.0020997978281229734, 0.08399668335914612, -0.09933320432901382, -0.057238832116127014, -0.09713753312826157, 0.10122567415237427, 0.06533676385879517, 0.05283486470580101 },
			{ 0.09888266026973724, 0.08198897540569305, -0.09797544032335281, -0.025782495737075806, -0.026630686596035957, -0.03733781725168228, -0.008586050011217594, 0.012407573871314526, 0.05505815148353577, -0.1120414286851883 },
			{ 0.0725787952542305, -0.023559818044304848, 0.022149015218019485, 0.04482332244515419, 0.01945665292441845, -0.08615225553512573, 0.028848858550190926, -0.006096859462559223, 0.040748488157987595, 0.04017942398786545 },
			{ -0.02317480742931366, -0.0880042016506195, 0.13435623049736023, -0.03529813140630722, 0.004179264418780804, -0.052895981818437576, 0.05289587005972862, -0.030363665893673897, -0.08327314257621765, -0.034033697098493576 },
			{ -0.0781230479478836, 0.04943883791565895, -0.023649059236049652, 0.03963026776909828, 0.04467591643333435, -0.13127024471759796, 0.1250811070203781, 0.1059148982167244, -0.047091878950595856, -0.12321098893880844 },
			{ -0.2115340232849121, 0.1294892281293869, -0.06590449810028076, 0.062312621623277664, 0.0428117960691452, -0.012740107253193855, -0.18327488005161285, 0.1669687181711197, 0.009900569915771484, -0.21094633638858795 },
			{ -0.06800447404384613, -0.03762545809149742, -0.08229700475931168, -0.035200007259845734, -0.017373651266098022, 0.0006237542256712914, 0.21591316163539886, 0.08830477297306061, -0.04983252286911011, -0.08438410609960556 },
			{ 0.07109689712524414, -0.05191652849316597, -0.05364743992686272, -0.09521723538637161, -0.000783600436989218, -0.01429511234164238, -0.04283000901341438, -0.029864802956581116, -0.006028954405337572, 0.07246211171150208 },
			{ 0.1291055530309677, -0.08166533708572388, -0.09690852463245392, -0.2514955401420593, -0.08884626626968384, -0.042475536465644836, -0.005611935164779425, -0.0367438904941082, 0.057569876313209534, 0.15846315026283264 },
			{ 0.0230412557721138, -0.013941056095063686, -0.18576885759830475, -0.16926458477973938, 0.30609673261642456, 0.11514367163181305, 0.046192701905965805, 0.09911619126796722, -0.10368034243583679, -0.243851438164711 },
			{ -0.07290907204151154, -0.15092292428016663, -0.014331071637570858, -0.0022595878690481186, -0.03284430876374245, 0.04387267678976059, 0.05515928193926811, 0.11898632347583771, -0.11771432310342789, -0.024839244782924652 },
			{ 0.08541392534971237, -0.013145104981958866, -0.08557138592004776, 0.10958157479763031, -0.028200514614582062, 0.05956059321761131, -0.04312143474817276, 0.06676840782165527, -0.09298928827047348, -0.057410046458244324 },
			{ 0.011749638244509697, -0.07699353247880936, 0.07904116809368134, -0.05275741219520569, -0.020507950335741043, -0.08017724007368088, -0.05168849602341652, 0.031720638275146484, -0.0289200097322464, 0.07024703174829483 },
			{ 0.11872529238462448, -0.0367434062063694, 0.019551025703549385, -0.10461359471082687, 0.11002292484045029, 0.05827034264802933, 0.07763908803462982, -0.041578277945518494, -0.10653240233659744, -0.07707290351390839 },
			{ -0.1357051134109497, -0.03828001394867897, -0.04917746037244797, 0.07032136619091034, -0.06203635036945343, -0.1808859258890152, 0.20643576979637146, 0.08351035416126251, 0.03074084408581257, -0.131221204996109 },
			{ 0.01720784790813923, -0.07354249805212021, 0.10773222148418427, -0.060331616550683975, -0.027249222621321678, -0.09839829802513123, 0.041972897946834564, -0.14514023065567017, -0.07534956932067871, 0.027348173782229424 },
			{ -0.05618130788207054, -0.015002346597611904, 0.16179274022579193, 0.04245809093117714, -0.05028257519006729, -0.08218231797218323, -0.012748396024107933, 0.10215219855308533, -0.07755987346172333, 0.057104527950286865 },
			{ -0.03778351470828056, -0.07306127995252609, 0.053298238664865494, 0.09168699383735657, 0.07423245906829834, -0.006130395457148552, 0.014250804670155048, 0.07350866496562958, -0.021016372367739677, 0.04076605662703514 },
			{ 0.008286280557513237, 0.0290911253541708, -0.05211449787020683, -0.0674820989370346, -0.04255223274230957, 0.10720967501401901, -0.08969249576330185, 0.08431974798440933, 0.008809606544673443, -0.10338113456964493 },
			{ -0.0068966299295425415, -0.009937000460922718, -0.1544801890850067, -0.06457344442605972, 0.19939100742340088, -0.05622856318950653, 0.20181843638420105, -0.16407249867916107, 0.09297388046979904, -0.09201397001743317 },
			{ -0.033560894429683685, -0.10437075793743134, -0.008287151344120502, 0.0734948068857193, -0.0006207175902090967, 0.024460773915052414, -0.026048805564641953, 0.027122309431433678, -0.004549446981400251, -0.09921209514141083 },
			{ -0.024580396711826324, 0.06524976342916489, -0.001163371722213924, 0.03592248633503914, -0.06223160773515701, 0.010647851973772049, 0.05112842470407486, 0.03325372189283371, -0.0303811002522707, -0.10960052162408829 },
			{ 0.008095204830169678, -0.12187850475311279, -0.10663595795631409, 0.017189951613545418, 0.16968819499015808, -0.02606639266014099, -0.010834581218659878, -0.1069876030087471, 0.08910547196865082, 0.009527879767119884 },
			{ 0.02583358809351921, 0.06938997656106949, -0.13875098526477814, -0.15356901288032532, 0.13000155985355377, 0.0034161824733018875, -0.14582006633281708, -0.010716462507843971, 0.09581520408391953, 0.0031945977825671434 },
			{ -0.060881149023771286, -0.0852402001619339, -0.10989370197057724, -0.004906687419861555, 0.01599017344415188, 0.07591686397790909, 0.018533574417233467, 0.19781732559204102, -0.08941732347011566, 0.07028885930776596 },
			{ -0.0667705237865448, -0.018497424200177193, -0.07917168736457825, -0.05326683074235916, -0.038577672094106674, 0.1348002403974533, 0.1499684751033783, -0.08987724035978317, -0.12059278041124344, 0.04021728038787842 },
			{ -0.003158066887408495, -0.07502444833517075, 0.003942947834730148, -0.007637024391442537, -0.0716845765709877, -0.08446043729782104, -0.10491832345724106, 0.15218767523765564, 0.03391512855887413, -0.06879949569702148 },
			{ -0.0043681226670742035, -0.03443242609500885, 0.0544842965900898, 0.11547355353832245, -0.1573110818862915, 0.06229538097977638, -0.1896255612373352, 0.017409509047865868, 0.0023424429818987846, 0.02598872222006321 },
			{ -0.02463282085955143, 0.05748935043811798, -0.15135541558265686, 0.24083642661571503, 0.04922136664390564, -0.20419853925704956, -0.06815168261528015, -0.01771138794720173, 0.01806468702852726, -0.03609878197312355 },
			{ -0.12605492770671844, 0.08502000570297241, 0.03154560923576355, -0.0591379776597023, 0.2423422634601593, 0.08255485445261002, 0.05648062378168106, 0.10478732734918594, -0.28547361493110657, -0.1607077419757843 },
			{ -0.21981951594352722, -0.006549400743097067, -0.029108522459864616, -0.013521087355911732, -0.1306312382221222, 0.10489674657583237, -0.11845693737268448, 0.0849216878414154, -0.036613788455724716, 0.004676584154367447 },
			{ -0.1618754267692566, -0.1122417151927948, 0.05952511727809906, -0.022567877545952797, -0.10334198921918869, -0.03221438452601433, -0.020828379318118095, 0.04551655426621437, 0.05434839427471161, 0.08857833594083786 },
			{ -0.07709543406963348, -0.01542067714035511, -0.0831715539097786, -0.051915764808654785, 0.13694240152835846, 0.063748300075531, -0.1439007669687271, 0.015495048835873604, 0.0208345465362072, -0.019450338557362556 },
			{ -0.05925142019987106, -0.01896442472934723, -0.11125535517930984, -0.0887148529291153, -0.1094406396150589, 0.05068602040410042, 0.033400557935237885, 0.11729709804058075, -0.026347866281867027, -0.005984943825751543 },
			{ 0.13127075135707855, 0.0974237248301506, 0.14478716254234314, 0.08886732161045074, -0.03530172258615494, -0.16348451375961304, -0.226769357919693, 0.08422919362783432, 0.03080437332391739, -0.22973710298538208 },
			{ -0.06731601059436798, -0.17964380979537964, 0.011161064729094505, 0.16058258712291718, -0.03519103303551674, -0.21591292321681976, -0.1378663033246994, 0.053179237991571426, -0.08683446794748306, -0.08694485574960709 },
			{ 0.04568693786859512, -0.10424267500638962, 0.06694454699754715, -0.15801841020584106, -0.15372194349765778, 0.16695696115493774, 0.12469068169593811, 0.04078123718500137, 0.06525083631277084, 0.1070392057299614 },
			{ 0.020330067723989487, -0.041884757578372955, 0.10087557137012482, -0.09918536990880966, -0.001166359055787325, -0.013544176705181599, 0.012087750248610973, -0.04467998072504997, -0.0455327071249485, 0.02456071227788925 },
			{ 0.10764130204916, 0.06816721707582474, 0.024095505475997925, -0.059028659015893936, 0.16377273201942444, 0.03002987429499626, -0.09561219066381454, -0.05829275771975517, -0.2107868194580078, -0.05963481217622757 },
			{ 0.05610461160540581, -0.017606694251298904, -0.033585574477910995, -0.04223340004682541, -0.12333741039037704, 0.04165292903780937, 0.023740949109196663, 0.024715673178434372, -0.057251233607530594, 0.0360487662255764 },
			{ -0.07718972116708755, 0.01901799626648426, -0.008560976944863796, 0.032200802117586136, -0.08459674566984177, 0.07906368374824524, 0.06482544541358948, 0.08192536234855652, -0.03596663102507591, -0.1083572581410408 },
			{ -0.008339261636137962, 0.02706197276711464, -0.02001487836241722, -0.014594364911317825, -0.11301804333925247, -0.05598730221390724, -0.0688890889286995, 0.021054264158010483, -0.03822091221809387, -0.029700351879000664 },
			{ 0.03988911956548691, -0.000828083255328238, -0.02297941781580448, 0.04357277974486351, 0.06111695617437363, 0.017737479880452156, 0.04528352618217468, -0.08665741235017776, 0.030476899817585945, 0.04565262421965599 },
			{ 0.012708735652267933, -0.04038679972290993, 0.07030275464057922, 0.11017514020204544, -0.008778286166489124, -0.037780195474624634, -0.08002566546201706, 0.053667377680540085, -0.06152799353003502, -0.09666819125413895 },
			{ -0.1050323024392128, -0.07688868790864944, 0.043874502182006836, 0.13876672089099884, -0.235983207821846, -0.038111936300992966, -0.14621537923812866, 0.04858549311757088, -0.020453227683901787, 0.016846073791384697 },
			{ -0.04672528803348541, -0.10466235131025314, 0.007125421892851591, 0.08093741536140442, 0.0640735998749733, -0.012562987394630909, 0.144438698887825, -0.026956068351864815, 0.07378502190113068, -0.029675215482711792 },
			{ 0.11534649133682251, -0.06915339827537537, -0.0062851193360984325, 0.05303022637963295, -0.09295718371868134, 0.04088176041841507, -0.19274728000164032, 0.09044792503118515, -0.0751785859465599, 0.07163824141025543 },
			{ 0.01886577159166336, -0.17362470924854279, 0.06724964827299118, -0.01008520182222128, -0.013910164125263691, -0.1048068106174469, 0.01242152415215969, -0.0272846519947052, 0.10785485059022903, 0.07289311289787292 },
			{ -0.13180045783519745, 0.10996029525995255, -0.08200418949127197, -0.06037358567118645, 0.10722381621599197, 0.16913627088069916, 0.09865418821573257, -0.08324312418699265, 0.040318187326192856, -0.13628916442394257 },
			{ -0.04076084867119789, -0.11287544667720795, 0.05983440950512886, -0.021206378936767578, 0.09561693668365479, -0.02407480962574482, 0.0843406543135643, 0.023175401613116264, -0.030672665685415268, 0.025105250999331474 },
			{ -0.0053627085871994495, -0.028667999431490898, 0.009715589694678783, 0.10848277807235718, -0.15556778013706207, -0.09524282068014145, -0.02568843401968479, 0.012380282394587994, 0.023582587018609047, 0.09879261255264282 },
			{ -0.029009927064180374, -0.08470963686704636, -0.0666496530175209, -0.05561220273375511, 0.0743354856967926, -0.06614074110984802, -0.04478456825017929, 0.0014140814309939742, -0.0025334723759442568, -0.07503554224967957 },
			{ 0.00845230184495449, -0.014132260344922543, 0.10274706780910492, 0.1413716971874237, -0.1016816720366478, -0.1196051836013794, -0.10004884004592896, -0.07955049723386765, -0.017803240567445755, 0.03293189778923988 },
			{ 0.05991548299789429, 0.028911635279655457, -0.08858150243759155, 0.09215135127305984, 0.03340592980384827, -0.12863582372665405, 0.01468725223094225, -0.0026623369194567204, 0.00021037536498624831, -0.09095893055200577 },
			{ 0.028389042243361473, -0.06312740594148636, -0.021501149982213974, -0.018690936267375946, -0.04204331338405609, -0.09904392808675766, -0.02686445228755474, 0.03732765093445778, -0.10119127482175827, -0.02748395875096321 },
			{ -0.006653343327343464, 0.055055171251297, 0.024854512885212898, 0.06718022376298904, -0.06786351650953293, -0.1336694210767746, -0.09322929382324219, 0.10077907145023346, 0.13883720338344574, -0.14986667037010193 },
			{ -0.02561895176768303, 0.032019972801208496, -0.026840418577194214, 0.027199819684028625, 0.11236228048801422, -0.034665197134017944, 0.13940027356147766, -0.02030355855822563, -0.03746369481086731, 0.05025870352983475 },
			{ 0.043265245854854584, -0.09340258687734604, 0.020871201530098915, 0.029073409736156464, -0.0448046550154686, 0.06413227319717407, -0.03893256187438965, -0.06409886479377747, 0.06909578293561935, -0.019703863188624382 },
			{ -0.08887986093759537, 0.025950901210308075, 0.02814980037510395, 0.005096865817904472, -0.1745811402797699, 0.05286303162574768, 0.1970953345298767, 0.017180193215608597, -0.10239531099796295, -0.09893739223480225 },
			{ -0.043717920780181885, 0.08845160156488419, 0.023485884070396423, 0.04376455768942833, 0.2851659655570984, -0.021592630073428154, -0.275601863861084, 0.02371314726769924, -0.03348090127110481, -0.2236718237400055 },
			{ -0.06198814511299133, 0.121886245906353, 0.04145966097712517, 0.13472607731819153, -0.06989552825689316, 0.12418203055858612, -0.3052453100681305, 0.15786586701869965, -0.21580290794372559, -0.17798906564712524 },
			{ -0.06608456373214722, 0.11281421035528183, -0.00391238322481513, 0.022129300981760025, -0.11301281303167343, 0.05056264251470566, -0.20678117871284485, 0.09072382003068924, -0.09580216556787491, 0.029252050444483757 },
			{ 0.02150098979473114, 0.029641663655638695, 0.04049265757203102, 0.021753504872322083, 0.02366863191127777, 0.017192479223012924, 0.06037602201104164, -0.006169085390865803, 0.03528844192624092, -0.05529363080859184 },
			{ 0.1858849972486496, 0.23089376091957092, 0.1156901866197586, -0.19346870481967926, 0.05701367184519768, 0.07374610006809235, -0.006531987804919481, 0.08381718397140503, -0.12596844136714935, -0.22095884382724762 },
			{ 0.02068144455552101, -0.08977583795785904, -0.04108009114861488, -0.09106089919805527, 0.11694078892469406, -0.12945745885372162, 0.07848953455686569, 0.054398782551288605, 0.06956027448177338, -0.08754892647266388 },
			{ 0.22084344923496246, 0.027059873566031456, -0.012377766892313957, -0.10531999170780182, -0.19203384220600128, 0.13190826773643494, -0.04031223803758621, -0.025071609765291214, -0.18802465498447418, 0.1980527937412262 },
			{ -0.04735427349805832, -0.09214331209659576, 0.06637465208768845, 0.09348268061876297, 0.013186108320951462, -0.15613745152950287, -0.10965123027563095, -0.002642346080392599, 0.002337260637432337, -0.06949227303266525 },
			{ -0.03357788175344467, -0.007844334468245506, -0.004762901924550533, 0.0224223081022501, -0.011044303886592388, -0.07910539209842682, -0.059124305844306946, 0.07907971739768982, -0.03638596832752228, -0.019711235538125038 },
			{ -0.16368825733661652, 0.233712837100029, -0.22719737887382507, -0.11491850018501282, 0.15927129983901978, 0.18670347332954407, 0.012779992073774338, 0.011533936485648155, 0.04927889630198479, -0.33281564712524414 },
			{ -0.06132302060723305, -0.08298128098249435, 0.01970817893743515, -0.06223999708890915, 0.3012761175632477, 0.03507785499095917, 0.050631072372198105, 0.015102996490895748, -0.12407185882329941, -0.2116013914346695 },
			{ 0.09164727479219437, 0.14279985427856445, 0.06683625280857086, 0.04386076703667641, -0.06000085920095444, -0.05829004943370819, -0.0010794188128784299, -0.049982573837041855, -0.025861768051981926, -0.0860588327050209 },
			{ 0.07223767042160034, 0.07284816354513168, 0.09009604901075363, 0.01881299540400505, -0.07835111767053604, -0.2037753164768219, 0.031689196825027466, 0.052429795265197754, -0.11441472172737122, -0.06087138503789902 },
			{ 0.08508714288473129, 0.12168648093938828, 0.05040357634425163, -0.1238195076584816, 0.05400058627128601, -0.04976797103881836, 0.011234758421778679, 0.07758254557847977, -0.010882288217544556, -0.1364852488040924 },
			{ 0.07699177414178848, 0.06504429131746292, -0.09698696434497833, -0.06964170187711716, -0.014532441273331642, 0.06303565949201584, -0.0543014332652092, -0.12152492254972458, 0.07755926251411438, 0.053924743086099625 },
			{ 0.036444325000047684, 0.03447647765278816, 0.030299112200737, -0.05199906975030899, -0.000835017766803503, -0.11737064272165298, -0.04127001017332077, -0.04716389253735542, 0.03609653189778328, 0.11516161262989044 },
			{ -0.06889718770980835, 0.17700418829917908, 0.05305539816617966, -0.23191097378730774, -0.034864116460084915, 0.14355497062206268, 0.07269294559955597, -0.19194753468036652, 0.06988168507814407, 0.1583814024925232 },
			{ 0.058503057807683945, -0.11674626916646957, -0.0015115761198103428, 0.026922043412923813, -0.06835181266069412, -0.03489094600081444, -0.2244616597890854, 0.10096163302659988, 0.09345289319753647, -0.004136961419135332 },
			{ 0.08600515127182007, -0.06522472947835922, 0.09077095240354538, 0.011579819954931736, 0.004156854003667831, -0.07941249758005142, -0.20503824949264526, 0.02572472207248211, -0.02275867946445942, 0.06757290661334991 },
			{ -0.13636153936386108, -0.044690947979688644, 0.12395932525396347, 0.05895598232746124, 0.050720881670713425, -0.09500278532505035, 0.17211388051509857, -0.03573111072182655, -0.0707993432879448, -0.12563841044902802 },
			{ -0.15721648931503296, 0.03156186640262604, 0.19956520199775696, 0.018317513167858124, 0.03507502004504204, -0.04127361625432968, -0.029593631625175476, -0.10107681900262833, -0.1776629388332367, -0.15711042284965515 },
			{ 0.11741916835308075, -0.0669996365904808, 0.13511866331100464, -0.1547699123620987, 0.04458964616060257, 0.07932766526937485, -0.05420076102018356, 0.05097969248890877, -0.02119714766740799, -0.16305597126483917 },
			{ 0.05847115442156792, -0.11218345165252686, -0.03226178139448166, -0.1059458777308464, -0.20654740929603577, 0.04383577033877373, -0.050053857266902924, 0.13056409358978271, 0.11424122750759125, 0.10425592958927155 },
			{ 0.04289522022008896, 0.0033447619061917067, -0.04782436043024063, -0.06071930751204491, 0.15540219843387604, 0.10314178466796875, -0.15026558935642242, 0.014452977105975151, 0.1363670378923416, -0.16652952134609222 },
			{ -0.03751441091299057, -0.0677454024553299, 0.06538469344377518, 0.048368483781814575, -0.0034074257127940655, 0.03157408908009529, 0.06258691102266312, -0.055849310010671616, 0.08283281326293945, 0.05276386812329292 },
			{ 0.02185569517314434, -0.26709386706352234, 0.05978526175022125, -0.03423604369163513, -0.14231246709823608, -0.038270652294158936, -0.1173529401421547, 0.017788631841540337, -0.06139937788248062, -0.006021256558597088 },
			{ -0.0013274566736072302, -0.049191977828741074, 0.008941235020756721, 0.08954986929893494, -0.22515079379081726, 0.1348246932029724, -0.0702911913394928, -0.041926901787519455, -0.11872561275959015, -0.19194220006465912 },
			{ 0.0015612512361258268, 0.09485697746276855, -0.05601200461387634, -0.17268645763397217, -0.06188362464308739, 0.0235438235104084, 0.11191021651029587, -0.19511643052101135, -0.06292622536420822, 0.008293833583593369 },
			{ 0.04665478691458702, 0.03836103901267052, 0.06216371804475784, -0.12006039172410965, -0.14739646017551422, -0.049719396978616714, 0.014071671292185783, 0.07830440253019333, -0.05483618006110191, -0.07657544314861298 },
			{ -0.013269517570734024, 0.02935781702399254, 0.11822157353162766, 0.014431951567530632, -0.07164536416530609, -0.05727820470929146, -0.02721000276505947, -0.024761036038398743, -0.0874384418129921, 0.06114054471254349 },
			{ -0.04431254416704178, 0.08362433314323425, -0.09571961313486099, -0.0352088063955307, -0.33960360288619995, 0.2498752623796463, -0.05262630060315132, 0.010224583558738232, -0.07120510190725327, 0.13626644015312195 },
			{ -0.03145137056708336, 0.037016015499830246, 0.005357879679650068, 0.08021374046802521, -0.05074375495314598, 0.1084040105342865, -0.029132980853319168, -0.015205711126327515, -0.021349413320422173, -0.07437047362327576 },
			{ 0.0453292541205883, 0.030541902408003807, -0.03884528949856758, -0.04748668149113655, -0.0033788816072046757, 0.021686365827918053, 0.03691324219107628, -0.0514170303940773, -0.06465630233287811, 0.0251548383384943 },
			{ -0.033190153539180756, -0.006239741574972868, -0.047375548630952835, 0.031530506908893585, -0.010537750087678432, -0.005584630183875561, -0.05743963271379471, -0.059834662824869156, 0.06593775004148483, 0.07926133275032043 },
			{ -0.059549033641815186, -0.009058314375579357, 0.1313607394695282, 0.05131203308701515, 0.011935538612306118, -0.09239429235458374, 0.040138646960258484, 0.10184939950704575, -0.10444258898496628, -0.13906636834144592 },
			{ -0.047220852226018906, -0.07587147504091263, 0.04144417867064476, 0.03053363598883152, -0.40229877829551697, -0.021704593673348427, -0.02130001224577427, 0.059709951281547546, -0.02260502241551876, -0.0017889176961034536 },
			{ 0.04847317561507225, -0.027996936812996864, 0.022083356976509094, -0.06696528941392899, 0.0049606263637542725, 0.011697723530232906, -0.029509173706173897, 0.03327483311295509, -0.00897605624049902, 0.042541928589344025 },
			{ 0.09509137272834778, -0.04570131003856659, -0.008001457899808884, 0.0017091215122491121, -0.15949399769306183, -0.04373137280344963, -0.17211130261421204, 0.00688083004206419, -0.01003890298306942, 0.10952441394329071 },
			{ 0.0391058549284935, -0.024835791438817978, 0.1192571148276329, -0.04776335507631302, -0.11817929148674011, -0.013022898696362972, 0.09368979185819626, -0.1374933123588562, -0.025134729221463203, 0.14301085472106934 },
			{ 0.038618821650743484, 0.09908325225114822, -0.0003481892927084118, 0.0652373731136322, 0.040702689439058304, -0.016602620482444763, -0.04712618142366409, 0.02419992908835411, -0.032228972762823105, -0.12402909994125366 },
			{ 0.06514778733253479, -0.012249239720404148, 0.026470933109521866, -0.06434299051761627, 0.004691475536674261, -0.07104943692684174, 0.0662008598446846, 0.015247682109475136, -0.13740836083889008, -0.04976169019937515 },
			{ 0.0070118373259902, -0.04927549883723259, 0.09183436632156372, -0.05363779515028, -0.19554360210895538, 0.02329559065401554, -0.0236283577978611, -0.0037458050064742565, 0.020388824865221977, 0.12153598666191101 },
			{ -0.042563728988170624, -0.03737552836537361, 0.1423002928495407, -0.1514037698507309, -0.10559072345495224, 0.03957121819257736, 0.07436256110668182, 0.0713844820857048, 0.0246563870459795, -0.005428335163742304 },
			{ 0.14519000053405762, -0.1447126865386963, 0.030470730736851692, -0.04287133365869522, -0.3090762197971344, -0.08271898329257965, -0.1606462150812149, 0.07148347795009613, 0.13389262557029724, 0.08397321403026581 },
			{ 0.02412627823650837, 0.09307264536619186, 0.05528607964515686, -0.14339934289455414, -0.020164405927062035, -0.023635350167751312, 0.08819893002510071, 0.13908296823501587, 0.026513388380408287, -0.09401629865169525 },
			{ -0.05288057029247284, -0.1180330216884613, 0.1042303591966629, -0.0077590434812009335, -0.15799976885318756, -0.03501658886671066, -0.02341935969889164, 0.03641461208462715, -0.055936336517333984, 0.09175106883049011 },
			{ 0.034590356051921844, 0.0344943068921566, 0.06680063903331757, -0.051497310400009155, -0.23943224549293518, 0.019926488399505615, -0.07828190177679062, 0.0705946683883667, 0.007460109423846006, 0.07945101708173752 },
			{ -0.08431591093540192, -0.0311261173337698, 0.0583358034491539, -0.0005811644368804991, -0.004479537717998028, 0.052941907197237015, 0.004940979182720184, 0.0027282729279249907, -0.015549716539680958, 0.04378927871584892 },
			{ 0.11948500573635101, 0.03055693209171295, 0.06755401939153671, -0.09234791994094849, -0.13605928421020508, -0.050340455025434494, -0.11932609230279922, 0.025779083371162415, 0.18984465301036835, 0.007811552844941616 },
			{ -0.046997226774692535, -0.2313893735408783, 0.12159597128629684, 0.00909858662635088, -0.1357181966304779, -0.05266649276018143, 0.2035386860370636, -0.023268364369869232, 0.13278819620609283, -0.030455060303211212 },
			{ 0.09396883100271225, -0.056412454694509506, 0.07441984117031097, -0.010000554844737053, -0.06847294420003891, -0.1112895980477333, -0.14011317491531372, -0.027712132781744003, 0.06858529895544052, 0.0010594641789793968 },
			{ 0.026791905984282494, 0.00971273798495531, 0.08152252435684204, 0.06326859444379807, -0.034552715718746185, -0.021906012669205666, -0.1378525346517563, 0.037455834448337555, -0.1093912422657013, 0.025981355458498 },
			{ -0.019774170592427254, 0.016180556267499924, 0.10185053944587708, -0.10317303240299225, 0.02721220813691616, 0.10182633250951767, -0.14355705678462982, -0.01835428923368454, 0.08574163168668747, -0.07813766598701477 },
			{ -0.059580571949481964, -0.04699186235666275, 0.036198943853378296, 0.027537181973457336, 0.05953839793801308, -0.06849649548530579, 0.012441097758710384, 0.04103650897741318, 0.01882416382431984, 0.09612337499856949 },
			{ -0.022898197174072266, 0.0021157602313905954, 0.08734247088432312, 0.016662202775478363, -0.0964803695678711, 0.026807710528373718, 0.09514923393726349, 0.046643808484077454, -0.2188829779624939, -0.04100387915968895 },
			{ -0.03984714671969414, -0.18768757581710815, 0.10402259230613708, -0.16469600796699524, 0.07934903353452682, 0.022633804008364677, 0.13978087902069092, -0.10294783115386963, 0.04999852180480957, -0.1309192031621933 },
			{ -0.055382877588272095, 0.16910532116889954, -0.11958467960357666, -0.2650233507156372, -0.1535629779100418, 0.15097732841968536, -0.03372601047158241, 0.07210547477006912, 0.07338827103376389, 0.005661685019731522 },
			{ 0.01595412753522396, -0.057426150888204575, -0.036785345524549484, 0.11631061136722565, -0.0662979707121849, -0.08273213356733322, -0.013788011856377125, 0.027973327785730362, 0.0034366955514997244, -0.09136118739843369 },
			{ -0.023708634078502655, -0.11187280714511871, 0.006425939965993166, 0.10996425896883011, 0.019553635269403458, 0.07817747443914413, -0.06149693578481674, -0.02969416417181492, 0.008044500835239887, -0.05940023437142372 },
			{ -0.16573300957679749, 0.26666852831840515, -0.18609091639518738, -0.16241441667079926, 0.30648940801620483, -0.2119431048631668, 0.2849373519420624, -0.17328433692455292, -0.06327686458826065, -0.34658533334732056 },
			{ -0.12446214258670807, 0.06232903152704239, 0.013307706452906132, -0.0433804988861084, 0.03413841873407364, 0.05008649080991745, -0.013652056455612183, 0.009842467494308949, 0.029069550335407257, -0.2283826768398285 },
			{ -0.07540120929479599, -0.052309513092041016, 0.08378645032644272, 0.012132319621741772, -0.14708340167999268, 0.015382686629891396, 0.0040441700257360935, -0.010963104665279388, 0.07949654012918472, 0.13005247712135315 },
			{ 0.08689127117395401, -0.08270574361085892, 0.00881027802824974, 0.11040014028549194, -0.19675712287425995, -0.11554679274559021, -0.002950312802568078, 0.15471147000789642, 0.13648907840251923, -0.0678829550743103 },
			{ 0.12250533699989319, 0.26573413610458374, -0.1458055078983307, -0.1669347733259201, 0.011322679929435253, -0.14282549917697906, 0.10960918664932251, -0.05014530196785927, 0.03852437064051628, -0.09398908168077469 },
			{ 0.07493091374635696, -0.05388842150568962, -0.1271791160106659, -0.33210188150405884, -0.2238702028989792, -0.04345779865980148, 0.08384691178798676, -0.10364604741334915, 0.05313185229897499, 0.1976361870765686 },
			{ 0.062386564910411835, 0.019229397177696228, 0.04825438931584358, 0.01204722560942173, 0.031482432037591934, -0.032073527574539185, -0.13444162905216217, 0.007860049605369568, -0.0624944232404232, -0.02276816964149475 },
			{ 0.075749970972538, 0.14201831817626953, 0.11758755147457123, -0.0803002417087555, -0.008815699256956577, -0.039555106312036514, -0.21886712312698364, 0.035535551607608795, -0.021697411313652992, -0.1830921769142151 },
			{ 0.016273247078061104, -0.05778510123491287, -0.10384917259216309, 0.029986049979925156, -0.10301356017589569, -0.015030940994620323, -0.2937404215335846, 0.11244918406009674, 0.05323796719312668, 0.01128059346228838 },
			{ -0.012971627525985241, -0.14759640395641327, 0.04921218752861023, 0.0019380412995815277, 0.1317899227142334, -0.01962091587483883, -0.04225819185376167, 0.026186814531683922, -0.00862200278788805, -0.08803462982177734 },
			{ -0.2969675362110138, -0.0624486580491066, 0.29982706904411316, -0.09217502921819687, -0.19100360572338104, 0.015595990233123302, 0.10305150598287582, 0.002968047047033906, 0.11925970762968063, -0.1461161971092224 },
			{ -0.1272643506526947, 0.021761372685432434, 0.05521753430366516, -0.06508048623800278, 0.013075546361505985, -0.22177711129188538, -0.005281277932226658, -0.20297539234161377, -0.03328678011894226, -0.053178731352090836 },
			{ 0.11139123886823654, 0.09183790534734726, 0.02364647202193737, -0.1928487867116928, -0.27637776732444763, 0.22188007831573486, 0.008800038136541843, -0.05463208630681038, -0.17448236048221588, -0.050072189420461655 },
			{ 0.04804733023047447, -0.009696346707642078, -0.06421845406293869, -0.20508888363838196, -0.05392042174935341, 0.07961838692426682, 0.014416762627661228, 0.016256656497716904, 0.02579938992857933, 0.05540454015135765 },
			{ 0.1565975695848465, 0.06012367084622383, -0.006531495600938797, -0.007508821319788694, -0.007960810326039791, -0.0469212532043457, 0.04178467392921448, 0.04383138567209244, -0.04171092435717583, 0.002484070835635066 },
			{ -0.1294388622045517, -0.04051139950752258, 0.04211440682411194, -0.036709677428007126, 0.009313988499343395, 0.13142742216587067, 0.012369760312139988, 0.026622962206602097, 0.012959538958966732, -0.013275417499244213 },
			{ 0.03258474916219711, -0.004452535416930914, 0.11821695417165756, -0.032695166766643524, -0.2271762490272522, -0.037607286125421524, 0.17506687343120575, 0.0648304894566536, -0.19629788398742676, -0.04026370495557785 },
			{ -0.08417600393295288, 0.12401372939348221, -0.10315363854169846, -0.03343823179602623, -0.20885835587978363, 0.12040144950151443, 0.045671798288822174, 0.028656747192144394, 0.06954140216112137, -0.12053202837705612 },
			{ -0.004943510051816702, 0.09984880685806274, -0.2366746962070465, -0.33419427275657654, 0.2510814070701599, 0.09674892574548721, -0.0046639773063361645, 0.10358485579490662, 0.07778513431549072, -0.17591075599193573 },
			{ -0.1295221596956253, 0.2424386441707611, 0.12920355796813965, -0.10025031864643097, -0.011789699085056782, -0.20100103318691254, -0.002295705024152994, -0.1440199464559555, 0.035402122884988785, -0.11897903680801392 },
			{ -0.02638661116361618, -0.09279510378837585, 0.007842212915420532, 0.10498746484518051, -0.005675936583429575, -0.16979990899562836, -0.11513052880764008, 0.08508589118719101, -0.01576831564307213, 0.017061876133084297 },
			{ -0.05250392481684685, 0.030312741175293922, -0.11551022529602051, -0.008071589283645153, -0.3032762408256531, 0.19101965427398682, -0.021091414615511894, -0.012008306570351124, -0.04545198380947113, -0.07361327856779099 },
			{ 0.09456075727939606, 0.04250157251954079, -0.0030189899262040854, -0.050678811967372894, -0.006125679239630699, 0.01702144555747509, -0.06980931758880615, 0.059719353914260864, 0.059494175016880035, -0.06865628808736801 },
			{ 0.08391758054494858, -0.0025120247155427933, -0.1329154670238495, -0.07604106515645981, 0.11488145589828491, 0.03592179715633392, -0.022000627592206, 0.1084895208477974, -0.08221995830535889, -0.02844902314245701 },
			{ 0.025226227939128876, -0.02873626910150051, 0.019233450293540955, -0.03257891908288002, 0.013284391723573208, 0.0528796948492527, -0.02967190369963646, 0.034569915384054184, -0.005908637307584286, 0.01613817736506462 },
			{ -0.009360061958432198, -0.07551132887601852, 0.07798415422439575, 0.03708091378211975, -0.010556397028267384, 0.08821597695350647, -0.006853211205452681, 0.012798723764717579, 0.024775179103016853, -0.08710338920354843 },
			{ -0.08698610216379166, -0.08519566804170609, -0.008829536847770214, -0.02435910888016224, -0.4271056652069092, 0.21870124340057373, -0.037531718611717224, 0.08257933706045151, 0.0353294312953949, 0.029632797464728355 },
			{ -0.0061804428696632385, 0.03916672617197037, -0.06218079850077629, -0.023166552186012268, 0.07110445946455002, 0.048762738704681396, -0.07737480849027634, 0.08765953779220581, 0.049991972744464874, -0.03338514268398285 },
			{ -0.007178373169153929, -0.04655542969703674, -0.020217223092913628, 0.04605778679251671, -0.04490033537149429, -0.004254691768437624, -0.13420522212982178, 0.058709677308797836, 0.08627251535654068, 0.11951709538698196 },
			{ 0.07640057057142258, 0.12460125982761383, -0.10296472907066345, -0.2868088185787201, -0.021384049206972122, 0.04216711223125458, 0.18415531516075134, -0.10282167047262192, -0.03362394869327545, -0.02927999384701252 },
			{ -0.1840139925479889, 0.011757924221456051, 0.04598359391093254, 0.02155042067170143, 0.04553989693522453, -0.18004584312438965, 0.11153795570135117, 0.032432641834020615, -0.07994762063026428, 0.04718317091464996 },
			{ -0.17357884347438812, 0.06906700879335403, 0.05849466100335121, 0.07058261334896088, 0.017582319676876068, -0.17116646468639374, 0.08783935010433197, -0.009012890048325062, -0.050419408828020096, 0.006770951673388481 },
			{ -0.011216859333217144, -0.04011178016662598, -0.14897526800632477, 0.03399546071887016, 0.09040621668100357, 0.14072366058826447, -0.030025312677025795, 0.18227548897266388, -0.022503182291984558, -0.12198471277952194 },
			{ 0.06435465067625046, -0.16166386008262634, 0.1077130064368248, -0.11710482090711594, 0.024289339780807495, -0.07027063518762589, -0.06978572905063629, 0.013066389597952366, 0.059564318507909775, -0.01610221527516842 },
			{ 0.02040579728782177, -0.18763452768325806, -0.07188550382852554, -0.24265795946121216, -0.19408904016017914, 0.14454235136508942, 0.12892338633537292, 0.13068480789661407, 0.0007178530795499682, -0.13142628967761993 },
			{ 0.06542320549488068, 0.05165122076869011, 0.10429361462593079, 0.048628345131874084, 0.035291049629449844, -0.04724142327904701, -0.08246732503175735, -0.04603511467576027, -0.08681689947843552, 0.011145154014229774 },
			{ 0.001324074575677514, -0.15339359641075134, -0.0355866476893425, -0.04161112383008003, -0.19339074194431305, -0.0739290714263916, 0.06948217004537582, -0.0012729214504361153, 0.0543607622385025, 0.10204581916332245 },
			{ 0.12925757467746735, -0.04745123162865639, 0.06800929456949234, -0.09662068635225296, -0.06614106893539429, -0.030738873407244682, -0.07547922432422638, -0.02659500204026699, -0.04986272007226944, 0.022677287459373474 },
			{ 0.0007930060965009034, -0.09656626731157303, 0.06214191019535065, -0.010419586673378944, 0.012306466698646545, -0.08223602920770645, -0.00993697065860033, 0.014418600127100945, -0.06179562211036682, 0.07311202585697174 },
			{ 0.14204087853431702, 0.044966328889131546, -0.05773346498608589, -0.1796884387731552, -0.09825433790683746, 0.016228262335062027, 0.16547290980815887, 0.03284100815653801, -0.11875201016664505, -0.018066050484776497 },
			{ -0.1153305172920227, 0.03576727956533432, 0.0405489057302475, -0.010325055569410324, 0.1199347972869873, 0.12001888453960419, 0.046511419117450714, 0.04097038507461548, -0.06806915253400803, -0.0619887113571167 },
			{ 0.043995581567287445, -0.01941717602312565, 0.09093275666236877, 0.06842474639415741, -0.08325784653425217, -0.19338931143283844, -0.13805754482746124, 0.03560273349285126, 0.016925252974033356, 0.01795627735555172 },
			{ -0.06632368266582489, -0.1354164034128189, -0.022952809929847717, -0.053559575229883194, 0.07393433898687363, 0.08169779926538467, -0.1013864204287529, 0.060324035584926605, 0.07204139977693558, 0.012213636189699173 },
			{ 0.12626619637012482, 0.11023733764886856, 0.034627821296453476, -0.008496459573507309, 0.0882243737578392, -0.04377707466483116, -0.07872594147920609, -0.024514446035027504, -0.03229094296693802, -0.045504067093133926 },
			{ 0.04445413500070572, 0.1022016629576683, -0.06400831788778305, -0.03944399207830429, -0.058631669729948044, 0.08371137082576752, 0.03086717240512371, -0.03611532598733902, 0.029978806152939796, 0.05024926736950874 },
			{ 0.09842417389154434, -0.18726582825183868, 0.13864736258983612, 0.11584090441465378, -0.17068183422088623, -0.09222990274429321, 0.10460281372070312, -0.05898323282599449, -0.013204404152929783, -0.04559683799743652 },
			{ -0.12375684827566147, 0.10498179495334625, -0.14980925619602203, -0.039923276752233505, 0.06805083155632019, -0.0646631047129631, 0.13706722855567932, -0.13269221782684326, 0.06374546885490417, -0.1397089660167694 },
			{ -0.06243356317281723, 0.011645320802927017, -0.14264319837093353, -0.2090986967086792, -0.16030356287956238, 0.2575138807296753, 0.021000495180487633, 0.0464344397187233, -0.12896940112113953, -0.03350020572543144 },
			{ -0.0592956468462944, 0.10323379188776016, -0.1289508044719696, 0.06246562674641609, -0.04479987546801567, -0.09660287946462631, 0.12283561378717422, -0.001733987359330058, 0.06827417761087418, -0.07561206817626953 },
			{ 0.010389788076281548, -0.04537207633256912, -0.014184829778969288, -0.026104047894477844, -0.0574013851583004, 0.051051925867795944, 0.025595862418413162, 0.06555433571338654, 0.08100271970033646, -0.025168437510728836 },
			{ -0.09267618507146835, 0.124955914914608, -0.05636969581246376, 0.19855709373950958, 0.15679261088371277, -0.2907891571521759, 0.06478165835142136, -0.02891997992992401, -0.1512841284275055, -0.11915919929742813 },
			{ -0.023994645103812218, 0.054393213242292404, 0.08920595049858093, 0.031160127371549606, 0.16752737760543823, -0.0599106103181839, 0.018494293093681335, -0.03727184981107712, -0.1081940308213234, -0.11010715365409851 },
			{ 0.028870882466435432, -0.07268832623958588, 0.08667084574699402, -0.0021710556466132402, -0.0760444849729538, 0.02810528688132763, -0.03001289628446102, 0.04392023757100105, -0.045052096247673035, 0.06737856566905975 },
			{ -0.08653116226196289, -0.09676450490951538, 0.012489303015172482, 0.0054601747542619705, -0.11822780966758728, 0.03602728620171547, 0.046649958938360214, -0.13112418353557587, 0.05291301757097244, 0.033762164413928986 },
			{ -0.10553769767284393, 0.218118816614151, -0.09294218569993973, -0.18882142007350922, 0.15832725167274475, -0.05609307438135147, -0.0003928857622668147, -0.1495695561170578, -0.10420320928096771, -0.14403551816940308 },
			{ -0.060407720506191254, 0.16876864433288574, -0.40529894828796387, -0.3476279675960541, -0.09062208980321884, 0.21948979794979095, 0.09127924591302872, -0.07696077227592468, 0.07460252195596695, -0.018264517188072205 },
			{ 0.009844806045293808, 0.0711895078420639, -0.09508780390024185, -0.00038677325937896967, -0.019930444657802582, -0.02907014638185501, 0.037596430629491806, 0.053949788212776184, -0.18685980141162872, 0.024655360728502274 },
			{ -0.03555512800812721, -0.035120002925395966, 0.11576052755117416, -0.05113758146762848, 0.12406312674283981, 0.07786635309457779, -0.10028882324695587, -0.05340471863746643, -0.1576121300458908, -0.03809034451842308 },
			{ 0.06074922904372215, -0.10708876699209213, -0.05457818880677223, 0.09274693578481674, -0.05839287117123604, 0.09034987539052963, -0.16241492331027985, -0.0528082549571991, -0.0301834587007761, 0.12299113720655441 },
			{ -0.04197410121560097, -0.04550285264849663, 0.027896130457520485, 0.09238659590482712, 0.004849265795201063, -0.08414171636104584, 0.03681414574384689, -0.01903209276497364, -0.06971737742424011, 0.05302879959344864 },
			{ -0.18464019894599915, -0.026551567018032074, 0.135780468583107, 0.11903847008943558, -0.21375127136707306, -0.09878744184970856, 0.12149673700332642, 0.03607279434800148, -0.07082077860832214, -0.14604610204696655 },
			{ 0.22532986104488373, -0.017372865229845047, -0.15636274218559265, -0.10224492102861404, -0.08915909379720688, -0.01094872411340475, -0.0656648650765419, -0.11484010517597198, 0.06322405487298965, -0.3428049385547638 },
			{ -0.0004229758051224053, -0.049803152680397034, -0.0024696169421076775, -0.11040633171796799, 0.025314761325716972, -0.0072849891148507595, 0.09656183421611786, -0.07558849453926086, -0.0624217763543129, -0.06264059990644455 },
			{ 0.0945216566324234, 0.11530709266662598, -0.0677361786365509, -0.20794925093650818, -0.027939487248659134, -0.04895646497607231, 0.06313566863536835, -0.024914449080824852, 0.07012014836072922, -0.15373827517032623 },
			{ -0.006191881373524666, 0.027789758518338203, 0.026088885962963104, -0.029632581397891045, -0.01054377481341362, -0.04311811551451683, 0.14498357474803925, 0.02408437989652157, 0.06325718015432358, -0.11876602470874786 },
			{ -0.000786050281021744, 0.051728975027799606, -0.08438166230916977, -0.032521672546863556, -0.030807413160800934, -0.008286213502287865, -0.03406072407960892, 0.05929362773895264, 0.040850020945072174, 0.038373176008462906 },
			{ -0.005231979303061962, 0.0638265460729599, 0.06902202218770981, 0.056178610771894455, -0.02329593151807785, -0.04573769122362137, 0.14379310607910156, 0.0181303471326828, -0.08940326422452927, 0.009805911220610142 },
			{ -0.026085257530212402, 0.03928215056657791, -0.14197704195976257, 0.023073505610227585, 0.06052086129784584, 0.17623043060302734, -0.06550991535186768, -0.20571935176849365, -0.011244396679103374, 0.038272835314273834 },
			{ -0.04956415295600891, 0.1370256394147873, -0.19956961274147034, -0.22381386160850525, 0.26848894357681274, 0.02463381364941597, -0.03824423626065254, -0.0013856231234967709, 0.08118567615747452, -0.2862269878387451 },
			{ -0.18743906915187836, 0.035456009209156036, -0.18146058917045593, -0.053546804934740067, 0.04587336257100105, 0.13654135167598724, 0.04453512281179428, 0.21851395070552826, -0.1739596426486969, -0.19398075342178345 },
			{ 0.11780302971601486, -0.11422808468341827, 0.004147352650761604, 0.08752873539924622, -0.09358294308185577, -0.13336583971977234, 0.03713259473443031, -0.07164711505174637, -0.08399895578622818, 0.12311632186174393 },
			{ -0.05998847633600235, -0.03295281156897545, -0.19907356798648834, -0.01416799332946539, -0.061053868383169174, 0.17137207090854645, 0.08849525451660156, 0.038268644362688065, -0.040371157228946686, 0.036295365542173386 },
			{ -0.04130813479423523, -0.1143212616443634, -0.13588376343250275, -0.10573989152908325, 0.05274200066924095, -0.01998685672879219, 0.011811628937721252, -0.10178439319133759, 0.13513238728046417, -0.09877306967973709 },
			{ 0.07425827533006668, -0.034865137189626694, -0.059336673468351364, -0.07623749226331711, 0.035410381853580475, 0.02739640139043331, 0.06106814742088318, 0.03379794955253601, 0.021491948515176773, -0.12740783393383026 },
			{ -0.03827158734202385, -0.09304023534059525, -0.015772391110658646, -0.0807567611336708, 0.13585643470287323, 0.029143502935767174, 0.009732035920023918, 0.01745879277586937, 0.11201193928718567, -0.05241137742996216 },
			{ 0.0005825903499498963, 0.02099403366446495, -0.13323067128658295, -0.07830016314983368, -0.1196877732872963, 0.1073785275220871, 0.10689467191696167, 0.021871821954846382, 0.03223823383450508, -0.13726495206356049 },
			{ -0.04754897579550743, -0.09268658608198166, -0.22381475567817688, -0.2954876720905304, -0.06266067922115326, 0.1882157027721405, 0.06344373524188995, 0.006942917127162218, 0.05453573539853096, -0.05179295688867569 },
			{ -0.000806310388725251, 0.03373010456562042, 0.0014169756323099136, 0.00379114574752748, -0.1503254473209381, 0.02730073593556881, 0.007041389122605324, 2.5068438844755292e-05, 0.13334636390209198, -0.032630063593387604 },
			{ 0.11421292275190353, -0.10897287726402283, -0.027235224843025208, 0.012649273499846458, 0.017406199127435684, 0.07669391483068466, -0.031441353261470795, -0.041091252118349075, 0.0753214880824089, 0.06971940398216248 },
			{ -0.13394863903522491, 0.0660361796617508, -0.09029647707939148, -0.44421130418777466, 0.1337169110774994, 0.06474922597408295, 0.2234959900379181, 0.013879264704883099, -0.10102944821119308, -0.24788281321525574 },
			{ -0.017411168664693832, -0.048862311989068985, 0.09815821051597595, -0.10540731251239777, 0.08042758703231812, -0.18371225893497467, 0.049251995980739594, -0.05686352401971817, 0.05537109822034836, 0.016953377053141594 },
			{ -0.10935453325510025, 0.060767244547605515, 0.02874426729977131, 0.09452911466360092, -0.017864707857370377, -0.16348768770694733, 0.09229763597249985, -0.01062405202537775, -0.0204862579703331, -0.12729135155677795 },
			{ 0.09840462356805801, -0.015876077115535736, 0.0609772764146328, -0.13439837098121643, 0.06241169944405556, 0.14563623070716858, -0.13228309154510498, -0.005858313757926226, 0.021874891594052315, -0.023628275841474533 },
			{ 0.23890972137451172, -0.047963522374629974, -0.061430249363183975, -0.04293740168213844, -0.09757953137159348, -0.09529116004705429, 0.009202847257256508, -0.1223072037100792, 0.014254794456064701, 0.01182344276458025 },
			{ -0.0770692303776741, -0.011994514614343643, -0.14437472820281982, -0.17065148055553436, -0.11031033843755722, 0.020242156460881233, 0.32975056767463684, 0.19575908780097961, -0.05706009268760681, -0.40693262219429016 },
			{ 0.10797712206840515, 0.055684659630060196, 0.026758432388305664, -0.030616842210292816, -0.01558024249970913, -0.1508917659521103, -0.06009068340063095, 0.04338666424155235, 0.05005137622356415, -0.009246204048395157 },
			{ -0.013556073419749737, -0.18022704124450684, -0.033056579530239105, 0.06940177083015442, -0.04566718637943268, -0.03607778996229172, 0.04488804191350937, -0.07641882449388504, -0.008077473379671574, 0.05792269855737686 },
			{ 0.06220509856939316, 0.043828438967466354, -0.05093562602996826, -0.02155793271958828, -0.074009470641613, 0.022428561002016068, 0.10653386265039444, -0.002719777636229992, 0.1497974991798401, -0.013233453035354614 },
			{ 0.04363538697361946, -0.07269337773323059, 0.014116421341896057, 0.12421906739473343, -0.031974826008081436, -0.08591891080141068, 0.034968599677085876, -0.05060227960348129, 0.12429223954677582, -0.010646853595972061 },
			{ -0.0010286045726388693, -0.09007848799228668, 0.0170447900891304, -0.18046489357948303, -0.03862485662102699, 0.1394415944814682, 0.106294184923172, 0.10526515543460846, 0.03798596188426018, -0.2654710114002228 },
			{ 0.021742500364780426, 0.042074233293533325, 0.023408813402056694, -0.02840680070221424, 0.09605281800031662, -0.07109254598617554, 0.009785555303096771, 0.07366669178009033, 0.050088830292224884, -0.08334140479564667 },
			{ 0.08687758445739746, 0.0139975780621171, -0.048199888318777084, 0.03651531785726547, -0.08845961838960648, -0.08466564863920212, -0.023864638060331345, -0.01017778366804123, 0.019444964826107025, 0.02259991690516472 },
			{ 0.022701673209667206, 0.02293720655143261, 0.03252348676323891, -0.09920092672109604, -0.04930656775832176, 0.05503557249903679, 0.07019081711769104, 0.035069797188043594, -0.11453518271446228, 0.02893633022904396 },
			{ 0.003182952292263508, 0.06250426173210144, 0.06118680164217949, 0.01216901931911707, -0.003668027464300394, -0.09597759693861008, 0.01459911186248064, -0.137456014752388, 0.1315697431564331, -0.05195697769522667 },
			{ 0.011164495721459389, 0.03746538609266281, -0.0755186527967453, 0.11593414098024368, 0.013353148475289345, 0.033055733889341354, -0.07615352421998978, 0.029655814170837402, -0.07441242784261703, 0.029337557032704353 },
			{ 0.05562993884086609, -0.06749999523162842, 0.05006507411599159, 0.02089114300906658, -0.12005284428596497, -0.11751431971788406, 0.1298006922006607, -0.08871046453714371, 0.0034947467502206564, 0.12547513842582703 },
			{ -0.22699575126171112, 0.17783528566360474, -0.1668485701084137, 0.09938959032297134, 0.08919522911310196, -0.06373003125190735, 0.16985660791397095, 0.08442217856645584, 0.02272731438279152, -0.1671283096075058 },
			{ -0.11075437068939209, -0.006854378618299961, 0.0005461619584821165, -0.05506029352545738, -0.06497931480407715, 0.06416379660367966, 0.047940582036972046, 0.09530273824930191, 0.026393895968794823, -0.10346993058919907 },
			{ 0.167413592338562, -0.07262472063302994, 0.11948560178279877, 0.010270848870277405, 0.01883130520582199, -0.04227682948112488, -0.06035817414522171, -0.054642170667648315, 0.07895844429731369, -0.05603239685297012 },
			{ -0.05017225071787834, -0.07114071398973465, -0.07178881019353867, 0.07213850319385529, -0.009592778980731964, -0.01856847293674946, -0.029814008623361588, 0.004396084230393171, 0.01903151534497738, -0.028684159740805626 },
			{ -0.1312001496553421, -0.0655621662735939, -0.0029284905176609755, 0.07963888347148895, -0.0407654345035553, -0.0861276388168335, -0.09218652546405792, 0.00019824510673061013, -0.052282702177762985, 0.028478281572461128 },
			{ 0.11001402139663696, 0.12074106931686401, 0.031811460852622986, 0.018743203952908516, 0.07490447908639908, 0.0007417779415845871, -0.017348753288388252, -0.20128333568572998, 0.037393491715192795, -0.20803068578243256 },
			{ 0.04298781976103783, 0.02869606763124466, -0.03871811926364899, 0.020818857476115227, -0.0674513652920723, 0.037478625774383545, -0.0746699720621109, 0.008272555656731129, 0.06447084248065948, 0.01267020870000124 },
			{ -0.03642825782299042, -0.0070502981543540955, -0.08736849576234818, 0.0220294538885355, -0.09823956340551376, 0.07342372834682465, 0.07569769024848938, 0.035685885697603226, -0.08847884088754654, 0.0968668982386589 },
			{ -0.015174565836787224, 0.14164318144321442, 0.05348970368504524, -0.11867456138134003, -0.02846147119998932, -0.043981149792671204, 0.11011690646409988, 0.02105575241148472, -0.03321673348546028, -0.06813528388738632 },
			{ -0.2528202533721924, 0.026669783517718315, -0.2898080348968506, -0.10388030111789703, -0.03631281480193138, 0.14273285865783691, 0.1862984597682953, 0.20049647986888885, 0.05581766739487648, -0.19344505667686462 },
			{ 0.100632444024086, 0.05460295453667641, -0.008389188908040524, -0.11129842698574066, 0.15142707526683807, 0.1369975209236145, -0.0338142029941082, -0.022063355892896652, -0.05416014418005943, -0.05407333746552467 },
			{ -0.09098855406045914, 0.08959565311670303, -0.0895330011844635, -0.0980684906244278, -0.09468456357717514, 0.18681220710277557, 0.011740838177502155, -0.013633398339152336, -0.2163064032793045, 0.059417977929115295 },
			{ 0.007627483922988176, -0.027190841734409332, -0.10353241115808487, 0.09798630326986313, 0.02317669801414013, 0.034452639520168304, 0.06676402688026428, 0.10469873249530792, 0.023849502205848694, 0.04504209756851196 },
			{ -0.058144863694906235, -0.01616520620882511, -0.059167150408029556, 0.05641378089785576, -0.0024872180074453354, -0.012222448363900185, -0.023784128949046135, 0.01565432734787464, 0.06234496831893921, 0.04023567959666252 },
			{ -0.1746089905500412, -0.05136825144290924, 0.12250909209251404, 0.054687466472387314, -0.11720787733793259, -0.10763494670391083, -0.1583467274904251, 0.05094195902347565, -0.01760171726346016, 0.03012332133948803 },
			{ 0.07419519126415253, -0.24840635061264038, -0.06622909009456635, -0.05838596820831299, -0.0759926438331604, -0.040959276258945465, 0.04093766212463379, 0.022239672020077705, 0.14154581725597382, -0.043794065713882446 },
			{ -0.22796215116977692, 0.01075683906674385, -0.08006691187620163, -0.09825804829597473, 0.10922369360923767, -0.03533507138490677, -0.3114660084247589, -0.025980046018958092, 0.20565973222255707, 0.17241989076137543 },
			{ -0.06074754148721695, 0.07786910980939865, -0.023145785555243492, -0.048028614372015, -0.018909888342022896, -0.15124836564064026, 0.03193268924951553, 0.09036669135093689, -0.016540924087166786, -0.01633177138864994 },
			{ -0.03910871222615242, -0.13306748867034912, -0.01727995276451111, 0.03021327778697014, -0.16238336265087128, -0.04098130017518997, -0.14948076009750366, -0.06056289002299309, 0.1014365553855896, 0.09417325258255005 },
			{ 0.08404504507780075, -0.1071392148733139, 0.1327829360961914, -0.11125616729259491, -0.14371730387210846, -0.02050456590950489, 0.03636873885989189, -0.1131989136338234, 0.04481927677989006, -0.029691655188798904 },
			{ -0.1702331006526947, -0.05284513905644417, 0.1390296220779419, -0.1115633025765419, -0.16666999459266663, 0.01678866147994995, -0.21714068949222565, -0.02321072854101658, 0.06418643891811371, -0.0032754112035036087 },
			{ -0.21191716194152832, 0.10235017538070679, 0.019345978274941444, 0.10180645436048508, -0.116104856133461, -0.08666640520095825, -0.01318564172834158, 0.11377513408660889, -0.141384094953537, -0.03638315945863724 },
			{ 0.03684093803167343, -0.11479578912258148, -0.03164469450712204, -0.05736873671412468, -0.0997832641005516, -0.08792117238044739, 0.00809337105602026, -0.06901413947343826, 0.19420047104358673, 0.05541239678859711 },
			{ 0.07967208325862885, 0.0021854888182133436, -0.08251005411148071, -0.09081064164638519, 0.05057048425078392, 0.09980440884828568, 0.10057085752487183, -0.013008395209908485, -0.03038010746240616, 0.08827139437198639 },
			{ -0.027647417038679123, 0.006502747535705566, -0.02391708455979824, -0.02359636500477791, -0.03350114822387695, 0.08106688410043716, -0.025455810129642487, 0.03318516165018082, 0.04664911702275276, 0.010609508492052555 },
			{ -0.22844623029232025, 0.05489685758948326, 0.07794903218746185, 0.025340508669614792, -0.14599701762199402, -0.08041370660066605, -0.18155832588672638, 0.2665119171142578, -0.06950876116752625, -0.08937916159629822 },
			{ 0.01800624653697014, 0.06505357474088669, -0.08547914028167725, -0.17873643338680267, -0.0022817221470177174, 0.005408753175288439, 0.08341910690069199, -0.04204149171710014, -0.04553133249282837, -0.012970499694347382 },
			{ 0.0602826364338398, -0.102144755423069, 0.04460505023598671, -0.010285099036991596, 0.08512227237224579, -0.004093657247722149, 0.025881731882691383, 0.023220185190439224, -0.10361859947443008, -0.03232894837856293 },
			{ 0.040441423654556274, 0.005491082090884447, -0.00951405894011259, -0.04400049149990082, 0.07663673162460327, -0.008303261362016201, -0.05479980260133743, -0.03774711489677429, 0.0338134728372097, 0.029530614614486694 },
			{ -0.21059027314186096, 0.006234985776245594, 0.11361481994390488, -0.041535161435604095, -0.23750963807106018, 0.09831736236810684, -0.05471864715218544, 0.006998711731284857, 0.10700942575931549, -0.19534525275230408 },
			{ -0.11481443047523499, -0.05976388603448868, 0.07471083849668503, 0.16331380605697632, -0.2403324991464615, -0.08775046467781067, -0.18770737946033478, 0.11685425788164139, -0.0829099714756012, -0.11049455404281616 },
			{ -0.09538312256336212, -0.03712795674800873, 0.13201521337032318, -0.04342908784747124, -0.048824556171894073, -0.0648118108510971, -0.06835330277681351, 0.10255392640829086, 0.02203875035047531, 0.11847502738237381 },
			{ 0.06380501389503479, -0.037735044956207275, 0.048380184918642044, -0.05544610694050789, 0.002382204169407487, -0.07323680073022842, -0.042209889739751816, 0.03194473311305046, 0.021807687357068062, -0.1593315601348877 },
			{ 0.008125759661197662, 0.012941481545567513, 0.12953075766563416, 0.12086763978004456, 0.08980163186788559, -0.1017477735877037, -0.06331067532300949, -0.10645443201065063, 0.04467029497027397, -0.0368349552154541 },
			{ -0.03694326803088188, 0.1463850885629654, -0.10155785828828812, -0.15916140377521515, -0.06090006232261658, -0.08493147045373917, 0.1287374347448349, 0.11105287075042725, 0.010654482990503311, -0.04170360416173935 },
			{ 0.10173485428094864, 0.14849542081356049, -0.07232723385095596, 0.11899322271347046, -0.03265439346432686, -0.15168148279190063, 0.020914848893880844, 0.15328557789325714, 0.0216940026730299, 0.031205490231513977 },
			{ -0.0064122555777430534, -0.007990528829395771, 0.05797561630606651, -0.07300771027803421, 0.16557568311691284, -0.10123012214899063, 0.0731922835111618, -0.17301927506923676, 0.035275086760520935, 0.0640244409441948 },
			{ -0.07978811115026474, -0.07833055406808853, 0.05665472149848938, 0.1147744432091713, 0.04513309895992279, -0.20382258296012878, 0.056016888469457626, 0.016025064513087273, -0.06239405646920204, 0.0638124942779541 },
			{ -0.01845734566450119, 0.004732138477265835, 0.019589310511946678, 0.060711637139320374, -0.0035630259662866592, -0.0153405936434865, -0.22174333035945892, 0.12020320445299149, -0.049917373806238174, -0.16770875453948975 },
			{ -0.07017983496189117, -0.026703357696533203, 0.016599951311945915, 0.09131258726119995, 0.07111483067274094, -0.18426117300987244, 0.008219094015657902, 0.04901504889130592, -0.019907670095562935, 0.0024732816964387894 },
			{ -0.0206485316157341, 0.11388204991817474, -0.0477922260761261, 0.000555324659217149, 0.0741114690899849, -0.001314446795731783, -0.03568968549370766, -0.017874302342534065, -0.00991421565413475, 0.012277358211576939 },
			{ -0.16846850514411926, -0.04573885723948479, 0.09267032891511917, 0.054521650075912476, 0.05948669835925102, -0.10728588700294495, -0.24752604961395264, 0.0017740509938448668, -0.02164006046950817, -0.09492900222539902 },
			{ 0.05739745870232582, -0.01196208968758583, 0.017146416008472443, -0.22461357712745667, -0.04898430407047272, 0.007175000850111246, 0.11460883915424347, 0.09502995014190674, 0.07509466260671616, 0.08423984795808792 },
			{ -0.01315779983997345, -0.2210560441017151, 0.10856309533119202, 0.04437163099646568, 0.06086127832531929, -0.2408549040555954, 0.07109086960554123, 0.14248424768447876, -0.09711950272321701, -0.15200287103652954 },
			{ -0.08833107352256775, 0.06817767769098282, 0.14418335258960724, -0.10806283354759216, 0.04963311925530434, -0.22571565210819244, 0.004478837363421917, -0.12638776004314423, -0.2172928750514984, -0.02548160031437874 },
			{ -0.020674731582403183, -0.26300814747810364, -0.2945716381072998, -0.1291642040014267, 0.1622910052537918, 0.10459189116954803, -0.12501437962055206, 0.13839265704154968, 0.0886169970035553, -0.2955811023712158 },
			{ -0.10834511369466782, -0.099826380610466, 0.02092830464243889, -0.03327884152531624, 0.014142942614853382, 0.08559989929199219, 0.1994239091873169, 0.0011813509045168757, -0.05250949412584305, -0.0503544956445694 },
			{ 0.017160719260573387, -0.18033283948898315, -0.232121080160141, -0.13183525204658508, -0.06831546127796173, 0.17424166202545166, -0.08003547042608261, 0.10936547070741653, 0.06483302265405655, -0.005330229178071022 },
			{ -0.04236352816224098, -0.04496484249830246, 0.07380515336990356, 0.06565026193857193, -0.017725728452205658, -0.09095066785812378, 0.017391100525856018, 0.04510192945599556, 0.053596630692481995, -0.014610683545470238 },
			{ 0.08687338978052139, -0.04148285090923309, 0.09951040148735046, -0.18553249537944794, -0.04376024007797241, -0.18527750670909882, 0.050321709364652634, 0.10933557152748108, 0.1202862486243248, -0.18046942353248596 },
			{ -0.030011149123311043, -0.11851987987756729, -0.02281925268471241, 0.020073754712939262, -0.14166873693466187, -0.07502435892820358, 0.1492360532283783, 0.04918833076953888, -0.020748363807797432, 0.04047990217804909 },
			{ -0.09211041778326035, -0.06743022799491882, 0.053785622119903564, 0.10022580623626709, -0.06389123201370239, -0.2609124779701233, -0.19591841101646423, 0.024061907082796097, 0.055026642978191376, -0.10530808568000793 },
			{ -0.12000681459903717, -0.08914650976657867, 0.10003460198640823, -0.027371684089303017, -0.15506453812122345, -0.014620204456150532, -0.2603207528591156, 0.021604586392641068, 0.13167503476142883, -0.049204956740140915 },
			{ 0.015285199508070946, 0.08726828545331955, -0.07557106763124466, -0.00412198668345809, -0.045188259333372116, -0.0008536186651326716, 0.051774896681308746, -0.02862955816090107, -0.06061381846666336, 0.014302428811788559 },
			{ -0.07336810976266861, -0.2242962270975113, 0.0726575255393982, -0.13999083638191223, -0.06235823780298233, 0.0856781005859375, 0.016647620126605034, -0.04647102952003479, 0.07307417690753937, 0.12887412309646606 },
			{ 0.08504825085401535, -0.11530797183513641, -0.1720675528049469, -0.1907876878976822, -0.03398333862423897, 0.10585341602563858, 0.03573485091328621, 0.055256254971027374, -0.012463419698178768, 0.0973416268825531 },
			{ -0.06657902896404266, -0.07752814888954163, 0.07152285426855087, -0.02303139865398407, -0.06670589745044708, -0.06231933832168579, 8.675466960994527e-05, 0.030517451465129852, 0.06017553433775902, 0.06884152442216873 },
			{ -0.10186406224966049, 0.0008834355976432562, 0.13967810571193695, 0.1374357044696808, -0.10611080378293991, -0.08983290940523148, -0.05360782518982887, -0.034635357558727264, -0.035022880882024765, 0.040496163070201874 },
			{ -0.14343789219856262, -0.06918835639953613, -0.04986368119716644, 0.18428808450698853, 0.1198955699801445, -0.20321333408355713, 0.059288907796144485, 0.017364827916026115, -0.25859344005584717, -0.061103008687496185 },
			{ 0.11637409031391144, -0.10120941698551178, 0.03858969733119011, -0.025309892371296883, -0.09419577568769455, -0.018346644937992096, 0.05821884050965309, -0.1933288723230362, 0.04195735976099968, 0.14309066534042358 },
			{ -0.014768710359930992, -0.03766855597496033, 0.043122947216033936, 0.08859152346849442, 0.039937082678079605, 0.048821184784173965, -0.055463604629039764, -0.03907792642712593, -0.09127285331487656, -0.007679617498070002 },
			{ 0.026027029380202293, -0.03957834094762802, -0.11148775368928909, -0.029557067900896072, -0.08914940804243088, 0.05637900158762932, -0.0009977960726246238, -0.031989503651857376, -0.014178341254591942, 0.02940339595079422 },
			{ -0.13755331933498383, -0.025635048747062683, 0.09082776308059692, 0.13205495476722717, -0.2537253201007843, -0.04675696790218353, -0.09687430411577225, 0.15057224035263062, -0.006716230418533087, -0.05919229984283447 },
			{ -0.058447565883398056, 0.21970917284488678, 0.11685449630022049, 0.026568572968244553, -0.09049202501773834, 0.0260749664157629, 0.03254837542772293, 0.18395191431045532, -0.12429164350032806, -0.3349066376686096 },
			{ -0.05802552402019501, -0.06554082781076431, 0.09594172984361649, -0.04684695973992348, 0.1892494112253189, 0.06634891033172607, -0.17976835370063782, 0.1265653669834137, -0.03512432426214218, -0.23105978965759277 },
			{ 0.04779297113418579, 0.00678227748721838, -0.1326082944869995, -0.03786858916282654, -0.02144639380276203, 0.12549884617328644, 0.016262393444776535, 0.08133376389741898, -0.031951628625392914, -0.06987251341342926 },
			{ -0.12224847078323364, -0.10458962619304657, -0.12887626886367798, -0.05300138518214226, 0.07933742552995682, 0.005170168820768595, -0.3365296721458435, -0.060338154435157776, 0.11197488754987717, 0.18176010251045227 },
			{ -0.021498901769518852, -0.11676312237977982, -0.0504864938557148, 0.01940605230629444, -0.1129719540476799, 0.08919467777013779, -0.10573066771030426, 0.1242469921708107, -0.008131837472319603, 0.09377561509609222 },
			{ 0.004676676820963621, -0.19881944358348846, 0.045321524143218994, -0.026545224711298943, -0.051521990448236465, -0.049334485083818436, 0.0016923480434343219, 0.004822876770049334, 0.11398130655288696, 0.021179096773266792 },
			{ 0.08385533839464188, 0.09180962294340134, -0.031672362238168716, -0.013164296746253967, -0.04760386422276497, 0.03785007819533348, -0.03621095418930054, -0.113895483314991, 0.07760918140411377, 0.07425309717655182 },
			{ -0.32565122842788696, -0.13013556599617004, 0.24823930859565735, 0.03570052981376648, -0.08438371866941452, 0.04005017504096031, -0.17249366641044617, -0.11214537918567657, -0.003203614382073283, -0.28848186135292053 },
			{ 0.025643547996878624, 0.03152452036738396, 0.09656316787004471, 0.019254425540566444, -0.018211107701063156, 0.09108837693929672, -0.00621764687821269, 0.03951411321759224, -0.08788038045167923, -0.11560112982988358 },
			{ 0.12090552598237991, -0.06467507779598236, -0.026434291154146194, 0.009936913847923279, 0.010323703289031982, -0.01623615249991417, -0.0211988165974617, 0.030071165412664413, 0.09971696138381958, -0.02572263777256012 },
			{ 0.048391569405794144, 0.03483714908361435, -0.04413985833525658, -0.12091784924268723, 0.0580865740776062, 0.13170909881591797, -0.030726419761776924, -0.08073902130126953, -0.09331698715686798, 0.04076313227415085 },
			{ 0.14392773807048798, -0.016094759106636047, -0.055073875933885574, -0.12650051712989807, -0.14576415717601776, 0.0762421265244484, -0.0630761906504631, 0.12731420993804932, 0.03928413987159729, -0.03419925272464752 },
			{ -0.0380961112678051, 0.10026035457849503, 0.09312690794467926, -0.11938402056694031, 0.04084230214357376, 0.013920214027166367, -0.03675299882888794, 0.05951973795890808, -0.1400628536939621, -0.08674599975347519 },
			{ -0.06086215749382973, 0.02007027342915535, 0.055245291441679, -0.283873051404953, 0.03704645484685898, 0.060891829431056976, 0.16002704203128815, 0.004790641367435455, -0.005277255084365606, 0.10424204170703888 },
			{ -0.03850594907999039, 0.07182372361421585, 0.01351496297866106, -0.19076883792877197, 0.14785437285900116, -0.06585069000720978, 0.0672738254070282, -0.03735216706991196, -0.0070742350071668625, -0.07085201889276505 },
			{ -0.018507402390241623, 0.0175130944699049, -0.03571147471666336, -0.05917973071336746, 0.015172463841736317, -0.0023712916299700737, 0.02822302281856537, -0.030668988823890686, 0.013073045760393143, 0.050726935267448425 },
			{ -0.09988488256931305, -0.005831199232488871, 0.06944139301776886, 0.09403744339942932, -0.11632438749074936, 0.015686124563217163, -0.10855807363986969, 0.1332438886165619, 0.02005491964519024, -0.057384345680475235 },
			{ 0.008176651783287525, 0.041154876351356506, 0.08665437251329422, 0.021877795457839966, -0.15292209386825562, -0.04807725548744202, -0.006819064728915691, 0.07655459642410278, -0.08623660355806351, 0.033521946519613266 },
			{ 0.08831866085529327, -0.041706401854753494, 0.047194916754961014, 0.055834535509347916, 0.2083272933959961, 0.015224470756947994, 0.008375189267098904, -0.11027718335390091, -0.05703692138195038, -0.1040148064494133 },
			{ 0.018901420757174492, -0.043365366756916046, 0.0024737073108553886, -0.1172613576054573, -0.008596410043537617, 0.024161312729120255, -0.11537279188632965, 0.08775243163108826, 0.028694041073322296, -0.004121095407754183 },
			{ 0.03501266613602638, -0.03585713729262352, -0.0019193345215171576, 0.1267065703868866, 0.013436650857329369, -0.06068512424826622, 0.0030010624323040247, -0.10500650852918625, -0.05842064693570137, -0.06579425185918808 },
			{ 0.05995500087738037, 0.031808990985155106, -0.11882225424051285, -0.16293449699878693, 0.07577834278345108, 0.12628863751888275, 0.07548858970403671, -0.0165252648293972, -0.10362851619720459, 0.007690615952014923 },
			{ 0.12549862265586853, 0.06663642078638077, -0.09387011080980301, 0.05802870914340019, 0.10556929558515549, -0.041154827922582626, -0.13151946663856506, 0.04406217858195305, -0.06361110508441925, -0.0821920707821846 },
			{ -0.037178635597229004, 0.024882590398192406, 0.004685192368924618, -0.1496667116880417, 0.15890730917453766, -0.04405063018202782, 0.020335720852017403, -0.04163104295730591, 0.09275642037391663, -0.11781419068574905 },
			{ -0.08616285026073456, -0.08213993906974792, -0.07137320190668106, 0.11480876803398132, 0.04935814067721367, -0.045242924243211746, -0.0596446730196476, 0.0588340163230896, 0.1491459608078003, 0.0028610005974769592 },
			{ -0.28673049807548523, 0.05329092592000961, 0.1134348213672638, -0.01355711929500103, -0.24770580232143402, 0.03249398246407509, -0.2720963656902313, 0.05815746635198593, 0.02583257108926773, 0.01587143912911415 },
			{ -0.025501133874058723, 0.08952309936285019, 0.059807565063238144, -0.06226329505443573, -0.06754016876220703, -0.16822677850723267, 0.11079367995262146, 0.07009235769510269, -0.06254682689905167, 0.040848713368177414 },
			{ -0.050550106912851334, 0.0031988536939024925, 0.015214637853205204, -0.1775401532649994, 0.09145815670490265, -0.11106003820896149, -0.012159525416791439, -0.029164867475628853, 0.02535201981663704, 0.09335552155971527 },
			{ -0.02367105521261692, 0.047791797667741776, 0.08956728875637054, -0.19082865118980408, 0.1342117190361023, -0.11632668972015381, 0.058245085179805756, -0.009965348988771439, -0.0179350133985281, -0.18036572635173798 },
			{ -0.07859133929014206, 0.15433192253112793, -0.05113857984542847, -0.09715431928634644, 0.0933849960565567, 0.12710866332054138, 0.031864557415246964, -0.014415813609957695, -0.08046772330999374, -0.2397298365831375 },
			{ 0.06691937148571014, 0.0299240592867136, 0.043010953813791275, -0.01512292679399252, 0.06765798479318619, -0.15894173085689545, -0.05609407648444176, 0.04968370869755745, -0.015888651832938194, -0.06834767758846283 },
			{ -0.04082260653376579, 0.1397111415863037, -0.003054708009585738, -0.1081143170595169, -0.07155520468950272, -0.14153972268104553, 0.008252465166151524, -0.06680533289909363, 0.2235575020313263, 0.011503826826810837 },
			{ 0.03550698608160019, -0.029550164937973022, 0.1770678609609604, -0.10330601036548615, -0.09148909151554108, -0.16888964176177979, -0.3218580186367035, 0.11896531283855438, -0.0069420114159584045, -0.1533219814300537 },
			{ -0.015485405921936035, -0.010028236545622349, 0.05285235494375229, 0.0816606655716896, -0.03379896283149719, -0.02619333565235138, -0.02603084035217762, -0.03175203129649162, -0.11370963603258133, 0.04768268018960953 },
			{ 0.014676040969789028, -0.06988232582807541, -0.14815278351306915, -0.1913997083902359, -0.03208990395069122, -0.025996632874011993, -0.15033437311649323, -0.02049867808818817, 0.10091359913349152, 0.14033843576908112 },
			{ 0.018826857209205627, -0.06764543801546097, 0.018235869705677032, 0.008378862403333187, -0.002116883872076869, -0.061523351818323135, -0.046119529753923416, -0.018310273066163063, -0.0352150984108448, -0.05994439125061035 },
			{ 0.053820401430130005, 0.0738653838634491, 0.07487916201353073, -0.14198638498783112, -0.04480385407805443, 0.06827382743358612, 0.009424161165952682, -0.09041453897953033, -0.05554196611046791, -0.1841554343700409 },
			{ -0.06764283776283264, 0.03353859484195709, -0.07905396819114685, -0.11419852077960968, 0.0237460657954216, 0.0587092787027359, 0.02936604432761669, -0.06616899371147156, -0.046130284667015076, 0.09811852127313614 },
			{ -0.12739846110343933, -0.06485660374164581, 0.18377237021923065, -0.10501111298799515, -0.1997331827878952, -0.016100356355309486, -0.04232984781265259, 0.1066964641213417, -0.21751488745212555, -0.025455361232161522 },
			{ -0.1918230503797531, 0.10625548660755157, 0.03049253486096859, 0.043809518218040466, -0.09826318174600601, -0.1428677886724472, -0.23581379652023315, 0.0324055440723896, 0.004666236229240894, -0.00481607299298048 },
			{ -0.03783474862575531, 0.056964218616485596, -0.03038569539785385, 0.030136840417981148, 0.051678549498319626, -0.05657969415187836, -0.06498241424560547, -0.06383725255727768, -0.022356243804097176, -0.012805690057575703 },
			{ -0.10511196404695511, 0.05044425278902054, -0.1733497828245163, -0.1947183758020401, 0.0925397053360939, 0.08986623585224152, 0.06923022866249084, -0.4251440465450287, 0.09930118918418884, -0.13799095153808594 },
			{ 0.07856541126966476, -0.13730919361114502, -0.03645622357726097, -0.12701667845249176, -0.07952040433883667, 0.03572964295744896, -0.012803486548364162, 0.08952309936285019, 0.02103019878268242, 0.012513246387243271 },
			{ -0.019198348745703697, 0.04206645488739014, -0.04823504015803337, 0.020771309733390808, 0.13057465851306915, -0.09823696315288544, -0.06673320382833481, 0.1987454742193222, 0.11405640095472336, -0.111716628074646 },
			{ -0.11386054754257202, 0.10055090487003326, 0.0202675461769104, 0.05456065014004707, 0.13505953550338745, -0.08609066158533096, -0.0670236349105835, -0.11320281773805618, -0.01619178242981434, -0.13365213572978973 },
			{ -0.06319175660610199, -0.0754886120557785, -0.039877429604530334, 0.03023257479071617, 0.1514088660478592, -0.13188901543617249, -0.06434361636638641, 0.17091050744056702, -0.02510657161474228, -0.15921594202518463 },
			{ 0.04061298817396164, -0.006208299193531275, 0.11155544221401215, -0.10411587357521057, -0.10512446612119675, 0.030864067375659943, 0.12432500720024109, -0.08984334021806717, -0.1265648901462555, 0.03440144658088684 },
			{ -0.0053529259748756886, -0.000812675105407834, 0.06133607029914856, -0.03873392567038536, 0.05233253911137581, 0.006512055639177561, 0.09756673872470856, -0.01872311159968376, -0.08858536928892136, 0.011555707082152367 },
			{ -0.018285637721419334, 0.17296595871448517, -0.050675615668296814, 0.030704816803336143, -0.010249866172671318, 0.04219367727637291, -0.04343831166625023, -0.01545885019004345, 0.010265983641147614, -0.06459340453147888 },
			{ -0.10952045023441315, -0.08270253986120224, 0.1766451597213745, 0.049482688307762146, -0.052464600652456284, -0.0867445319890976, -0.1305919587612152, 0.09653707593679428, -0.15818174183368683, -0.08894624561071396 },
			{ -0.06042562052607536, -0.07080961018800735, 0.19372256100177765, -0.0720573216676712, 0.09376108646392822, -0.06185975670814514, -0.04191896691918373, -0.008924233727157116, 0.024966683238744736, -0.24955853819847107 },
			{ 0.10604455322027206, 0.11552897095680237, 0.0990397036075592, -0.044859789311885834, 0.02432944066822529, 0.06478852778673172, -0.23965984582901, -0.06406835466623306, 0.012313717044889927, -0.07096920162439346 },
			{ -0.0073979701846838, 0.1094694435596466, 0.02123384177684784, 0.027979325503110886, -0.2734490931034088, -0.07207302004098892, -0.26654553413391113, 0.08141812682151794, -0.10171966999769211, -0.033114004880189896 },
			{ 0.14679354429244995, -0.014267093501985073, -0.05408104881644249, 0.1450541913509369, -0.11823679506778717, 0.04023921489715576, -0.30805516242980957, -9.206986578647047e-05, -0.041619908064603806, -0.003985769115388393 },
			{ 0.01225375011563301, -0.09941146522760391, 0.10796564072370529, 0.022724810987710953, -0.19677694141864777, 0.09794869273900986, -0.04613042250275612, -0.0021263316739350557, -0.023466169834136963, 0.018708057701587677 },
			{ -0.010657248087227345, -0.04657619446516037, -0.11388318240642548, 0.09831783175468445, -0.0881534069776535, 0.15954220294952393, -0.06005878373980522, 0.032660044729709625, 0.023168174549937248, 0.06821500509977341 },
			{ 0.005170104559510946, -0.10968714207410812, 0.10254693031311035, -0.11398589611053467, 0.07380479574203491, -0.09290972352027893, -0.030475687235593796, -0.067108653485775, 0.07684880495071411, 0.04777837544679642 },
			{ 0.04363662376999855, -0.28307685256004333, 0.14205175638198853, -0.17187826335430145, 0.07068950682878494, -0.08997336030006409, -0.11495678126811981, -0.24234876036643982, -0.10655681788921356, -0.2603377103805542 },
			{ -0.06374570727348328, -0.05636490136384964, 0.06757248938083649, -0.16650138795375824, -0.06234705448150635, 0.1658240705728531, 0.07049166411161423, -0.12280362844467163, -0.03519270196557045, -0.04019929841160774 },
			{ 0.11618252098560333, 0.0905563086271286, -0.011625920422375202, -0.015096249990165234, -0.05854476988315582, 0.009809060022234917, 0.12785391509532928, 0.05446114018559456, -0.0350983589887619, 0.016377635300159454 },
			{ -0.012949522584676743, 0.14584572613239288, -0.038340769708156586, -0.08875691145658493, -0.17815734446048737, -0.061615195125341415, 0.10863490402698517, 0.09669317305088043, -0.13404478132724762, -0.1532353311777115 },
			{ 0.04329172521829605, -0.028539691120386124, -0.011668002232909203, 0.020064853131771088, -0.2590310871601105, 0.03433651104569435, -0.026135040447115898, 0.08278276771306992, 0.04084525629878044, 0.05033334717154503 },
			{ 0.0540018156170845, -0.09605095535516739, -0.018665021285414696, 0.01679481752216816, -0.145231232047081, 0.1676175594329834, -0.11779537796974182, -0.008732904680073261, 0.060537710785865784, 0.07112986594438553 },
			{ 0.008930450305342674, 0.0007040076307021081, 0.0583171471953392, 0.008605251088738441, 0.06352449953556061, -0.013446491211652756, -0.014784496277570724, -0.12509657442569733, -0.12530702352523804, 0.03941049799323082 },
			{ -0.1976277083158493, 0.05707760527729988, -0.040101829916238785, 0.0700775608420372, -0.03395165503025055, -0.21235638856887817, 0.12207110971212387, 0.031698089092969894, 0.008569324389100075, 0.05954478681087494 },
			{ 0.03807606175541878, 0.04962711036205292, -0.07775198668241501, 0.014221549965441227, -0.04895015060901642, -0.06676258891820908, -0.052648793905973434, 0.014504503458738327, 0.019418513402342796, -0.02839047461748123 },
			{ 0.09342033416032791, 0.07454639673233032, -0.0029321012552827597, 0.16567930579185486, -0.044496335089206696, -0.01868821680545807, -0.1752794235944748, -0.019758300855755806, -0.28628236055374146, 0.13767212629318237 },
			{ -0.14372269809246063, -0.07798377424478531, 0.016813255846500397, 0.07412425428628922, -0.1505236178636551, -0.03668835386633873, 0.03834192454814911, 0.1047348603606224, 0.0037986033130437136, 0.049467023462057114 },
			{ -0.06786006689071655, -0.011614377610385418, 0.045994799584150314, -0.09798908233642578, 0.0620650090277195, 0.14299876987934113, 0.015369879081845284, -0.00032542963162995875, -0.027821138501167297, 0.016338562592864037 },
			{ 0.0008551326463930309, -0.14140036702156067, 0.05198364704847336, -0.082794688642025, -0.16015839576721191, -0.0007345847552642226, 0.042729418724775314, 0.08668047189712524, -0.049218807369470596, 0.03931649774312973 },
			{ -0.0030383761040866375, 0.06849067658185959, -0.005469535477459431, 0.00914416927844286, -0.05387828126549721, 0.04229683801531792, 0.08120906352996826, 0.0605756938457489, -0.11496136337518692, -0.13119830191135406 },
			{ -0.06935688853263855, 0.00697740726172924, 0.1381348967552185, 0.0320289246737957, -0.06496916711330414, -0.0013062981888651848, -0.015231890603899956, -0.13213732838630676, 0.0847928375005722, -0.016438143327832222 },
			{ 0.1020418182015419, 0.12418103963136673, -0.03060818463563919, 0.1272243708372116, -0.010144260711967945, -0.027735088020563126, -0.14727307856082916, -0.0452813096344471, -0.07053875923156738, 0.09828053414821625 },
			{ -0.1099766343832016, -0.019064007326960564, 0.03698805347084999, 0.04404119402170181, -0.009040906094014645, -0.013951617293059826, 0.1976948082447052, 0.1579141914844513, -0.08514056354761124, -0.028688980266451836 },
			{ 0.016919612884521484, 0.05777212977409363, -0.12276827543973923, 0.014774559997022152, 0.028153885155916214, 0.0869385153055191, -0.014373598620295525, -0.02103578671813011, 0.025446275249123573, -0.0700448527932167 },
			{ -0.22090624272823334, -0.18404527008533478, 0.04520869627594948, -0.08649804443120956, -0.04980058968067169, -0.05329296737909317, -0.049207091331481934, 0.11324290186166763, 0.023910919204354286, 0.03807360306382179 },
			{ 0.09594573825597763, -0.01824556291103363, 0.05148424208164215, -0.23553773760795593, -0.014792242087423801, 0.023100093007087708, 0.1382797807455063, 0.03711787983775139, -0.16082964837551117, 0.027005013078451157 },
			{ -0.16731224954128265, -0.004456192720681429, 0.2046104073524475, 0.0134923430159688, -0.1354496031999588, -0.15895050764083862, -0.03981999307870865, -0.09607122093439102, 0.0709083080291748, 0.15909022092819214 },
			{ -0.21614187955856323, 0.18225839734077454, -0.06470660865306854, -0.07598865777254105, 0.10050210356712341, -0.06260557472705841, 0.004300722386687994, -0.11586764454841614, -0.0838983952999115, -0.10607333481311798 },
			{ -0.03055553138256073, 0.15763847529888153, 0.010551366955041885, -0.010432116687297821, 0.1653313934803009, -0.15680855512619019, -0.0011329849949106574, -0.07168884575366974, -0.02215629257261753, -0.08674181997776031 },
			{ -0.08896852284669876, 0.1444372534751892, -0.04756168648600578, -0.01950681395828724, -0.2024890035390854, -0.02139902673661709, -0.018152810633182526, 0.07931153476238251, -0.1257403939962387, 0.008107787929475307 },
			{ 0.147767573595047, 0.1927834302186966, 0.012993648648262024, -0.17963168025016785, -0.04648882523179054, 0.1304042488336563, 0.046051159501075745, 0.013373059220612049, -0.08313943445682526, 0.06464522331953049 },
			{ 0.31137099862098694, 0.03978336229920387, 0.11175911128520966, -0.08285658061504364, -0.14225132763385773, -0.16012750566005707, -0.2537992596626282, 0.0829782634973526, -0.03139033541083336, 0.04894435405731201 },
			{ 0.041715871542692184, -0.012428829446434975, -0.04242059588432312, 0.04776313900947571, 0.07078000903129578, -0.01234675757586956, 0.006903171539306641, 0.09026636928319931, -0.03208138421177864, -0.07386764883995056 },
			{ 0.08447722345590591, 0.0908333882689476, -0.08967962861061096, -0.0694408044219017, 0.10435667634010315, -0.020322680473327637, -0.038139041513204575, 0.05132606253027916, -0.04885909706354141, -0.004512548912316561 },
			{ 0.014155569486320019, -0.03456227481365204, 0.012731337919831276, 0.008274974301457405, 0.07133644819259644, -0.02633340284228325, -0.0650036558508873, -0.07683274149894714, 0.036525629460811615, -0.03315926715731621 },
			{ -0.07238952070474625, 0.06919258832931519, 0.15231315791606903, -0.16603155434131622, -0.25995269417762756, 0.16695000231266022, -0.06935464590787888, 0.1280338317155838, -0.19287018477916718, -0.010813928209245205 },
			{ 0.031429897993803024, 0.06522397696971893, 0.03255568444728851, -0.07290121912956238, 0.1215938925743103, -0.08002739399671555, 0.16197483241558075, 0.0008670174283906817, -0.02829684503376484, -0.15443862974643707 },
			{ 0.09279229491949081, -0.13804785907268524, 0.26695334911346436, -0.16738639771938324, -0.03508617356419563, -0.08977776020765305, 0.04566217586398125, 0.05307416990399361, 0.07393947243690491, -0.04770192876458168 },
			{ -0.01359078474342823, -0.076156847178936, 0.08310408145189285, -0.029282977804541588, -0.035753171890974045, 0.046496469527482986, -0.13507570326328278, 0.2395731806755066, -0.12322350591421127, -0.07837934046983719 },
			{ -0.09344229102134705, -0.0512080043554306, -0.06736341118812561, 0.04330284893512726, -0.03024630807340145, -0.04722006246447563, -0.037470508366823196, 0.08684918284416199, 0.06340980529785156, 0.10927922278642654 },
			{ 0.1833919882774353, -0.1951494663953781, 0.08671806007623672, -0.06252659112215042, 0.16478219628334045, -0.1338382065296173, -0.026379374787211418, 0.01637984625995159, -0.19681420922279358, -0.20849622786045074 },
			{ -0.002861370798200369, 0.05315031483769417, -0.006206308491528034, -0.014501855708658695, -0.2696036100387573, -0.03504033014178276, -0.03892030566930771, -0.03697209432721138, 0.09080149233341217, 0.07161224633455276 },
			{ 0.031168276444077492, -0.028818560764193535, 0.018884342163801193, -0.008011756464838982, -0.0009100553579628468, -0.09854499995708466, -0.0008814367465674877, 0.054881639778614044, -0.11160331964492798, 0.023799672722816467 },
			{ 0.04756636545062065, 0.184723362326622, 0.042513590306043625, -0.03723117709159851, 0.034311387687921524, -0.1392112523317337, -0.20372748374938965, 0.0968828946352005, -0.16599911451339722, -0.013191699981689453 },
			{ 0.007099118083715439, 0.06764621287584305, -0.003524637781083584, 0.057221103459596634, -0.42960506677627563, -0.16628673672676086, 0.002891586162149906, 0.2604557275772095, -0.14145921170711517, -0.08561017364263535 },
			{ -0.016782062128186226, 0.184793159365654, 0.04549140855669975, -0.12118072807788849, 0.003723318688571453, -0.10826073586940765, -0.030498603358864784, -0.24890433251857758, 0.035817261785268784, -0.04283558577299118 },
			{ 0.09139661490917206, -0.05616697669029236, 0.12302758544683456, -0.04205453395843506, -0.06172291934490204, -0.1217954233288765, -0.11950458586215973, 0.10510596632957458, -0.01266646571457386, 0.04666748270392418 },
			{ 0.04931718111038208, 0.08933200687170029, -0.05364098399877548, 0.05963250994682312, 0.0812072902917862, -0.012460747733712196, 0.029216468334197998, -0.07462140917778015, -0.10398928821086884, 0.04716184362769127 },
			{ -0.05765511095523834, -0.140953928232193, 0.15840008854866028, -0.050490472465753555, -0.1436876356601715, 0.05331746116280556, 0.09290969371795654, 0.16757448017597198, -0.14054502546787262, -0.027628794312477112 },
			{ 0.15717273950576782, 0.025266490876674652, 0.08825377374887466, -0.1063634529709816, 0.021805506199598312, -0.04521120712161064, -0.047573212534189224, 0.1367095559835434, 0.08768214285373688, -0.011073345318436623 },
			{ 0.037290703505277634, 0.048436861485242844, 0.12320009618997574, -0.0109627116471529, -0.20652133226394653, -0.30959007143974304, -0.13364529609680176, -0.11340934783220291, -0.03279799222946167, 0.06835620105266571 },
			{ 0.034137479960918427, -0.12953978776931763, 0.03838055580854416, -0.16634505987167358, 0.041087131947278976, -0.10155180096626282, -0.15091988444328308, 0.04851263388991356, -0.057768870145082474, 0.009888291358947754 },
			{ 0.11880951374769211, -0.03044207952916622, -0.0017629576614126563, 0.014006203971803188, -0.07949279248714447, 0.21463681757450104, -0.017842940986156464, -0.05385502055287361, -0.08452243357896805, -0.20094062387943268 },
			{ -0.042940981686115265, -0.036188237369060516, -0.21479469537734985, -0.04342278838157654, -0.024176927283406258, 0.0733809620141983, 0.03052542917430401, -0.019796272739768028, 0.03421065956354141, 0.01669292524456978 },
			{ -0.05365465581417084, 0.05540282279253006, -0.05314010754227638, -0.12350170314311981, 0.05605265125632286, 0.1609736680984497, -0.07667342573404312, 0.02267405018210411, -0.031101346015930176, -0.06603711098432541 },
			{ -0.07482650130987167, -0.03389688581228256, -0.03153666853904724, 0.01049876119941473, -0.03541376441717148, 0.0005491771153174341, 0.09450457245111465, -0.11587588489055634, 0.10512754321098328, 0.05823503062129021 },
			{ -0.06754821538925171, 0.12513510882854462, -0.11394719779491425, 0.20376838743686676, -0.28095754981040955, -0.0032358751632273197, 0.19017019867897034, -0.19069170951843262, -0.09610791504383087, -0.09889853745698929 },
			{ 0.0034857220016419888, -0.07216748595237732, 0.10230333358049393, -0.1141916960477829, 0.0015024476451799273, 0.006595428567379713, 0.03184157609939575, 0.06953166425228119, 0.06967560946941376, 0.018733268603682518 },
			{ -0.14589500427246094, 0.22484692931175232, -0.023863259702920914, -0.1735466569662094, 0.156932532787323, 0.10911362618207932, 0.04092622920870781, 0.002984032966196537, -0.19099543988704681, -0.08299222588539124 },
			{ -0.07798366993665695, -0.046957340091466904, 0.154647558927536, -0.22796788811683655, 0.19187170267105103, -0.06381691992282867, -0.13547368347644806, -0.03252280130982399, 0.10688795149326324, -0.08071142435073853 },
			{ -0.044555626809597015, 0.14492809772491455, -0.05762689560651779, 0.010743299499154091, 0.016836730763316154, 0.04007464274764061, 0.018160441890358925, 0.15289738774299622, -0.07345816493034363, -0.11231276392936707 },
			{ -0.06867467612028122, -0.0521051287651062, -0.005843689199537039, 0.051404014229774475, -0.11254633218050003, 0.16599608957767487, 0.03054577298462391, 0.08876647055149078, -0.022444892674684525, -0.05462983250617981 },
			{ -0.059525877237319946, -0.009280731901526451, -0.0642034262418747, 0.13271872699260712, 0.0314253494143486, -0.03456492722034454, -0.10003718733787537, -0.09852638095617294, -0.041204534471035004, 0.07586950808763504 },
			{ 0.027599573135375977, -0.02612205594778061, -0.08266927301883698, -0.159922793507576, 0.10912278294563293, -0.06764859706163406, 0.08240272104740143, 0.062462203204631805, -0.007074445486068726, -0.025274550542235374 },
			{ 0.03063088469207287, -0.031695812940597534, -0.007192183285951614, -0.05490761622786522, 0.02587801404297352, -0.07584954798221588, 0.07985473424196243, 0.10197129845619202, -0.036633457988500595, -0.04177495092153549 },
			{ 0.1065053716301918, 0.0008135931566357613, 0.1433040201663971, -0.10768012702465057, -0.08374347537755966, 0.06615833193063736, -0.1094963550567627, 0.015283655375242233, 0.006968855857849121, -0.1612585037946701 },
			{ -0.0748990848660469, -0.13722436130046844, -0.15730001032352448, -0.041672855615615845, -0.14593784511089325, 0.15928322076797485, -0.0179540254175663, 0.04358822852373123, 0.08551469445228577, -0.03836960718035698 },
			{ -0.01724044792354107, -0.030844083055853844, 0.050503600388765335, 0.03074599988758564, -0.070088692009449, 0.0005448816227726638, 0.07943557947874069, -0.03785785287618637, 0.0780692920088768, -0.02127823233604431 },
			{ -0.04452279582619667, -0.2095116525888443, -0.04770519584417343, -0.010619434528052807, -0.07321018725633621, 0.022453337907791138, 0.19372600317001343, 0.021130507811903954, 0.010989360511302948, -0.05158837512135506 },
			{ -0.28481006622314453, 0.08390157669782639, 0.11903371661901474, -0.15313412249088287, -0.10828307271003723, 0.10928196460008621, 0.03185729309916496, -0.0904148742556572, 0.09551557153463364, -0.0782582014799118 },
			{ -0.028389103710651398, 0.10348105430603027, 0.09119121730327606, 0.02513342723250389, -0.07776294648647308, -0.05666280537843704, -0.09150072932243347, 0.07436984032392502, 0.009639560244977474, 0.012528185732662678 },
			{ -0.06527861952781677, 0.05938873440027237, -0.025636300444602966, 0.15378564596176147, -0.07575688511133194, -0.22202371060848236, -0.060235634446144104, 0.1263027936220169, 0.030469505116343498, -0.007894525304436684 },
			{ -0.07625798881053925, 0.07913696765899658, 0.0015406154561787844, 0.09332609176635742, 0.09200851619243622, -0.04592909291386604, 0.16532079875469208, 0.12497659027576447, 0.06345485150814056, -0.19875086843967438 },
			{ -0.06786588579416275, 0.08421669155359268, 0.08339066058397293, -0.02800481766462326, -0.18077628314495087, -0.03152082487940788, 0.005185408983379602, 0.007436051499098539, -0.03633631020784378, 0.020787090063095093 },
			{ 0.12263457477092743, -0.205747589468956, 0.05051642656326294, -0.061836451292037964, -0.17218172550201416, -0.13212843239307404, 0.05176512524485588, -0.05077588930726051, -0.09789927303791046, 0.04116031900048256 },
			{ -0.01920873299241066, -0.06490785628557205, 0.006696334574371576, -0.05035389959812164, -0.11314977705478668, 0.06238609924912453, 0.1439346820116043, -0.052498407661914825, -0.013073164969682693, 0.012067659758031368 },
			{ 0.0295896977186203, -0.03948504105210304, 0.054360464215278625, -0.05914349481463432, 0.026866264641284943, -0.05041177198290825, 0.18920867145061493, 0.01848088763654232, 0.06334205716848373, -0.05741167813539505 },
			{ 0.004505743272602558, 0.04197608679533005, -0.11013749986886978, 0.05767137184739113, 0.015917442739009857, 0.07426253706216812, 0.013538123108446598, 0.06523089110851288, -0.1832396686077118, -0.016843464225530624 },
			{ 0.16676360368728638, -0.044665392488241196, -0.012662847526371479, 0.020475925877690315, -0.09182300418615341, -0.1241755560040474, 0.001206413609907031, 0.013274391181766987, 0.07267946004867554, 0.0033077162224799395 },
			{ -0.03636367619037628, 0.005010363645851612, 0.11679559201002121, -0.20640650391578674, -0.057698022574186325, 0.13378779590129852, 0.06710289418697357, -0.0027102844323962927, -0.11690300703048706, -0.09658028185367584 },
			{ 0.10153261572122574, 0.11986192315816879, 0.0966896042227745, -0.042042262852191925, -0.18117180466651917, 0.20585809648036957, 0.07410284876823425, -0.13756757974624634, -0.08885078877210617, -0.001892171218059957 },
			{ 0.005053911358118057, -0.05159889534115791, -0.037637241184711456, 0.04515114799141884, -0.059627268463373184, -0.14562951028347015, 0.10565962642431259, 0.12820124626159668, -0.16955971717834473, 0.05658382549881935 },
			{ -0.03505438566207886, 0.03989652916789055, 0.08176499605178833, -0.06534237414598465, 0.08040410280227661, 0.01771850883960724, -0.034848954528570175, 0.028536755591630936, -0.18034598231315613, 0.06422877311706543 },
			{ -0.0219246968626976, -0.08569589257240295, 0.029152508825063705, 0.07910989969968796, 0.047621164470911026, 0.014025495387613773, -0.010092038661241531, -0.06401492655277252, -0.04798547923564911, -0.0689527690410614 },
			{ 0.027947140857577324, 0.006843432784080505, 0.024874120950698853, 0.055535588413476944, 0.13367240130901337, -0.06150031089782715, 0.08385898172855377, -0.0684557855129242, 0.0010167689761146903, -0.09209524840116501 },
			{ -0.17268119752407074, 0.06285914778709412, -0.034669362008571625, 0.028755947947502136, -0.1094675287604332, 0.05349622294306755, 0.12651847302913666, 0.07516071200370789, -0.23860901594161987, -0.0018211797578260303 },
			{ -0.19752921164035797, 0.13614019751548767, 0.1013338565826416, -0.009131480008363724, 0.06567409634590149, -0.13654793798923492, 0.007492258213460445, -0.04173994064331055, -0.12673906981945038, -0.059927988797426224 },
			{ -0.00990894716233015, 0.003934462089091539, -0.07336790859699249, -0.31345582008361816, -0.10701072216033936, 0.057385511696338654, 0.1355714499950409, 0.03060789220035076, -0.058629877865314484, 0.08091862499713898 },
			{ -0.03670130670070648, 0.011985983699560165, 0.02836354449391365, -0.14656294882297516, -0.12741711735725403, 0.16230815649032593, -0.06388892233371735, -0.11507964134216309, -0.05537903681397438, 0.021080076694488525 },
			{ 0.0036545719485729933, -0.09280146658420563, 0.11521516740322113, -0.012609225697815418, 0.041324589401483536, -0.07286141812801361, -0.09929557889699936, 0.03683430701494217, -0.07137119770050049, -0.008427192457020283 },
			{ -0.04967785254120827, 0.156163290143013, 0.001581671298481524, 0.017432209104299545, -0.18658065795898438, -0.3063071668148041, -0.11884913593530655, 0.005503242369741201, -0.06139293685555458, 0.04112032800912857 },
			{ -0.025664977729320526, 0.15755000710487366, -0.0568278469145298, 0.03284924477338791, -0.024372495710849762, 0.07124467194080353, -0.17609301209449768, -0.012973964214324951, -0.06735996156930923, 0.1267973929643631 },
			{ 0.15312758088111877, -0.12895338237285614, 0.08921406418085098, -0.09704037010669708, -0.13314473628997803, 0.045516036450862885, 0.05224660784006119, 0.003968723583966494, 0.025698745623230934, 0.14761905372142792 },
			{ -0.07220049202442169, -0.05203400179743767, -0.036357440054416656, -0.14423449337482452, 0.04332704842090607, 0.13407376408576965, 0.15009261667728424, 0.0059566800482571125, -0.002292946446686983, 0.030601762235164642 },
			{ -0.038392938673496246, -0.03753690794110298, 0.18478575348854065, -0.11494618654251099, -0.2431233823299408, 0.05687817186117172, -0.12141720950603485, 0.11892277747392654, -0.12489866465330124, -0.09424752742052078 },
